{"learner":{"attributes":{"best_iteration":"168","best_score":"0.27868465665190695"},"feature_names":[],"feature_types":[],"gradient_booster":{"model":{"gbtree_model_param":{"num_parallel_tree":"1","num_trees":"179"},"iteration_indptr":[0,1,2,3,4,5,6,7,8,9,10,11,12,13,14,15,16,17,18,19,20,21,22,23,24,25,26,27,28,29,30,31,32,33,34,35,36,37,38,39,40,41,42,43,44,45,46,47,48,49,50,51,52,53,54,55,56,57,58,59,60,61,62,63,64,65,66,67,68,69,70,71,72,73,74,75,76,77,78,79,80,81,82,83,84,85,86,87,88,89,90,91,92,93,94,95,96,97,98,99,100,101,102,103,104,105,106,107,108,109,110,111,112,113,114,115,116,117,118,119,120,121,122,123,124,125,126,127,128,129,130,131,132,133,134,135,136,137,138,139,140,141,142,143,144,145,146,147,148,149,150,151,152,153,154,155,156,157,158,159,160,161,162,163,164,165,166,167,168,169,170,171,172,173,174,175,176,177,178,179],"tree_info":[0,0,0,0,0,0,0,0,0,0,0,0,0,0,0,0,0,0,0,0,0,0,0,0,0,0,0,0,0,0,0,0,0,0,0,0,0,0,0,0,0,0,0,0,0,0,0,0,0,0,0,0,0,0,0,0,0,0,0,0,0,0,0,0,0,0,0,0,0,0,0,0,0,0,0,0,0,0,0,0,0,0,0,0,0,0,0,0,0,0,0,0,0,0,0,0,0,0,0,0,0,0,0,0,0,0,0,0,0,0,0,0,0,0,0,0,0,0,0,0,0,0,0,0,0,0,0,0,0,0,0,0,0,0,0,0,0,0,0,0,0,0,0,0,0,0,0,0,0,0,0,0,0,0,0,0,0,0,0,0,0,0,0,0,0,0,0,0,0,0,0,0,0,0,0,0,0,0,0],"trees":[{"base_weights":[-5.8461414E-3,4.0450066E-2,-4.6895456E-1,3.1504387E-1,-1.8809482E-3,1.7196475E-2,-4.9484807E-1,3.623282E-2,-0E0,3.5843946E-2,-3.3304628E-2,8.736523E-3,-5.130715E-1,3.0133644E-1,-5.7319347E-2,-5.3212494E-1,8.736523E-3,-0E0,3.539153E-2,3.4092616E-2,-9.466172E-3,-0E0,-6.156555E-2],"categories":[],"categories_nodes":[],"categories_segments":[],"categories_sizes":[],"default_left":[1,0,0,1,0,0,0,0,0,0,0,0,1,0,0,0,0,0,0,0,0,0,0],"id":0,"left_children":[1,3,5,7,9,-1,11,-1,-1,-1,13,-1,15,17,19,21,-1,-1,-1,-1,-1,-1,-1],"loss_changes":[4.470119E1,2.21078E1,3.4147377E0,5.294132E-1,1.5936805E1,0E0,2.3470726E0,0E0,0E0,0E0,1.1680465E1,0E0,2.4718056E0,5.085249E-1,1.2687349E1,1.2717094E0,0E0,0E0,0E0,0E0,0E0,0E0,0E0],"parents":[2147483647,0,0,1,1,2,2,3,3,4,4,6,6,10,10,12,12,13,13,14,14,15,15],"right_children":[2,4,6,8,10,-1,12,-1,-1,-1,14,-1,16,18,20,22,-1,-1,-1,-1,-1,-1,-1],"split_conditions":[1.454772E-1,2.00001E0,1.918615E-1,5.774942E-1,2.00001E0,1.7196475E-2,2.9806775E-1,3.623282E-2,-0E0,3.5843946E-2,1.0542989E0,8.736523E-3,3.3295622E-1,2.5377965E-1,1.079535E0,1.094242E0,8.736523E-3,-0E0,3.539153E-2,3.4092616E-2,-9.466172E-3,-0E0,-6.156555E-2],"split_indices":[4259,3261,3261,4681,4519,0,295,0,0,0,2554,0,1346,184,352,353,0,0,0,0,0,0,0],"split_type":[0,0,0,0,0,0,0,0,0,0,0,0,0,0,0,0,0,0,0,0,0,0,0],"sum_hessian":[2.065E3,1.876E3,1.89E2,2.53E2,1.623E3,6E0,1.83E2,2.52E2,1E0,1.43E2,1.48E3,4E0,1.79E2,9.6E1,1.384E3,1.75E2,4E0,1E0,9.5E1,9.1E1,1.293E3,2E0,1.73E2],"tree_param":{"num_deleted":"0","num_feature":"5000","num_nodes":"23","size_leaf_vector":"1"}},{"base_weights":[-1.3721695E-3,2.861869E-1,-8.857905E-2,2.987676E-1,-5.2561257E-2,3.1178892E-1,-1.5420963E-1,-0E0,3.0099276E-1,-0E0,3.5940167E-2,2.7100846E-1,-1.9934879E-1,-0E0,3.031315E-1,3.1655487E-2,-0E0,-2.5044712E-1,2.136592E-1,3.4677815E-2,-0E0,3.1627335E-2,-3.2103077E-2,-4.8432127E-2,2.8284201E-2],"categories":[],"categories_nodes":[],"categories_segments":[],"categories_sizes":[],"default_left":[0,1,0,0,0,0,0,0,0,0,0,1,1,0,1,0,0,0,0,0,0,0,0,0,0],"id":1,"left_children":[1,3,5,7,-1,9,11,-1,13,-1,-1,15,17,-1,19,-1,-1,21,23,-1,-1,-1,-1,-1,-1],"loss_changes":[4.9724297E1,4.271881E0,4.007491E1,5.161247E-1,0E0,5.176792E-1,2.5237549E1,0E0,4.9422455E-1,0E0,0E0,4.4739342E-1,2.5236889E1,0E0,4.9838638E-1,0E0,0E0,1.8147049E1,2.8309793E0,0E0,0E0,0E0,0E0,0E0,0E0],"parents":[2147483647,0,0,1,1,2,2,3,3,5,5,6,6,8,8,11,11,12,12,14,14,17,17,18,18],"right_children":[2,4,6,8,-1,10,12,-1,14,-1,-1,16,18,-1,20,-1,-1,22,24,-1,-1,-1,-1,-1,-1],"split_conditions":[1.1982683E0,2.813202E-1,2.00001E0,4.7302285E-1,-5.2561257E-2,1.6709848E-1,2.00001E0,-0E0,5.167728E-1,-0E0,3.5940167E-2,5.774942E-1,6.0459796E-2,-0E0,3.8896388E-1,3.1655487E-2,-0E0,5.2259475E-1,4.071148E-1,3.4677815E-2,-0E0,3.1627335E-2,-3.2103077E-2,-4.8432127E-2,2.8284201E-2],"split_indices":[324,4803,400,4032,0,58,3261,0,262,0,0,4681,4979,0,433,0,0,295,4803,0,0,0,0,0,0],"split_type":[0,0,0,0,0,0,0,0,0,0,0,0,0,0,0,0,0,0,0,0,0,0,0,0,0],"sum_hessian":[1.989E3,4.6E2,1.529E3,4.54E2,6E0,2.13E2,1.316E3,1E0,4.53E2,1E0,2.12E2,1.24E2,1.192E3,1E0,4.52E2,1.23E2,1E0,1.063E3,1.29E2,4.51E2,1E0,5.9E1,1.004E3,5E0,1.24E2],"tree_param":{"num_deleted":"0","num_feature":"5000","num_nodes":"25","size_leaf_vector":"1"}},{"base_weights":[-1.1080409E-3,2.742915E-1,-4.7595885E-2,-0E0,3.152317E-2,2.2725222E-1,-1.01447955E-1,2.4522392E-1,-3.2514134E-1,2.6129475E-1,-1.5660645E-1,-3.5994336E-2,2.5546145E-1,-0E0,-4.9054533E-2,3.0250479E-2,-0E0,2.7017407E-2,-1.9638643E-1,-1.6977869E-2,2.9783158E-2,-1.8825984E-2,-5.767254E-2],"categories":[],"categories_nodes":[],"categories_segments":[],"categories_sizes":[],"default_left":[0,0,0,0,0,1,0,0,0,1,0,0,0,0,0,0,0,0,1,0,0,0,0],"id":2,"left_children":[1,3,5,-1,-1,7,9,11,13,15,17,-1,19,-1,-1,-1,-1,-1,21,-1,-1,-1,-1],"loss_changes":[2.6074522E1,4.441986E-1,2.5940666E1,0E0,0E0,2.8100433E0,2.9431915E1,1.595993E0,4.2910677E-1,4.3820667E-1,2.0115967E1,0E0,8.811474E-1,0E0,0E0,0E0,0E0,0E0,1.0459148E1,0E0,0E0,0E0,0E0],"parents":[2147483647,0,0,1,1,2,2,5,5,6,6,7,7,8,8,9,9,10,10,12,12,18,18],"right_children":[2,4,6,-1,-1,8,10,12,14,16,18,-1,20,-1,-1,-1,-1,-1,22,-1,-1,-1,-1],"split_conditions":[2.00001E0,1.6709848E-1,7.919872E-1,-0E0,3.152317E-2,1.2318211E-1,1.6013148E0,7.8737533E-1,2.5770587E-1,4.2562234E-1,2.00001E0,-3.5994336E-2,1.4950613E0,-0E0,-4.9054533E-2,3.0250479E-2,-0E0,2.7017407E-2,1.8285619E-1,-1.6977869E-2,2.9783158E-2,-1.8825984E-2,-5.767254E-2],"split_indices":[400,58,4979,0,0,4803,295,4810,779,3230,3261,0,3369,0,0,0,0,0,2200,0,0,0,0],"split_type":[0,0,0,0,0,0,0,0,0,0,0,0,0,0,0,0,0,0,0,0,0,0,0],"sum_hessian":[2.052E3,2.93E2,1.759E3,1E0,2.92E2,2.85E2,1.474E3,2.78E2,7E0,1.92E2,1.282E3,3E0,2.75E2,1E0,6E0,1.91E2,1E0,1.15E2,1.167E3,2E0,2.73E2,1.066E3,1.01E2],"tree_param":{"num_deleted":"0","num_feature":"5000","num_nodes":"23","size_leaf_vector":"1"}},{"base_weights":[-3.3328289E-3,3.0387618E-2,-4.1420752E-1,4.6917535E-2,-4.5922887E-1,-4.3379506E-1,9.688477E-3,2.9769054E-2,1.6523564E-2,6.6856574E-3,-5.038994E-1,7.30829E-3,-4.537854E-1,2.7794287E-2,-4.1545528E-1,-0E0,-5.198604E-1,1.1588208E-2,-4.7211567E-1,2.4116063E-2,6.797468E-4,1.4945465E-3,-5.5924177E-2,-0E0,-6.083802E-2,-0E0,-5.487848E-2],"categories":[],"categories_nodes":[],"categories_segments":[],"categories_sizes":[],"default_left":[1,1,1,0,0,0,0,0,1,0,0,0,0,0,0,0,0,0,0,0,0,0,0,0,0,0,0],"id":3,"left_children":[1,3,5,7,9,11,-1,-1,13,-1,15,-1,17,19,21,-1,23,-1,25,-1,-1,-1,-1,-1,-1,-1,-1],"loss_changes":[2.8585173E1,1.4846916E1,1.882431E0,1.1647854E1,1.8159218E0,1.9034138E0,0E0,0E0,7.436332E0,0E0,6.54953E-1,0E0,1.8914108E0,6.0825715E0,1.726069E0,0E0,6.357584E-1,0E0,1.0628967E0,0E0,0E0,0E0,0E0,0E0,0E0,0E0,0E0],"parents":[2147483647,0,0,1,1,2,2,3,3,4,4,5,5,8,8,10,10,12,12,13,13,14,14,16,16,18,18],"right_children":[2,4,6,8,10,12,-1,-1,14,-1,16,-1,18,20,22,-1,24,-1,26,-1,-1,-1,-1,-1,-1,-1,-1],"split_conditions":[1.8567298E-1,1.940797E-1,3.2948947E-1,2.00001E0,4.148749E-1,6.7959285E-1,9.688477E-3,2.9769054E-2,1.7563087E-1,6.6856574E-3,2.9726255E-1,7.30829E-3,2.8826225E-1,2.00001E0,6.550661E-2,-0E0,7.0308065E-1,1.1588208E-2,3.6622673E-1,2.4116063E-2,6.797468E-4,1.4945465E-3,-5.5924177E-2,-0E0,-6.083802E-2,-0E0,-5.487848E-2],"split_indices":[4259,4803,1346,4519,4550,2785,0,0,1786,0,709,0,435,3261,4772,0,132,0,143,0,0,0,0,0,0,0,0],"split_type":[0,0,0,0,0,0,0,0,0,0,0,0,0,0,0,0,0,0,0,0,0,0,0,0,0,0,0],"sum_hessian":[2.036E3,1.88E3,1.56E2,1.821E3,5.9E1,1.52E2,4E0,2.21E2,1.6E3,3E0,5.6E1,4E0,1.48E2,1.562E3,3.8E1,1E0,5.5E1,3E0,1.45E2,1.6E2,1.402E3,4E0,3.4E1,1E0,5.4E1,2E0,1.43E2],"tree_param":{"num_deleted":"0","num_feature":"5000","num_nodes":"27","size_leaf_vector":"1"}},{"base_weights":[-5.101571E-4,2.3025501E-1,-6.95495E-2,2.6556622E-2,-1.0627461E-2,2.732233E-2,-1.2143627E-1,2.7383104E-2,-1.7653717E-1,1.5837806E-1,-2.1800895E-1,2.1069128E-2,-1.0044442E-2,2.04127E-2,-2.796296E-2],"categories":[],"categories_nodes":[],"categories_segments":[],"categories_sizes":[],"default_left":[0,1,0,0,0,0,0,0,0,1,0,0,0,0,0],"id":4,"left_children":[1,3,5,-1,-1,-1,7,-1,9,11,13,-1,-1,-1,-1],"loss_changes":[3.241786E1,6.7990875E-1,2.527245E1,0E0,0E0,0E0,2.7003109E1,0E0,1.6434029E1,9.548559E-1,1.18553505E1,0E0,0E0,0E0,0E0],"parents":[2147483647,0,0,1,1,2,2,6,6,8,8,9,9,10,10],"right_children":[2,4,6,-1,-1,-1,8,-1,10,12,14,-1,-1,-1,-1],"split_conditions":[5.9912914E-1,2.4032485E-1,2.00001E0,2.6556622E-2,-1.0627461E-2,2.732233E-2,2.00001E0,2.7383104E-2,3.9598858E-1,1.22108184E-1,2.00001E0,2.1069128E-2,-1.0044442E-2,2.04127E-2,-2.796296E-2],"split_indices":[324,3121,400,0,0,0,4519,0,4979,4800,3261,0,0,0,0],"split_type":[0,0,0,0,0,0,0,0,0,0,0,0,0,0,0],"sum_hessian":[2.043E3,4.67E2,1.576E3,4.65E2,2E0,2.23E2,1.353E3,1.76E2,1.177E3,1.27E2,1.05E3,1.18E2,9E0,6.7E1,9.83E2],"tree_param":{"num_deleted":"0","num_feature":"5000","num_nodes":"15","size_leaf_vector":"1"}},{"base_weights":[1.9885178E-3,2.4120033E-2,-3.3016626E-2,1.8944493E-1,-7.647826E-2,-2.725521E-2,1.9797169E-1,2.3952521E-2,-1.2284013E-1,2.0750271E-1,-1.3731835E-2,2.52201E-2,-1.5602972E-1,2.4451286E-2,-7.889571E-3,3.189117E-2,-2.008422E-2],"categories":[],"categories_nodes":[],"categories_segments":[],"categories_sizes":[],"default_left":[0,0,0,0,0,0,1,0,0,1,0,0,0,0,0,0,0],"id":5,"left_children":[1,-1,3,5,7,-1,9,-1,11,13,-1,-1,15,-1,-1,-1,-1],"loss_changes":[1.5176167E1,0E0,1.6761263E1,1.0212193E0,1.9417973E1,0E0,9.436188E-1,0E0,1.4411287E1,7.333994E-1,0E0,0E0,1.0411922E1,0E0,0E0,0E0,0E0],"parents":[2147483647,0,0,2,2,3,3,4,4,6,6,8,8,9,9,12,12],"right_children":[2,-1,4,6,8,-1,10,-1,12,14,-1,-1,16,-1,-1,-1,-1],"split_conditions":[2.00001E0,2.4120033E-2,7.919872E-1,1.4950613E0,2.00001E0,-2.725521E-2,2.575579E-1,2.3952521E-2,1.6013148E0,1.2318211E-1,-1.3731835E-2,2.52201E-2,3.235825E-1,2.4451286E-2,-7.889571E-3,3.189117E-2,-2.008422E-2],"split_indices":[400,0,4979,3369,4519,0,4986,0,295,4803,0,0,2767,0,0,0,0],"split_type":[0,0,0,0,0,0,0,0,0,0,0,0,0,0,0,0,0],"sum_hessian":[2.037E3,2.94E2,1.743E3,2.81E2,1.462E3,3E0,2.78E2,2E2,1.262E3,2.73E2,5E0,1.08E2,1.154E3,2.69E2,4E0,5E1,1.104E3],"tree_param":{"num_deleted":"0","num_feature":"5000","num_nodes":"17","size_leaf_vector":"1"}},{"base_weights":[3.9030606E-4,1.9555345E-1,-5.8037188E-2,2.310859E-2,-3.5726633E-2,2.1906136E-2,-1.00809775E-1,-6.1717093E-2,-3.5580155E-1,1.7294573E-2,-8.774479E-2,2.3794726E-3,-3.7251666E-1,3.745177E-2,-1.1452051E-2,-0E0,-4.3695375E-2],"categories":[],"categories_nodes":[],"categories_segments":[],"categories_sizes":[],"default_left":[0,1,0,0,0,0,1,0,0,0,0,0,0,0,0,0,0],"id":6,"left_children":[1,3,5,-1,-1,-1,7,9,11,-1,13,-1,15,-1,-1,-1,-1],"loss_changes":[2.333668E1,1.8348331E0,1.6694118E1,0E0,0E0,0E0,1.2938317E1,6.4336104E0,1.4344501E0,0E0,5.4949293E0,0E0,1.116251E0,0E0,0E0,0E0,0E0],"parents":[2147483647,0,0,1,1,2,2,6,6,7,7,8,8,10,10,12,12],"right_children":[2,4,6,-1,-1,-1,8,10,12,-1,14,-1,16,-1,-1,-1,-1],"split_conditions":[5.9912914E-1,2.813202E-1,2.00001E0,2.310859E-2,-3.5726633E-2,2.1906136E-2,1.0744626E-1,2.00001E0,2.8826225E-1,1.7294573E-2,1.0827869E0,2.3794726E-3,1.860333E-1,3.745177E-2,-1.1452051E-2,-0E0,-4.3695375E-2],"split_indices":[324,4803,400,0,0,0,4259,3261,435,0,4062,0,3261,0,0,0,0],"split_type":[0,0,0,0,0,0,0,0,0,0,0,0,0,0,0,0,0],"sum_hessian":[2.034E3,4.72E2,1.562E3,4.67E2,5E0,2.24E2,1.338E3,1.164E3,1.74E2,1.22E2,1.042E3,5E0,1.69E2,2.9E1,1.013E3,3E0,1.66E2],"tree_param":{"num_deleted":"0","num_feature":"5000","num_nodes":"17","size_leaf_vector":"1"}},{"base_weights":[2.721287E-3,1.777655E-1,-5.0913893E-2,-1.8137585E-2,2.0678544E-2,1.9588411E-1,-7.526971E-2,2.2320591E-1,-3.391224E-2,1.770178E-1,-9.453587E-2,-2.497003E-3,2.6845273E-2,-4.9664364E-3,1.917334E-1,1.7951174E-2,-1.1181968E-1,-0E0,2.3499286E-2,1.9717116E-2,-1.4561646E-2],"categories":[],"categories_nodes":[],"categories_segments":[],"categories_sizes":[],"default_left":[0,0,0,0,0,1,0,0,0,0,0,0,0,0,0,0,0,0,0,0,0],"id":7,"left_children":[1,3,5,-1,-1,7,9,11,-1,13,15,-1,-1,-1,17,-1,19,-1,-1,-1,-1],"loss_changes":[1.9273714E1,7.351351E-1,9.258779E0,0E0,0E0,1.8162732E0,6.842944E0,6.2784386E-1,0E0,4.6122098E-1,5.749982E0,0E0,0E0,0E0,4.4860816E-1,0E0,5.781728E0,0E0,0E0,0E0,0E0],"parents":[2147483647,0,0,1,1,2,2,5,5,6,6,7,7,9,9,10,10,14,14,16,16],"right_children":[2,4,6,-1,-1,8,10,12,-1,14,16,-1,-1,-1,18,-1,20,-1,-1,-1,-1],"split_conditions":[1.1982683E0,7.5651896E-1,1.5637674E0,-1.8137585E-2,2.0678544E-2,2.3085035E-1,1.5751505E-1,9.81335E-2,-3.391224E-2,7.458175E-1,5.2259475E-1,-2.497003E-3,2.6845273E-2,-4.9664364E-3,6.103559E-1,1.7951174E-2,1.7716642E-1,-0E0,2.3499286E-2,1.9717116E-2,-1.4561646E-2],"split_indices":[324,262,1459,0,0,1485,4772,4772,0,4782,295,0,0,0,4863,0,2016,0,0,0,0],"split_type":[0,0,0,0,0,0,0,0,0,0,0,0,0,0,0,0,0,0,0,0,0],"sum_hessian":[2.039E3,4.82E2,1.557E3,3E0,4.79E2,1.36E2,1.421E3,1.31E2,5E0,9.7E1,1.324E3,3E0,1.28E2,2E0,9.5E1,8.1E1,1.243E3,3E0,9.2E1,6.4E1,1.179E3],"tree_param":{"num_deleted":"0","num_feature":"5000","num_nodes":"21","size_leaf_vector":"1"}},{"base_weights":[-1.6870605E-3,2.3286426E-2,-2.3740321E-1,3.408682E-2,-5.51463E-2,8.024158E-3,-2.588291E-1,4.078881E-2,-3.9718884E-1,1.6165337E-2,-2.707802E-1,4.7055718E-2,-4.8668917E-2,-0E0,-5.052137E-2,-2.8180826E-1,8.599783E-3,6.1580897E-3,-4.2051394E-2,-0E0,-3.3430867E-2],"categories":[],"categories_nodes":[],"categories_segments":[],"categories_sizes":[],"default_left":[1,1,0,1,0,0,0,1,0,0,1,1,0,0,0,0,0,0,0,0,0],"id":8,"left_children":[1,3,5,7,-1,-1,9,11,13,-1,15,17,-1,-1,-1,19,-1,-1,-1,-1,-1],"loss_changes":[1.2246247E1,9.733437E0,1.5054913E0,4.9090233E0,0E0,0E0,1.0535698E0,4.90551E0,6.3048744E-1,0E0,9.197769E-1,4.9846945E0,0E0,0E0,0E0,8.886471E-1,0E0,0E0,0E0,0E0,0E0],"parents":[2147483647,0,0,1,1,2,2,3,3,6,6,7,7,8,8,10,10,11,11,15,15],"right_children":[2,4,6,8,-1,-1,10,12,14,-1,16,18,-1,-1,-1,20,-1,-1,-1,-1,-1],"split_conditions":[1.22512065E-1,2.319505E-1,1.918615E-1,2.9744616E-1,-5.51463E-2,8.024158E-3,3.6463004E-1,2.0078516E-1,3.5472235E-1,1.6165337E-2,3.5313243E-1,2.9439923E-1,-4.8668917E-2,-0E0,-5.052137E-2,2.9850292E-1,8.599783E-3,6.1580897E-3,-4.2051394E-2,-0E0,-3.3430867E-2],"split_indices":[4259,184,3261,1043,0,0,2023,3162,1459,0,219,4803,0,0,0,3983,0,0,0,0,0],"split_type":[0,0,0,0,0,0,0,0,0,0,0,0,0,0,0,0,0,0,0,0,0],"sum_hessian":[2.045E3,1.846E3,1.99E2,1.81E3,3.6E1,1E1,1.89E2,1.785E3,2.5E1,3E0,1.86E2,1.764E3,2.1E1,2E0,2.3E1,1.83E2,3E0,1.737E3,2.7E1,5E0,1.78E2],"tree_param":{"num_deleted":"0","num_feature":"5000","num_nodes":"21","size_leaf_vector":"1"}},{"base_weights":[-4.6278303E-3,1.1812963E-2,-2.985683E-1,1.7241955E-2,-1.2628477E-2,-0E0,-3.230121E-1,1.363047E-1,-4.5550104E-2,9.572002E-3,-3.4026864E-1,1.617645E-2,-7.2676074E-3,1.93013E-2,-7.998561E-2,-0E0,-3.605669E-1,1.8711867E-2,-1.1906708E-2,-0E0,-4.2187214E-2],"categories":[],"categories_nodes":[],"categories_segments":[],"categories_sizes":[],"default_left":[1,0,0,0,0,0,0,1,0,0,0,0,0,0,0,0,0,0,0,0,0],"id":9,"left_children":[1,3,5,-1,7,-1,9,11,13,-1,15,-1,-1,-1,17,-1,19,-1,-1,-1,-1],"loss_changes":[1.0268157E1,6.825686E0,1.0851259E0,0E0,8.060918E0,0E0,1.0074291E0,4.4053316E-1,1.0056503E1,0E0,9.682865E-1,0E0,0E0,0E0,7.135113E0,0E0,5.210686E-1,0E0,0E0,0E0,0E0],"parents":[2147483647,0,0,1,1,2,2,4,4,6,6,7,7,8,8,10,10,14,14,16,16],"right_children":[2,4,6,-1,8,-1,10,12,14,-1,16,-1,-1,-1,18,-1,20,-1,-1,-1,-1],"split_conditions":[1.8285619E-1,2.00001E0,3.366335E-1,1.7241955E-2,7.919872E-1,-0E0,1.7890912E0,2.4986537E-1,2.00001E0,9.572002E-3,2.8703403E-1,1.617645E-2,-7.2676074E-3,1.93013E-2,1.6013148E0,-0E0,2.5418496E-1,1.8711867E-2,-1.1906708E-2,-0E0,-4.2187214E-2],"split_indices":[2200,400,4519,0,4979,0,4549,184,4519,0,400,0,0,0,295,0,295,0,0,0,0],"split_type":[0,0,0,0,0,0,0,0,0,0,0,0,0,0,0,0,0,0,0,0,0],"sum_hessian":[2.068E3,1.956E3,1.12E2,2.96E2,1.66E3,6E0,1.06E2,2.95E2,1.365E3,2E0,1.04E2,2.91E2,4E0,1.84E2,1.181E3,4E0,1E2,1.05E2,1.076E3,2E0,9.8E1],"tree_param":{"num_deleted":"0","num_feature":"5000","num_nodes":"21","size_leaf_vector":"1"}},{"base_weights":[1.1892985E-3,1.3874446E-1,-4.088137E-2,1.67653E-2,-3.3716187E-2,1.8740004E-2,-7.004584E-2,1.5604365E-1,-9.364932E-2,1.8730137E-1,-3.144735E-2,2.8559428E-1,-1.04695946E-1,-9.91831E-3,2.277817E-2,-0E0,3.8247626E-2,3.7411395E-2,-1.2924142E-2],"categories":[],"categories_nodes":[],"categories_segments":[],"categories_sizes":[],"default_left":[0,1,0,0,0,0,0,1,0,0,0,0,0,0,0,0,0,0,0],"id":10,"left_children":[1,3,5,-1,-1,-1,7,9,11,13,-1,15,17,-1,-1,-1,-1,-1,-1],"loss_changes":[1.1788779E1,1.7312374E0,9.179481E0,0E0,0E0,0E0,7.1847987E0,1.6344454E0,5.00852E0,5.478382E-1,0E0,6.9747066E-1,4.548456E0,0E0,0E0,0E0,0E0,0E0,0E0],"parents":[2147483647,0,0,1,1,2,2,6,6,7,7,8,8,9,9,11,11,12,12],"right_children":[2,4,6,-1,-1,-1,8,10,12,14,-1,16,18,-1,-1,-1,-1,-1,-1],"split_conditions":[1.1982683E0,2.813202E-1,2.00001E0,1.67653E-2,-3.3716187E-2,1.8740004E-2,1.5637674E0,2.3085035E-1,1.6912858E0,1.10232726E-1,-3.144735E-2,1.724044E-1,6.986027E-1,-9.91831E-3,2.277817E-2,-0E0,3.8247626E-2,3.7411395E-2,-1.2924142E-2],"split_indices":[324,4803,4519,0,0,0,1459,1485,4550,4259,0,2016,2023,0,0,0,0,0,0],"split_type":[0,0,0,0,0,0,0,0,0,0,0,0,0,0,0,0,0,0,0],"sum_hessian":[2.02E3,4.78E2,1.542E3,4.71E2,7E0,1.87E2,1.355E3,1.24E2,1.231E3,1.18E2,6E0,3.2E1,1.199E3,2E0,1.16E2,3E0,2.9E1,2.2E1,1.177E3],"tree_param":{"num_deleted":"0","num_feature":"5000","num_nodes":"19","size_leaf_vector":"1"}},{"base_weights":[-1.321698E-3,1.8824909E-2,-1.742156E-1,2.7818501E-2,-3.7438464E-1,1.16493385E-2,-1.9228612E-1,4.021174E-2,-2.529592E-1,-0E0,-4.671006E-2,1.0902799E-2,-2.0875627E-1,4.6107154E-2,-3.4138523E-2,-1.14333734E-1,-3.837345E-1,-2.2008984E-1,1.1181684E-2,-4.815349E-2,5.699663E-3,-1.9472329E-2,1.8400551E-3,-0E0,-4.664374E-2,-0E0,-2.657964E-2],"categories":[],"categories_nodes":[],"categories_segments":[],"categories_sizes":[],"default_left":[1,1,0,1,0,0,0,1,0,0,0,0,1,0,0,0,0,0,0,0,0,0,0,0,0,0,0],"id":11,"left_children":[1,3,5,7,9,-1,11,13,15,-1,-1,-1,17,19,-1,21,23,25,-1,-1,-1,-1,-1,-1,-1,-1,-1],"loss_changes":[7.2801967E0,6.15144E0,1.1898699E0,6.0410495E0,7.7892447E-1,0E0,1.1087823E0,3.224259E0,8.21846E-1,0E0,0E0,0E0,8.2611465E-1,2.9013507E0,0E0,4.426478E-1,5.4942083E-1,8.0293083E-1,0E0,0E0,0E0,0E0,0E0,0E0,0E0,0E0,0E0],"parents":[2147483647,0,0,1,1,2,2,3,3,4,4,6,6,7,7,8,8,12,12,13,13,15,15,16,16,17,17],"right_children":[2,4,6,8,10,-1,12,14,16,-1,-1,-1,18,20,-1,22,24,26,-1,-1,-1,-1,-1,-1,-1,-1,-1],"split_conditions":[1.0744626E-1,1.4925168E-1,3.235825E-1,1.8344666E-1,5.8430123E-1,1.16493385E-2,3.512235E-1,2.9439923E-1,3.8033566E-1,-0E0,-4.671006E-2,1.0902799E-2,3.2948947E-1,1E0,-3.4138523E-2,3.42833E-1,1.7890912E0,1.5845622E-1,1.1181684E-2,-4.815349E-2,5.699663E-3,-1.9472329E-2,1.8400551E-3,-0E0,-4.664374E-2,-0E0,-2.657964E-2],"split_indices":[4259,184,2767,2200,782,0,400,4803,2200,0,0,0,1346,809,0,2200,4549,295,0,0,0,0,0,0,0,0,0],"split_type":[0,0,0,0,0,0,0,0,0,0,0,0,0,0,0,0,0,0,0,0,0,0,0,0,0,0,0],"sum_hessian":[2.047E3,1.829E3,2.18E2,1.791E3,3.8E1,1E1,2.08E2,1.719E3,7.2E1,2E0,3.6E1,8E0,2E2,1.693E3,2.6E1,3.9E1,3.3E1,1.96E2,4E0,1.2E1,1.681E3,3.2E1,7E0,1E0,3.2E1,8E0,1.88E2],"tree_param":{"num_deleted":"0","num_feature":"5000","num_nodes":"27","size_leaf_vector":"1"}},{"base_weights":[-3.4113028E-3,9.033123E-3,-2.2335894E-1,1.38797555E-2,-1.068816E-2,2.4162459E-3,-2.4811338E-1,1.1554872E-1,-3.7805986E-2,1.1014256E-2,-2.641034E-1,-2.4035608E-2,1.2278162E-1,1.4696213E-2,-6.745801E-2,-0E0,-2.8142515E-1,-1.7794354E-2,1.4705837E-2,1.8713115E-2,-1.0189928E-2,-0E0,-3.313409E-2],"categories":[],"categories_nodes":[],"categories_segments":[],"categories_sizes":[],"default_left":[1,0,0,0,0,0,0,0,0,0,0,0,0,0,0,0,0,0,0,0,0,0,0],"id":12,"left_children":[1,3,5,-1,7,-1,9,11,13,-1,15,-1,17,-1,19,-1,21,-1,-1,-1,-1,-1,-1],"loss_changes":[5.8535156E0,4.458374E0,9.1027737E-1,0E0,5.593971E0,0E0,7.6660347E-1,6.1099696E-1,6.7319374E0,0E0,6.812701E-1,0E0,5.163746E-1,0E0,5.9703326E0,0E0,4.2765808E-1,0E0,0E0,0E0,0E0,0E0,0E0],"parents":[2147483647,0,0,1,1,2,2,4,4,6,6,7,7,8,8,10,10,12,12,14,14,16,16],"right_children":[2,4,6,-1,8,-1,10,12,14,-1,16,-1,18,-1,20,-1,22,-1,-1,-1,-1,-1,-1],"split_conditions":[1.8285619E-1,2.00001E0,3.366335E-1,1.38797555E-2,7.919872E-1,2.4162459E-3,1.7890912E0,5.155966E-1,2.00001E0,1.1014256E-2,2.8703403E-1,-2.4035608E-2,1.4950613E0,1.4696213E-2,1.5789352E-1,-0E0,9.411763E-1,-1.7794354E-2,1.4705837E-2,1.8713115E-2,-1.0189928E-2,-0E0,-3.313409E-2],"split_indices":[2200,400,4519,0,4979,0,4549,4810,4519,0,400,0,3369,0,4772,0,1999,0,0,0,0,0,0],"split_type":[0,0,0,0,0,0,0,0,0,0,0,0,0,0,0,0,0,0,0,0,0,0,0],"sum_hessian":[2.064E3,1.95E3,1.14E2,2.96E2,1.654E3,7E0,1.07E2,2.86E2,1.368E3,2E0,1.05E2,3E0,2.83E2,2.01E2,1.167E3,4E0,1.01E2,3E0,2.8E2,9.8E1,1.069E3,2E0,9.9E1],"tree_param":{"num_deleted":"0","num_feature":"5000","num_nodes":"23","size_leaf_vector":"1"}},{"base_weights":[6.6346107E-3,1.1584573E-1,-2.61342E-2,1.3878971E-2,-2.3993813E-2,-5.88158E-3,-1.7301726E-1,2.6614634E-2,-1.7627424E-2,1.5704203E-2,-1.8368158E-1,-8.262863E-3,-3.1663328E-1,3.1116283E-3,-1.9493932E-1,2.7553293E-5,-3.357942E-2,-0E0,-3.9805166E-2,1.0864154E-2,-2.3159431E-2],"categories":[],"categories_nodes":[],"categories_segments":[],"categories_sizes":[],"default_left":[0,1,1,0,0,0,0,0,1,0,0,1,0,0,0,0,0,0,0,0,0],"id":13,"left_children":[1,3,5,-1,-1,7,9,-1,11,-1,13,15,17,-1,19,-1,-1,-1,-1,-1,-1],"loss_changes":[7.496246E0,9.366412E-1,4.551304E0,0E0,0E0,3.7505198E0,6.778989E-1,0E0,3.4444842E0,0E0,5.9688234E-1,3.4608624E0,6.022432E-1,0E0,5.777426E-1,0E0,0E0,0E0,0E0,0E0,0E0],"parents":[2147483647,0,0,1,1,2,2,5,5,6,6,8,8,10,10,11,11,12,12,14,14],"right_children":[2,4,6,-1,-1,8,10,-1,12,-1,14,16,18,-1,20,-1,-1,-1,-1,-1,-1],"split_conditions":[1.1982683E0,2.813202E-1,9.339339E-2,1.3878971E-2,-2.3993813E-2,5.2714443E-1,3.6463004E-1,2.6614634E-2,1.4925168E-1,1.5704203E-2,2.9850292E-1,3.543584E-1,2.7444327E-1,3.1116283E-3,3.1484416E-1,2.7553293E-5,-3.357942E-2,-0E0,-3.9805166E-2,1.0864154E-2,-2.3159431E-2],"split_indices":[324,4803,4259,0,0,2554,2023,0,184,0,3983,2200,779,0,4641,0,0,0,0,0,0],"split_type":[0,0,0,0,0,0,0,0,0,0,0,0,0,0,0,0,0,0,0,0,0],"sum_hessian":[2.07E3,4.84E2,1.586E3,4.78E2,6E0,1.4E3,1.86E2,6.1E1,1.339E3,3E0,1.83E2,1.302E3,3.7E1,5E0,1.78E2,1.262E3,4E1,2E0,3.5E1,2E0,1.76E2],"tree_param":{"num_deleted":"0","num_feature":"5000","num_nodes":"21","size_leaf_vector":"1"}},{"base_weights":[7.984575E-4,9.015604E-3,-2.4835992E-1,1.48300575E-2,-3.4297106E-1,-3.093887E-2,-0E0,2.0191655E-2,-3.697507E-2,-0E0,-4.270214E-2,2.4073156E-2,-4.2060964E-2,1.1650244E-2,1.0623683E-3],"categories":[],"categories_nodes":[],"categories_segments":[],"categories_sizes":[],"default_left":[1,1,1,1,0,0,0,1,0,0,0,0,0,0,0],"id":14,"left_children":[1,3,5,7,9,-1,-1,11,-1,-1,-1,13,-1,-1,-1],"loss_changes":[3.9608228E0,3.7528603E0,6.2189317E-1,3.282388E0,5.6032777E-1,0E0,0E0,2.6006234E0,0E0,0E0,0E0,2.1019075E0,0E0,0E0,0E0],"parents":[2147483647,0,0,1,1,2,2,3,3,4,4,7,7,11,11],"right_children":[2,4,6,8,10,-1,-1,12,-1,-1,-1,14,-1,-1,-1],"split_conditions":[1.9774605E-1,2.3957066E-1,5.289082E-1,2.0078516E-1,3.074833E-1,-3.093887E-2,-0E0,1.5512806E-1,-3.697507E-2,-0E0,-4.270214E-2,2.00001E0,-4.2060964E-2,1.1650244E-2,1.0623683E-3],"split_indices":[4803,4054,937,3162,1062,0,0,3869,0,0,0,400,0,0,0],"split_type":[0,0,0,0,0,0,0,0,0,0,0,0,0,0,0],"sum_hessian":[2.043E3,1.982E3,6.1E1,1.953E3,2.9E1,5.9E1,2E0,1.926E3,2.7E1,1E0,2.8E1,1.91E3,1.6E1,2.91E2,1.619E3],"tree_param":{"num_deleted":"0","num_feature":"5000","num_nodes":"15","size_leaf_vector":"1"}},{"base_weights":[1.9868044E-3,9.4674334E-2,-2.660631E-2,1.1452546E-2,-2.0436315E-2,-1.82365E-2,-3.0864382E-1,-3.976604E-3,-1.6234194E-1,-0E0,-3.3326536E-1,2.499958E-3,-3.775981E-2,1.24262525E-2,-1.7439228E-1,-0E0,-4.0246807E-2,-3.3320853E-4,3.0518327E-2,6.697297E-3,-2.1324622E-2],"categories":[],"categories_nodes":[],"categories_segments":[],"categories_sizes":[],"default_left":[0,1,1,0,0,1,0,1,0,0,0,1,0,0,0,0,0,0,0,0,0],"id":15,"left_children":[1,3,5,-1,-1,7,9,11,13,-1,15,17,-1,-1,19,-1,-1,-1,-1,-1,-1],"loss_changes":[5.4921036E0,7.650194E-1,3.3666534E0,0E0,0E0,2.960061E0,4.3568707E-1,3.2596548E0,5.00576E-1,0E0,4.476509E-1,2.2131817E0,0E0,0E0,5.2796364E-1,0E0,0E0,0E0,0E0,0E0,0E0],"parents":[2147483647,0,0,1,1,2,2,5,5,6,6,7,7,8,8,10,10,11,11,14,14],"right_children":[2,4,6,-1,-1,8,10,12,14,-1,16,18,-1,-1,20,-1,-1,-1,-1,-1,-1],"split_conditions":[1.1982683E0,2.813202E-1,2.5938997E-1,1.1452546E-2,-2.0436315E-2,1.1495601E-1,1.9038239E-1,2.9744616E-1,1.7890912E0,-0E0,1.1469275E0,1.0173475E-1,-3.775981E-2,1.24262525E-2,1.2105062E0,-0E0,-4.0246807E-2,-3.3320853E-4,3.0518327E-2,6.697297E-3,-2.1324622E-2],"split_indices":[324,4803,171,0,0,2200,643,1043,4549,0,173,2023,0,0,4539,0,0,0,0,0,0],"split_type":[0,0,0,0,0,0,0,0,0,0,0,0,0,0,0,0,0,0,0,0,0],"sum_hessian":[2.047E3,4.9E2,1.557E3,4.83E2,7E0,1.516E3,4.1E1,1.386E3,1.3E2,2E0,3.9E1,1.357E3,2.9E1,2E0,1.28E2,1E0,3.8E1,1.327E3,3E1,3E0,1.25E2],"tree_param":{"num_deleted":"0","num_feature":"5000","num_nodes":"21","size_leaf_vector":"1"}},{"base_weights":[1.618998E-3,1.2940924E-2,-1.9059952E-2,2.1053722E-2,-2.1065894E-1,2.6057076E-2,-3.3780713E-2,1.6822005E-2,-2.870703E-2,2.9887117E-2,-4.692437E-2,4.0638084E-3,-2.5216203E-2],"categories":[],"categories_nodes":[],"categories_segments":[],"categories_sizes":[],"default_left":[1,1,0,1,0,1,0,0,0,1,0,0,0],"id":16,"left_children":[1,3,-1,5,7,9,-1,-1,-1,11,-1,-1,-1],"loss_changes":[3.7374227E0,3.27621E0,0E0,2.6827483E0,1.0662994E0,2.7018332E0,0E0,0E0,0E0,2.5034628E0,0E0,0E0,0E0],"parents":[2147483647,0,0,1,1,3,3,4,4,5,5,9,9],"right_children":[2,4,-1,6,8,10,-1,-1,-1,12,-1,-1,-1],"split_conditions":[2.1705161E-1,1.940797E-1,-1.9059952E-2,2.573449E-1,4.148749E-1,4.4766173E-1,-3.3780713E-2,1.6822005E-2,-2.870703E-2,1.7563087E-1,-4.692437E-2,4.0638084E-3,-2.5216203E-2],"split_indices":[4259,4803,0,4054,4550,4948,0,0,0,1786,0,0,0],"split_type":[0,0,0,0,0,0,0,0,0,0,0,0,0],"sum_hessian":[2.023E3,1.902E3,1.21E2,1.84E3,6.2E1,1.815E3,2.5E1,4E0,5.8E1,1.802E3,1.3E1,1.765E3,3.7E1],"tree_param":{"num_deleted":"0","num_feature":"5000","num_nodes":"13","size_leaf_vector":"1"}},{"base_weights":[-0E0,-7.7058687E-3,2.201306E-2,-2.1424478E-2,1.1706155E-1,7.9058E-2,-4.16351E-2,2.9862963E-3,1.7805196E-2,-3.174269E-2,8.661145E-2,-5.7839092E-2,1.1608205E-1,1.1887994E-3,1.3833971E-2,2.4936918E-2,-7.735324E-3,1.6285691E-2,-2.5802935E-2],"categories":[],"categories_nodes":[],"categories_segments":[],"categories_sizes":[],"default_left":[1,1,0,0,0,0,1,0,0,0,0,0,1,0,0,0,0,0,0],"id":17,"left_children":[1,3,-1,5,7,9,11,-1,-1,-1,13,15,17,-1,-1,-1,-1,-1,-1],"loss_changes":[2.9950936E0,3.3036187E0,0E0,3.607405E0,5.0870705E-1,6.264659E-1,3.7845716E0,0E0,0E0,0E0,6.507909E-1,3.7552996E0,1.2024043E0,0E0,0E0,0E0,0E0,0E0,0E0],"parents":[2147483647,0,0,1,1,3,3,4,4,5,5,6,6,10,10,11,11,12,12],"right_children":[2,4,-1,6,8,10,12,-1,-1,-1,14,16,18,-1,-1,-1,-1,-1,-1],"split_conditions":[7.675276E-2,6.9387764E-2,2.201306E-2,7.919872E-1,5.2259475E-1,1.1157644E0,4.0582415E-2,2.9862963E-3,1.7805196E-2,-3.174269E-2,1.0978776E0,1.0827869E0,2.3085035E-1,1.1887994E-3,1.3833971E-2,2.4936918E-2,-7.735324E-3,1.6285691E-2,-2.5802935E-2],"split_indices":[4584,4519,0,4979,295,4811,1459,0,0,0,4800,4062,1485,0,0,0,0,0,0],"split_type":[0,0,0,0,0,0,0,0,0,0,0,0,0,0,0,0,0,0,0],"sum_hessian":[2.057E3,1.981E3,7.6E1,1.792E3,1.89E2,2.92E2,1.5E3,6.5E1,1.24E2,3E0,2.89E2,1.366E3,1.34E2,1E2,1.89E2,4.5E1,1.321E3,1.27E2,7E0],"tree_param":{"num_deleted":"0","num_feature":"5000","num_nodes":"19","size_leaf_vector":"1"}},{"base_weights":[2.9442657E-3,-4.013048E-3,2.068964E-2,9.6106315E-3,-2.0360703E-2,-3.7284646E-2,9.707345E-2,7.909677E-2,-6.304161E-2,2.8321699E-3,1.5556382E-2,-2.8755704E-2,9.911143E-3,-9.250483E-3,1.4606581E-2],"categories":[],"categories_nodes":[],"categories_segments":[],"categories_sizes":[],"default_left":[1,0,0,0,1,0,0,0,1,0,0,0,0,0,0],"id":18,"left_children":[1,3,-1,-1,5,7,9,11,13,-1,-1,-1,-1,-1,-1],"loss_changes":[2.721643E0,2.7912796E0,0E0,0E0,3.2664135E0,4.387421E0,4.316883E-1,5.613924E-1,4.22225E0,0E0,0E0,0E0,0E0,0E0,0E0],"parents":[2147483647,0,0,1,1,4,4,5,5,6,6,7,7,8,8],"right_children":[2,4,-1,-1,6,8,10,12,14,-1,-1,-1,-1,-1,-1],"split_conditions":[7.775382E-2,2.00001E0,2.068964E-2,9.6106315E-3,5.327761E-2,7.919872E-1,5.2259475E-1,7.8737533E-1,5.7873134E-2,2.8321699E-3,1.5556382E-2,-2.8755704E-2,9.911143E-3,-9.250483E-3,1.4606581E-2],"split_indices":[4584,400,0,0,4519,4979,295,4810,295,0,0,0,0,0,0],"split_type":[0,0,0,0,0,0,0,0,0,0,0,0,0,0,0],"sum_hessian":[2.048E3,1.967E3,8.1E1,2.97E2,1.67E3,1.467E3,2.03E2,2.59E2,1.208E3,8.1E1,1.22E2,3E0,2.56E2,1.107E3,1.01E2],"tree_param":{"num_deleted":"0","num_feature":"5000","num_nodes":"15","size_leaf_vector":"1"}},{"base_weights":[-1.1775814E-3,-2.5207378E-2,8.850836E-3,1.17029995E-2,-4.3249853E-2,-5.312572E-2,2.575866E-2,-6.7887E-2,1.3600489E-2,-9.770902E-3,1.2003926E-2],"categories":[],"categories_nodes":[],"categories_segments":[],"categories_sizes":[],"default_left":[1,0,0,0,1,1,0,1,0,0,0],"id":19,"left_children":[1,3,-1,-1,5,7,-1,9,-1,-1,-1],"loss_changes":[3.8225968E0,3.5828261E0,0E0,0E0,3.5367603E0,3.3745265E0,0E0,3.887733E0,0E0,0E0,0E0],"parents":[2147483647,0,0,1,1,4,4,5,5,7,7],"right_children":[2,4,-1,-1,6,8,-1,10,-1,-1,-1],"split_conditions":[3.913824E-2,2.00001E0,8.850836E-3,1.17029995E-2,7.7476315E-2,4.8673395E-2,2.575866E-2,4.0582415E-2,1.3600489E-2,-9.770902E-3,1.2003926E-2],"split_indices":[324,4519,0,0,4584,3261,0,1459,0,0,0],"split_type":[0,0,0,0,0,0,0,0,0,0,0],"sum_hessian":[2.036E3,1.571E3,4.65E2,1.87E2,1.384E3,1.339E3,4.5E1,1.239E3,1E2,1.127E3,1.12E2],"tree_param":{"num_deleted":"0","num_feature":"5000","num_nodes":"11","size_leaf_vector":"1"}},{"base_weights":[4.3892288E-3,3.7956852E-2,4.701281E-5,6.321237E-3,-2.3573384E-2,1.155389E-2,-2.8366784E-2,1.706572E-2,-2.6484566E-2,3.4589075E-2,1.4304566E-3],"categories":[],"categories_nodes":[],"categories_segments":[],"categories_sizes":[],"default_left":[0,0,1,1,0,1,0,0,0,0,0],"id":20,"left_children":[1,-1,3,5,-1,7,-1,9,-1,-1,-1],"loss_changes":[2.5982502E0,0E0,2.4305165E0,2.399728E0,0E0,2.3915193E0,0E0,2.1217587E0,0E0,0E0,0E0],"parents":[2147483647,0,0,2,2,3,3,5,5,7,7],"right_children":[2,-1,4,6,-1,8,-1,10,-1,-1,-1],"split_conditions":[1.2399395E0,3.7956852E-2,3.543584E-1,2.319505E-1,-2.3573384E-2,2.605785E-1,-2.8366784E-2,2.00001E0,-2.6484566E-2,3.4589075E-2,1.4304566E-3],"split_indices":[387,0,2200,184,0,171,0,4120,0,0,0],"split_type":[0,0,0,0,0,0,0,0,0,0,0],"sum_hessian":[2.033E3,2.3E1,2.01E3,1.956E3,5.4E1,1.921E3,3.5E1,1.883E3,3.8E1,2.5E1,1.858E3],"tree_param":{"num_deleted":"0","num_feature":"5000","num_nodes":"11","size_leaf_vector":"1"}},{"base_weights":[2.329351E-3,6.931779E-3,-3.187573E-2,1.1610399E-2,-2.7538344E-2,-4.1552108E-2,1.4871643E-2,1.8731698E-2,-2.9146403E-1,3.4276631E-3,-9.0395985E-3,-4.0870618E-2,-0E0],"categories":[],"categories_nodes":[],"categories_segments":[],"categories_sizes":[],"default_left":[1,1,0,0,0,0,1,1,1,0,0,0,0],"id":21,"left_children":[1,3,-1,5,-1,-1,7,9,11,-1,-1,-1,-1],"loss_changes":[2.4186273E0,2.147182E0,0E0,2.1253638E0,0E0,0E0,2.0859222E0,2.1562738E0,5.738497E-1,0E0,0E0,0E0,0E0],"parents":[2147483647,0,0,1,1,3,3,6,6,7,7,8,8],"right_children":[2,4,-1,6,-1,-1,8,10,12,-1,-1,-1,-1],"split_conditions":[2.9744616E-1,1.8796296E-1,-3.187573E-2,2.00001E0,-2.7538344E-2,-4.1552108E-2,1.9626045E-1,1.0122315E-1,1.24068536E-1,3.4276631E-3,-9.0395985E-3,-4.0870618E-2,-0E0],"split_indices":[1043,3162,0,809,0,0,4462,4259,4259,0,0,0,0],"split_type":[0,0,0,0,0,0,0,0,0,0,0,0,0],"sum_hessian":[2.053E3,2.024E3,2.9E1,1.991E3,3.3E1,1.4E1,1.977E3,1.956E3,2.1E1,1.761E3,1.95E2,1.8E1,3E0],"tree_param":{"num_deleted":"0","num_feature":"5000","num_nodes":"13","size_leaf_vector":"1"}},{"base_weights":[-0E0,-5.1312307E-3,2.2584349E-1,-1.0151477E-2,2.85275E-2,-0E0,3.8779557E-2,9.132558E-3,-2.2390261E-2,-2.736743E-2,3.2379597E-2,7.633086E-3,-5.01147E-3],"categories":[],"categories_nodes":[],"categories_segments":[],"categories_sizes":[],"default_left":[1,1,0,0,0,0,0,0,1,0,0,0,0],"id":22,"left_children":[1,3,5,7,-1,-1,-1,-1,9,11,-1,-1,-1],"loss_changes":[2.4302747E0,2.3325546E0,9.577832E-1,2.1116853E0,0E0,0E0,0E0,0E0,2.4111676E0,2.6833975E0,0E0,0E0,0E0],"parents":[2147483647,0,0,1,1,2,2,3,3,8,8,9,9],"right_children":[2,4,6,8,-1,-1,-1,-1,10,12,-1,-1,-1],"split_conditions":[9.1270156E-2,1.198662E-1,2.1703105E-1,3.027036E-1,2.85275E-2,-0E0,3.8779557E-2,9.132558E-3,1.6668944E-1,2.00001E0,3.2379597E-2,7.633086E-3,-5.01147E-3],"split_indices":[2554,4550,400,4979,0,0,0,0,2023,400,0,0,0],"split_type":[0,0,0,0,0,0,0,0,0,0,0,0,0],"sum_hessian":[2.033E3,1.987E3,4.6E1,1.953E3,3.4E1,1.8E1,2.8E1,2.23E2,1.73E3,1.706E3,2.4E1,2.48E2,1.458E3],"tree_param":{"num_deleted":"0","num_feature":"5000","num_nodes":"13","size_leaf_vector":"1"}},{"base_weights":[1.9341318E-3,-1.5450371E-2,7.804454E-3,-2.436836E-2,1.8147342E-2,8.945754E-3,-4.1566234E-2,-4.953947E-2,3.5829872E-2,-7.495009E-3,1.3848308E-2],"categories":[],"categories_nodes":[],"categories_segments":[],"categories_sizes":[],"default_left":[1,1,0,0,0,0,1,1,0,0,0],"id":23,"left_children":[1,3,-1,5,-1,-1,7,9,-1,-1,-1],"loss_changes":[2.350864E0,2.3153863E0,0E0,2.612461E0,0E0,0E0,3.4223583E0,3.5088897E0,0E0,0E0,0E0],"parents":[2147483647,0,0,1,1,3,3,6,6,7,7],"right_children":[2,4,-1,6,-1,-1,8,10,-1,-1,-1],"split_conditions":[4.8523728E-2,5.75626E-2,7.804454E-3,2.00001E0,1.8147342E-2,8.945754E-3,1.7836094E-1,1.5458147E-1,3.5829872E-2,-7.495009E-3,1.3848308E-2],"split_indices":[324,2554,0,400,0,0,1459,4979,0,0,0],"split_type":[0,0,0,0,0,0,0,0,0,0,0],"sum_hessian":[1.981E3,1.561E3,4.2E2,1.491E3,7E1,2.05E2,1.286E3,1.261E3,2.5E1,1.156E3,1.05E2],"tree_param":{"num_deleted":"0","num_feature":"5000","num_nodes":"11","size_leaf_vector":"1"}},{"base_weights":[-0E0,-1.8053686E-2,6.7983074E-3,-2.3659596E-2,2.6526976E-2,7.373031E-3,-3.9721698E-2,-4.8207574E-2,2.3131637E-2,-6.2599643E-3,2.8667193E-2],"categories":[],"categories_nodes":[],"categories_segments":[],"categories_sizes":[],"default_left":[1,1,0,0,0,0,1,1,0,0,0],"id":24,"left_children":[1,3,-1,5,-1,-1,7,9,-1,-1,-1],"loss_changes":[2.1757488E0,2.0201623E0,0E0,2.168182E0,0E0,0E0,2.5709238E0,2.4632173E0,0E0,0E0,0E0],"parents":[2147483647,0,0,1,1,3,3,6,6,7,7],"right_children":[2,4,-1,6,-1,-1,8,10,-1,-1,-1],"split_conditions":[3.913824E-2,1.0173475E-1,6.7983074E-3,2.00001E0,2.6526976E-2,7.373031E-3,7.846171E-2,8.973536E-2,2.3131637E-2,-6.2599643E-3,2.8667193E-2],"split_indices":[324,2023,0,400,0,0,4584,2554,0,0,0],"split_type":[0,0,0,0,0,0,0,0,0,0,0],"sum_hessian":[2.033E3,1.569E3,4.64E2,1.539E3,3E1,2.27E2,1.312E3,1.272E3,4E1,1.247E3,2.5E1],"tree_param":{"num_deleted":"0","num_feature":"5000","num_nodes":"11","size_leaf_vector":"1"}},{"base_weights":[1.8015911E-3,-5.6520326E-4,3.3454746E-2,-1.7574433E-2,6.168549E-3,-2.3798767E-2,2.1929506E-2,-3.0867731E-2,1.9991953E-2,6.167805E-3,-5.1975017E-3],"categories":[],"categories_nodes":[],"categories_segments":[],"categories_sizes":[],"default_left":[1,1,0,1,0,1,0,0,0,0,0],"id":25,"left_children":[1,3,-1,5,-1,7,-1,9,-1,-1,-1],"loss_changes":[1.695918E0,1.8612566E0,0E0,1.8939399E0,0E0,2.0190458E0,0E0,1.8657258E0,0E0,0E0,0E0],"parents":[2147483647,0,0,1,1,3,3,5,5,7,7],"right_children":[2,4,-1,6,-1,8,-1,10,-1,-1,-1],"split_conditions":[1.4290433E-1,4.1882288E-2,3.3454746E-2,8.4402725E-2,6.168549E-3,7.846171E-2,2.1929506E-2,2.00001E0,1.9991953E-2,6.167805E-3,-5.1975017E-3],"split_indices":[4120,324,0,4062,0,4584,0,400,0,0,0],"split_type":[0,0,0,0,0,0,0,0,0,0,0],"sum_hessian":[2.049E3,2.03E3,1.9E1,1.563E3,4.67E2,1.523E3,4E1,1.476E3,4.7E1,2.1E2,1.266E3],"tree_param":{"num_deleted":"0","num_feature":"5000","num_nodes":"11","size_leaf_vector":"1"}},{"base_weights":[-4.811653E-3,3.1225398E-2,-8.540668E-3,-1.28712E-2,2.1324705E-1,-2.3129104E-2,9.620576E-3,-0E0,3.0800408E-2,-2.619536E-2,3.8635958E-2,4.4450355E-3,-4.5062783E-3],"categories":[],"categories_nodes":[],"categories_segments":[],"categories_sizes":[],"default_left":[0,0,1,1,0,1,0,0,0,0,0,0,0],"id":26,"left_children":[1,-1,3,5,7,9,-1,-1,-1,11,-1,-1,-1],"loss_changes":[1.8850827E0,0E0,1.7563021E0,1.9336607E0,5.298631E-1,1.7254155E0,0E0,0E0,0E0,1.5829685E0,0E0,0E0,0E0],"parents":[2147483647,0,0,2,2,3,3,4,4,5,5,9,9],"right_children":[2,-1,4,6,8,10,-1,-1,-1,12,-1,-1,-1],"split_conditions":[1.2399395E0,3.1225398E-2,1.198662E-1,6.6620745E-2,1.8742295E-1,3.8616717E-1,9.620576E-3,-0E0,3.0800408E-2,2.00001E0,3.8635958E-2,4.4450355E-3,-4.5062783E-3],"split_indices":[387,0,4550,4519,2016,4565,0,0,0,400,0,0,0],"split_type":[0,0,0,0,0,0,0,0,0,0,0,0,0],"sum_hessian":[2.045E3,2.3E1,2.022E3,1.988E3,3.4E1,1.808E3,1.8E2,6E0,2.8E1,1.796E3,1.2E1,2.95E2,1.501E3],"tree_param":{"num_deleted":"0","num_feature":"5000","num_nodes":"13","size_leaf_vector":"1"}},{"base_weights":[7.814159E-4,2.8008137E-2,-2.2936442E-3,-1.0969786E-2,1.0405223E-2,-1.9133026E-2,1.3915415E-2,-2.5773613E-2,1.5049267E-2,-3.4629218E-3,2.4932373E-2],"categories":[],"categories_nodes":[],"categories_segments":[],"categories_sizes":[],"default_left":[0,0,1,1,0,1,0,1,0,0,0],"id":27,"left_children":[1,-1,3,5,-1,7,-1,9,-1,-1,-1],"loss_changes":[1.7492176E0,0E0,1.5400741E0,1.8924825E0,0E0,1.6403781E0,0E0,1.7457434E0,0E0,0E0,0E0],"parents":[2147483647,0,0,2,2,3,3,5,5,7,7],"right_children":[2,-1,4,6,-1,8,-1,10,-1,-1,-1],"split_conditions":[2.00001E0,2.8008137E-2,1.02476984E-1,9.845892E-2,1.0405223E-2,7.58246E-2,1.3915415E-2,1.0173475E-1,1.5049267E-2,-3.4629218E-3,2.4932373E-2],"split_indices":[4120,0,4519,295,0,1326,0,2023,0,0,0],"split_type":[0,0,0,0,0,0,0,0,0,0,0],"sum_hessian":[2.01E3,2.8E1,1.982E3,1.824E3,1.58E2,1.726E3,9.8E1,1.66E3,6.6E1,1.633E3,2.7E1],"tree_param":{"num_deleted":"0","num_feature":"5000","num_nodes":"11","size_leaf_vector":"1"}},{"base_weights":[-0E0,3.706197E-2,-3.235454E-3,2.752947E-2,-7.1233646E-3,-2.3033079E-3,-2.2233447E-2,-6.242365E-3,2.7937593E-2,-1.0637301E-3,3.3434242E-2],"categories":[],"categories_nodes":[],"categories_segments":[],"categories_sizes":[],"default_left":[0,0,0,0,1,1,0,1,0,0,0],"id":28,"left_children":[1,-1,3,-1,5,7,-1,9,-1,-1,-1],"loss_changes":[2.0033422E0,0E0,1.7020015E0,0E0,1.6189706E0,1.6746298E0,0E0,1.5318758E0,0E0,0E0,0E0],"parents":[2147483647,0,0,2,2,4,4,5,5,7,7],"right_children":[2,-1,4,-1,6,8,-1,10,-1,-1,-1],"split_conditions":[2.00001E0,3.706197E-2,2.00001E0,2.752947E-2,1.4925168E-1,2.341645E-1,-2.2233447E-2,1.8857121E-1,2.7937593E-2,-1.0637301E-3,3.3434242E-2],"split_indices":[3319,0,4120,0,184,4856,0,788,0,0,0],"split_type":[0,0,0,0,0,0,0,0,0,0,0],"sum_hessian":[2.03E3,1.8E1,2.012E3,2.7E1,1.985E3,1.941E3,4.4E1,1.915E3,2.6E1,1.899E3,1.6E1],"tree_param":{"num_deleted":"0","num_feature":"5000","num_nodes":"11","size_leaf_vector":"1"}},{"base_weights":[-0E0,2.951563E-3,-3.2116782E-2,5.1452434E-3,-4.057622E-2,7.8032695E-2,-2.7440374E-3,-0E0,1.31297E-2,-1.985508E-2,6.2986626E-3,1.083725E-2,-4.2002867E-3],"categories":[],"categories_nodes":[],"categories_segments":[],"categories_sizes":[],"default_left":[1,1,0,0,0,0,1,0,0,0,0,0,0],"id":29,"left_children":[1,3,-1,5,-1,7,9,-1,-1,11,-1,-1,-1],"loss_changes":[1.5061344E0,1.2632208E0,0E0,1.2246565E0,0E0,6.0109603E-1,1.759245E0,0E0,0E0,2.71725E0,0E0,0E0,0E0],"parents":[2147483647,0,0,1,1,3,3,5,5,6,6,9,9],"right_children":[2,4,-1,6,-1,8,10,-1,-1,12,-1,-1,-1],"split_conditions":[2.308983E-1,1.9674514E-1,-3.2116782E-2,2.938931E-1,-4.057622E-2,2.4295437E-1,3.91166E-2,-0E0,1.31297E-2,2.00001E0,6.2986626E-3,1.083725E-2,-4.2002867E-3],"split_indices":[4948,674,0,4979,0,324,324,0,0,4519,0,0,0],"split_type":[0,0,0,0,0,0,0,0,0,0,0,0,0],"sum_hessian":[2.033E3,2.015E3,1.8E1,2.006E3,9E0,2.07E2,1.799E3,6.8E1,1.39E2,1.403E3,3.96E2,1.74E2,1.229E3],"tree_param":{"num_deleted":"0","num_feature":"5000","num_nodes":"13","size_leaf_vector":"1"}},{"base_weights":[5.7536936E-3,2.786459E-2,2.2395817E-3,5.1927217E-3,-2.640774E-1,7.9417124E-4,1.654944E-1,-0E0,-3.7513264E-2,3.228067E-2,-1.0092156E-3,-0E0,2.7333373E-2,1.4566787E-2,-6.950856E-4],"categories":[],"categories_nodes":[],"categories_segments":[],"categories_sizes":[],"default_left":[0,0,1,1,0,0,0,0,0,0,0,0,0,0,0],"id":30,"left_children":[1,-1,3,5,7,9,11,-1,-1,-1,13,-1,-1,-1,-1],"loss_changes":[1.4842906E0,0E0,1.3423365E0,1.2516677E0,5.141208E-1,1.2622766E0,5.845095E-1,0E0,0E0,0E0,1.1635513E0,0E0,0E0,0E0,0E0],"parents":[2147483647,0,0,2,2,3,3,4,4,5,5,6,6,10,10],"right_children":[2,-1,4,6,8,10,12,-1,-1,-1,14,-1,-1,-1,-1],"split_conditions":[1.2399395E0,2.786459E-2,2.5200504E-1,8.4402725E-2,3.6463004E-1,2.00001E0,2.2633702E-1,-0E0,-3.7513264E-2,3.228067E-2,1.6440471E0,-0E0,2.7333373E-2,1.4566787E-2,-6.950856E-4],"split_indices":[387,0,4962,4062,2023,3319,3261,0,0,0,1293,0,0,0,0],"split_type":[0,0,0,0,0,0,0,0,0,0,0,0,0,0,0],"sum_hessian":[2.039E3,2.5E1,2.014E3,1.996E3,1.8E1,1.949E3,4.7E1,2E0,1.6E1,1.5E1,1.934E3,1.5E1,3.2E1,6.6E1,1.868E3],"tree_param":{"num_deleted":"0","num_feature":"5000","num_nodes":"15","size_leaf_vector":"1"}},{"base_weights":[2.9646296E-3,7.677895E-3,-1.8572891E-2,-2.70509E-2,1.085684E-2,1.4537525E-2,-2.0305078E-2,1.8549839E-2,-1.8519288E-2,2.4083399E-3,-3.1813275E-2],"categories":[],"categories_nodes":[],"categories_segments":[],"categories_sizes":[],"default_left":[1,0,0,0,1,1,0,1,0,0,0],"id":31,"left_children":[1,3,-1,-1,5,7,-1,9,-1,-1,-1],"loss_changes":[1.4524873E0,1.3407216E0,0E0,0E0,1.2192919E0,1.2439169E0,0E0,1.2624626E0,0E0,0E0,0E0],"parents":[2147483647,0,0,1,1,4,4,5,5,7,7],"right_children":[2,4,-1,-1,6,8,-1,10,-1,-1,-1],"split_conditions":[2.3047219E-1,1.5487303E0,-1.8572891E-2,-2.70509E-2,3.025458E-1,2.605785E-1,-2.0305078E-2,4.4766173E-1,-1.8519288E-2,2.4083399E-3,-3.1813275E-2],"split_indices":[4803,3869,0,0,1043,171,0,4948,0,0,0],"split_type":[0,0,0,0,0,0,0,0,0,0,0],"sum_hessian":[2.036E3,1.986E3,5E1,2.1E1,1.965E3,1.933E3,3.2E1,1.896E3,3.7E1,1.883E3,1.3E1],"tree_param":{"num_deleted":"0","num_feature":"5000","num_nodes":"11","size_leaf_vector":"1"}},{"base_weights":[7.2249332E-3,4.5918603E-3,3.6952488E-2,2.0951356E-3,3.680247E-2,4.4113495E-3,-3.544233E-2,1.2031072E-3,2.511969E-2,5.582863E-3,-1.1922183E-3],"categories":[],"categories_nodes":[],"categories_segments":[],"categories_sizes":[],"default_left":[1,1,0,1,0,1,0,0,0,0,0],"id":32,"left_children":[1,3,-1,5,-1,7,-1,9,-1,-1,-1],"loss_changes":[1.3784444E0,1.2913148E0,0E0,1.1611538E0,0E0,1.1683133E0,0E0,1.1340319E0,0E0,0E0,0E0],"parents":[2147483647,0,0,1,1,3,3,5,5,7,7],"right_children":[2,4,-1,6,-1,8,-1,10,-1,-1,-1],"split_conditions":[3.5451066E-1,2.5672215E-1,3.6952488E-2,1.9674514E-1,3.680247E-2,1.8585126E-1,-3.544233E-2,3.35267E-1,2.511969E-2,5.582863E-3,-1.1922183E-3],"split_indices":[4565,2260,0,674,0,4550,0,324,0,0,0],"split_type":[0,0,0,0,0,0,0,0,0,0,0],"sum_hessian":[2.016E3,2.003E3,1.3E1,1.991E3,1.2E1,1.98E3,1.1E1,1.956E3,2.4E1,3.99E2,1.557E3],"tree_param":{"num_deleted":"0","num_feature":"5000","num_nodes":"11","size_leaf_vector":"1"}},{"base_weights":[-0E0,-4.088019E-3,1.8026464E-2,2.851878E-2,-6.7937183E-3,-2.0891603E-2,4.4227117E-3,-3.1852365E-2,1.23301856E-1,7.8850435E-3,-5.3292075E-3,-1.714951E-2,1.610059E-2],"categories":[],"categories_nodes":[],"categories_segments":[],"categories_sizes":[],"default_left":[1,0,0,0,1,1,0,0,0,0,0,0,0],"id":33,"left_children":[1,3,-1,-1,5,7,-1,9,11,-1,-1,-1,-1],"loss_changes":[1.233104E0,1.1695254E0,0E0,0E0,1.277829E0,2.3673284E0,0E0,2.1889873E0,5.2861726E-1,0E0,0E0,0E0,0E0],"parents":[2147483647,0,0,1,1,4,4,5,5,7,7,8,8],"right_children":[2,4,-1,-1,6,8,-1,10,12,-1,-1,-1,-1],"split_conditions":[9.974098E-2,2.00001E0,1.8026464E-2,2.851878E-2,3.91166E-2,1.8000127E-1,4.4227117E-3,2.00001E0,7.8737533E-1,7.8850435E-3,-5.3292075E-3,-1.714951E-2,1.610059E-2],"split_indices":[4062,3319,0,0,324,4979,0,4519,4810,0,0,0,0],"split_type":[0,0,0,0,0,0,0,0,0,0,0,0,0],"sum_hessian":[2.071E3,2.024E3,4.7E1,1.7E1,2.007E3,1.55E3,4.57E2,1.447E3,1.03E2,1.79E2,1.268E3,3E0,1E2],"tree_param":{"num_deleted":"0","num_feature":"5000","num_nodes":"13","size_leaf_vector":"1"}},{"base_weights":[-2.344941E-4,-2.906199E-3,2.7246209E-2,2.1071991E-2,-6.172171E-3,-9.970265E-3,1.7455835E-2,-2.448927E-2,4.0669814E-3,-4.0102266E-3,1.0651996E-2],"categories":[],"categories_nodes":[],"categories_segments":[],"categories_sizes":[],"default_left":[1,0,0,0,1,1,0,1,0,0,0],"id":34,"left_children":[1,3,-1,-1,5,7,-1,9,-1,-1,-1],"loss_changes":[1.0883065E0,1.0782441E0,0E0,0E0,1.0776211E0,1.2895962E0,0E0,1.8663127E0,0E0,0E0,0E0],"parents":[2147483647,0,0,1,1,4,4,5,5,7,7],"right_children":[2,4,-1,-1,6,8,-1,10,-1,-1,-1],"split_conditions":[1.8632475E-1,1.1479477E-1,2.7246209E-2,2.1071991E-2,1.04439214E-1,4.1882288E-2,1.7455835E-2,1.2691137E-1,4.0669814E-3,-4.0102266E-3,1.0651996E-2],"split_indices":[4120,1293,0,0,2554,324,0,4979,0,0,0],"split_type":[0,0,0,0,0,0,0,0,0,0,0],"sum_hessian":[2.042E3,2.024E3,1.8E1,2.9E1,1.995E3,1.955E3,4E1,1.5E3,4.55E2,1.382E3,1.18E2],"tree_param":{"num_deleted":"0","num_feature":"5000","num_nodes":"11","size_leaf_vector":"1"}},{"base_weights":[8.874858E-4,-1.1802142E-3,2.9574761E-2,6.8336626E-4,-2.8484022E-2,3.3552328E-3,-2.7868424E-2,5.559261E-3,-3.5889782E-2,-3.0665105E-2,8.883197E-4],"categories":[],"categories_nodes":[],"categories_segments":[],"categories_sizes":[],"default_left":[1,1,0,1,0,1,0,0,0,0,0],"id":35,"left_children":[1,3,-1,5,-1,7,-1,9,-1,-1,-1],"loss_changes":[1.3312469E0,1.1690034E0,0E0,1.0819082E0,0E0,1.0987444E0,0E0,9.784609E-1,0E0,0E0,0E0],"parents":[2147483647,0,0,1,1,3,3,5,5,7,7],"right_children":[2,4,-1,6,-1,8,-1,10,-1,-1,-1],"split_conditions":[1.8857121E-1,3.6089975E-1,2.9574761E-2,2.5200504E-1,-2.8484022E-2,5.5507135E-1,-2.7868424E-2,2.00001E0,-3.5889782E-2,-3.0665105E-2,8.883197E-4],"split_indices":[788,4054,0,4962,0,477,0,809,0,0,0],"split_type":[0,0,0,0,0,0,0,0,0,0,0],"sum_hessian":[2.027E3,2.008E3,1.9E1,1.99E3,1.8E1,1.973E3,1.7E1,1.963E3,1E1,1.2E1,1.951E3],"tree_param":{"num_deleted":"0","num_feature":"5000","num_nodes":"11","size_leaf_vector":"1"}},{"base_weights":[2.8809693E-3,-2.0137727E-2,6.700776E-3,3.4075188E-3,2.475387E-2,5.669911E-4,2.7413419E-2,-1.3883368E-3,2.6285196E-2,3.7377642E-5,-2.6165882E-2],"categories":[],"categories_nodes":[],"categories_segments":[],"categories_sizes":[],"default_left":[0,0,1,1,0,1,0,1,0,0,0],"id":36,"left_children":[1,-1,3,5,-1,7,-1,9,-1,-1,-1],"loss_changes":[1.2559705E0,0E0,1.1966523E0,1.1202346E0,0E0,1.1072994E0,0E0,9.844886E-1,0E0,0E0,0E0],"parents":[2147483647,0,0,2,2,3,3,5,5,7,7],"right_children":[2,-1,4,6,-1,8,-1,10,-1,-1,-1],"split_conditions":[2.00001E0,-2.0137727E-2,2.341645E-1,2.6661247E-1,2.475387E-2,3.1364998E-1,2.7413419E-2,3.5059837E-1,2.6285196E-2,3.7377642E-5,-2.6165882E-2],"split_indices":[184,0,4856,3027,0,4584,0,2651,0,0,0],"split_type":[0,0,0,0,0,0,0,0,0,0,0],"sum_hessian":[2.056E3,3.7E1,2.019E3,1.993E3,2.6E1,1.974E3,1.9E1,1.954E3,2E1,1.936E3,1.8E1],"tree_param":{"num_deleted":"0","num_feature":"5000","num_nodes":"11","size_leaf_vector":"1"}},{"base_weights":[-9.2795715E-5,-2.3370257E-3,3.5404727E-2,-2.4699245E-2,-0E0,-2.0685727E-3,2.6171416E-2,-5.2364767E-3,2.0025896E-2,2.2543918E-2,-9.1913034E-4],"categories":[],"categories_nodes":[],"categories_segments":[],"categories_sizes":[],"default_left":[1,0,0,0,1,1,0,0,0,0,0],"id":37,"left_children":[1,3,-1,-1,5,7,-1,9,-1,-1,-1],"loss_changes":[1.140038E0,1.0583982E0,0E0,0E0,9.969909E-1,9.6594316E-1,0E0,9.6426415E-1,0E0,0E0,0E0],"parents":[2147483647,0,0,1,1,4,4,5,5,7,7],"right_children":[2,4,-1,-1,6,8,-1,10,-1,-1,-1],"split_conditions":[3.5451066E-1,1.5487303E0,3.5404727E-2,-2.4699245E-2,2.9371685E-1,2.341645E-1,2.6171416E-2,1.2399395E0,2.0025896E-2,2.2543918E-2,-9.1913034E-4],"split_indices":[4565,3869,0,0,4584,4856,0,387,0,0,0],"split_type":[0,0,0,0,0,0,0,0,0,0,0],"sum_hessian":[2.043E3,2.032E3,1.1E1,2.2E1,2.01E3,1.992E3,1.8E1,1.963E3,2.9E1,2.2E1,1.941E3],"tree_param":{"num_deleted":"0","num_feature":"5000","num_nodes":"11","size_leaf_vector":"1"}},{"base_weights":[-1.4216305E-3,1.3895017E-2,-5.957581E-3,-8.303227E-3,2.980142E-2,-1.3919712E-2,1.012418E-2,1.2220723E-1,-1.847471E-2,8.107998E-4,2.8273566E-2,3.0397396E-3,-3.7626636E-3],"categories":[],"categories_nodes":[],"categories_segments":[],"categories_sizes":[],"default_left":[0,0,1,1,0,0,0,0,0,0,0,0,0],"id":38,"left_children":[1,-1,3,5,-1,7,-1,9,11,-1,-1,-1,-1],"loss_changes":[1.0327107E0,0E0,1.0025309E0,1.0008774E0,0E0,1.0571253E0,0E0,5.403349E-1,1.20368E0,0E0,0E0,0E0,0E0],"parents":[2147483647,0,0,2,2,3,3,5,5,7,7,8,8],"right_children":[2,-1,4,6,-1,8,-1,10,12,-1,-1,-1,-1],"split_conditions":[1.0827869E0,1.3895017E-2,3.5451066E-1,1.8493344E-1,2.980142E-2,5.0202274E-1,1.012418E-2,1.0843288E-1,1.1982683E0,8.107998E-4,2.8273566E-2,3.0397396E-3,-3.7626636E-3],"split_indices":[4062,0,4565,4519,0,4646,0,4646,324,0,0,0,0],"split_type":[0,0,0,0,0,0,0,0,0,0,0,0,0],"sum_hessian":[2.033E3,6.4E1,1.969E3,1.956E3,1.3E1,1.859E3,9.7E1,5.3E1,1.806E3,3.2E1,2.1E1,4.26E2,1.38E3],"tree_param":{"num_deleted":"0","num_feature":"5000","num_nodes":"13","size_leaf_vector":"1"}},{"base_weights":[3.6767065E-3,3.0634625E-4,2.21035E-2,3.0510284E-2,-1.4562544E-3,1.5825954E-4,-2.8437799E-2,2.7921235E-3,-2.5807144E-2,7.038189E-4,-1.7129147E-2],"categories":[],"categories_nodes":[],"categories_segments":[],"categories_sizes":[],"default_left":[1,0,0,0,1,1,0,1,0,0,0],"id":39,"left_children":[1,3,-1,-1,5,7,-1,9,-1,-1,-1],"loss_changes":[1.1319826E0,1.2031451E0,0E0,0E0,1.0375404E0,9.7639835E-1,0E0,8.914142E-1,0E0,0E0,0E0],"parents":[2147483647,0,0,1,1,4,4,5,5,7,7],"right_children":[2,4,-1,-1,6,8,-1,10,-1,-1,-1],"split_conditions":[1.6668944E-1,2.00001E0,2.21035E-2,3.0510284E-2,3.727627E-1,2.9987454E-1,-2.8437799E-2,1.4925168E-1,-2.5807144E-2,7.038189E-4,-1.7129147E-2],"split_indices":[2023,3319,0,0,2808,4462,0,184,0,0,0],"split_type":[0,0,0,0,0,0,0,0,0,0,0],"sum_hessian":[2.043E3,2.013E3,3E1,1.6E1,1.997E3,1.981E3,1.6E1,1.963E3,1.8E1,1.927E3,3.6E1],"tree_param":{"num_deleted":"0","num_feature":"5000","num_nodes":"11","size_leaf_vector":"1"}},{"base_weights":[-2.850502E-4,-2.5863016E-3,3.3393316E-2,-6.106404E-3,1.674302E-1,-8.778269E-3,2.5690706E-2,-0E0,2.4945462E-2,2.284633E-2,-1.1696818E-2,-1.6202601E-3,2.9976495E-2],"categories":[],"categories_nodes":[],"categories_segments":[],"categories_sizes":[],"default_left":[1,1,0,1,0,0,0,0,0,0,1,0,0],"id":40,"left_children":[1,3,-1,5,7,9,-1,-1,-1,-1,11,-1,-1],"loss_changes":[1.1040986E0,1.0591274E0,0E0,1.0301068E0,4.2993426E-1,1.0296831E0,0E0,0E0,0E0,0E0,1.1450965E0,0E0,0E0],"parents":[2147483647,0,0,1,1,3,3,4,4,5,5,10,10],"right_children":[2,4,-1,6,8,10,-1,-1,-1,-1,12,-1,-1],"split_conditions":[2.5672215E-1,1.198662E-1,3.3393316E-2,1.8632475E-1,1.761874E-1,6.199647E-1,2.5690706E-2,-0E0,2.4945462E-2,2.284633E-2,1.8857121E-1,-1.6202601E-3,2.9976495E-2],"split_indices":[2260,4550,0,4120,2016,387,0,0,0,0,788,0,0],"split_type":[0,0,0,0,0,0,0,0,0,0,0,0,0],"sum_hessian":[2.033E3,2.021E3,1.2E1,1.986E3,3.5E1,1.968E3,1.8E1,6E0,2.9E1,2.2E1,1.946E3,1.932E3,1.4E1],"tree_param":{"num_deleted":"0","num_feature":"5000","num_nodes":"13","size_leaf_vector":"1"}},{"base_weights":[-9.7720535E-5,1.1458678E-2,-4.690919E-3,-2.2571464E-3,-2.4863409E-2,-0E0,-2.7159479E-2,-1.9329289E-3,3.0172953E-2,-6.975063E-4,1.16219465E-2],"categories":[],"categories_nodes":[],"categories_segments":[],"categories_sizes":[],"default_left":[0,0,1,1,0,1,0,1,0,0,0],"id":41,"left_children":[1,-1,3,5,-1,7,-1,9,-1,-1,-1],"loss_changes":[8.5319066E-1,0E0,8.1108177E-1,8.25975E-1,0E0,7.565486E-1,0E0,7.494552E-1,0E0,0E0,0E0],"parents":[2147483647,0,0,2,2,3,3,5,5,7,7],"right_children":[2,-1,4,6,-1,8,-1,10,-1,-1,-1],"split_conditions":[4.420806E-1,1.1458678E-2,3.177677E-1,2.3416929E-1,-2.4863409E-2,3.8616717E-1,-2.7159479E-2,1.8780789E-1,3.0172953E-2,-6.975063E-4,1.16219465E-2],"split_indices":[2767,0,2808,3121,0,4565,0,1459,0,0,0],"split_type":[0,0,0,0,0,0,0,0,0,0,0],"sum_hessian":[2.033E3,7.9E1,1.954E3,1.937E3,1.7E1,1.923E3,1.4E1,1.913E3,1E1,1.848E3,6.5E1],"tree_param":{"num_deleted":"0","num_feature":"5000","num_nodes":"11","size_leaf_vector":"1"}},{"base_weights":[4.9364957E-4,-1.9730686E-3,1.8847907E-2,5.7622187E-2,-9.961342E-3,-5.0325417E-3,8.438558E-2,1.5263152E-1,-1.4470484E-2,-0E0,1.2774734E-1,-0E0,2.4588868E-1,-1.8781547E-2,1.629491E-2,-1.5113585E-2,1.618205E-2,-0E0,3.6728308E-2,-3.8590112E-3,3.2720782E-3],"categories":[],"categories_nodes":[],"categories_segments":[],"categories_sizes":[],"default_left":[1,0,0,0,0,0,0,0,1,0,0,0,0,1,0,0,0,0,0,0,0],"id":42,"left_children":[1,3,-1,5,7,-1,9,11,13,-1,15,-1,17,19,-1,-1,-1,-1,-1,-1,-1],"loss_changes":[9.8800915E-1,9.118588E-1,0E0,6.499493E-1,1.1808475E0,0E0,7.353891E-1,4.9571884E-1,1.0717368E0,0E0,5.024767E-1,0E0,4.5809722E-1,1.2369502E0,0E0,0E0,0E0,0E0,0E0,0E0,0E0],"parents":[2147483647,0,0,1,1,3,3,4,4,6,6,7,7,8,8,10,10,12,12,13,13],"right_children":[2,4,-1,6,8,-1,10,12,14,-1,16,-1,18,20,-1,-1,-1,-1,-1,-1,-1],"split_conditions":[1.198662E-1,3.0555978E-1,1.8847907E-2,2.0099387E-1,5.0202274E-1,-5.0325417E-3,2.2847773E-1,1.1983032E-1,7.846171E-2,-0E0,3.5615972E-1,-0E0,1.255222E-1,3.0111618E-2,1.629491E-2,-1.5113585E-2,1.618205E-2,-0E0,3.6728308E-2,-3.8590112E-3,3.2720782E-3],"split_indices":[4550,2016,0,4259,4646,0,3261,2554,4584,0,2190,0,3121,324,0,0,0,0,0,0,0],"split_type":[0,0,0,0,0,0,0,0,0,0,0,0,0,0,0,0,0,0,0,0,0],"sum_hessian":[2.043E3,2.008E3,3.5E1,2.23E2,1.785E3,3.9E1,1.84E2,4.2E1,1.743E3,5.9E1,1.25E2,1.8E1,2.4E1,1.703E3,4E1,3E0,1.22E2,6E0,1.8E1,1.306E3,3.97E2],"tree_param":{"num_deleted":"0","num_feature":"5000","num_nodes":"21","size_leaf_vector":"1"}},{"base_weights":[5.8026006E-4,3.757063E-3,-1.8355595E-2,5.691407E-3,-3.0969448E-2,8.269692E-3,-2.1270327E-2,-2.6693229E-2,1.0428076E-2,1.5499478E-3,-1.5197011E-2],"categories":[],"categories_nodes":[],"categories_segments":[],"categories_sizes":[],"default_left":[1,1,0,1,0,0,0,0,1,0,0],"id":43,"left_children":[1,3,-1,5,-1,7,-1,-1,9,-1,-1],"loss_changes":[9.05609E-1,8.2592756E-1,0E0,8.2871306E-1,0E0,8.3069307E-1,0E0,0E0,8.011131E-1,0E0,0E0],"parents":[2147483647,0,0,1,1,3,3,5,5,8,8],"right_children":[2,4,-1,6,-1,8,-1,-1,10,-1,-1],"split_conditions":[1.8796296E-1,5.5507135E-1,-1.8355595E-2,1.9626045E-1,-3.0969448E-2,1.1590416E0,-2.1270327E-2,-2.6693229E-2,2.5938997E-1,1.5499478E-3,-1.5197011E-2],"split_indices":[3162,477,0,4462,0,2427,0,0,171,0,0],"split_type":[0,0,0,0,0,0,0,0,0,0,0],"sum_hessian":[2.044E3,2.011E3,3.3E1,2.001E3,1E1,1.98E3,2.1E1,1.3E1,1.967E3,1.931E3,3.6E1],"tree_param":{"num_deleted":"0","num_feature":"5000","num_nodes":"11","size_leaf_vector":"1"}},{"base_weights":[3.5726288E-3,7.840004E-4,2.259026E-2,-1.5935202E-3,1.7420597E-2,-4.5096194E-3,2.0622859E-2,-9.446207E-3,9.461965E-2,1.8887386E-2,-1.4785673E-3,-0E0,1.9587776E-2],"categories":[],"categories_nodes":[],"categories_segments":[],"categories_sizes":[],"default_left":[1,1,0,1,0,1,0,0,0,0,0,0,0],"id":44,"left_children":[1,3,-1,5,-1,7,-1,9,11,-1,-1,-1,-1],"loss_changes":[9.097147E-1,8.650419E-1,0E0,8.787862E-1,0E0,8.653916E-1,0E0,1.0172096E0,4.978999E-1,0E0,0E0,0E0,0E0],"parents":[2147483647,0,0,1,1,3,3,5,5,7,7,8,8],"right_children":[2,4,-1,6,-1,8,-1,10,12,-1,-1,-1,-1],"split_conditions":[1.20368354E-1,1.1983032E-1,2.259026E-2,1.8585126E-1,1.7420597E-2,8.371909E-2,2.0622859E-2,1.289178E0,2.2171797E-1,1.8887386E-2,-1.4785673E-3,-0E0,1.9587776E-2],"split_indices":[3027,2554,0,4550,0,1326,0,3205,324,0,0,0,0],"split_type":[0,0,0,0,0,0,0,0,0,0,0,0,0],"sum_hessian":[2.014E3,1.991E3,2.3E1,1.955E3,3.6E1,1.93E3,2.5E1,1.848E3,8.2E1,3.1E1,1.817E3,4.1E1,4.1E1],"tree_param":{"num_deleted":"0","num_feature":"5000","num_nodes":"13","size_leaf_vector":"1"}},{"base_weights":[-2.4264774E-4,9.740754E-4,-2.6209695E-2,3.3008985E-3,-2.3566717E-2,-2.4903063E-2,5.4304497E-3,7.685815E-3,-2.1714838E-2,1.1050005E-3,-2.433358E-2],"categories":[],"categories_nodes":[],"categories_segments":[],"categories_sizes":[],"default_left":[1,1,0,0,0,0,1,1,0,0,0],"id":45,"left_children":[1,3,-1,5,-1,-1,7,9,-1,-1,-1],"loss_changes":[7.801865E-1,7.7815586E-1,0E0,7.391643E-1,0E0,0E0,7.0114577E-1,6.931957E-1,0E0,0E0,0E0],"parents":[2147483647,0,0,1,1,3,3,6,6,7,7],"right_children":[2,4,-1,6,-1,-1,8,10,-1,-1,-1],"split_conditions":[2.0610976E-1,1.5512806E-1,-2.6209695E-2,2.00001E0,-2.3566717E-2,-2.4903063E-2,2.0188826E-1,2.3416929E-1,-2.1714838E-2,1.1050005E-3,-2.433358E-2],"split_indices":[3510,3869,0,809,0,0,4658,3121,0,0,0],"split_type":[0,0,0,0,0,0,0,0,0,0,0],"sum_hessian":[2.012E3,1.998E3,1.4E1,1.981E3,1.7E1,1.4E1,1.967E3,1.95E3,1.7E1,1.937E3,1.3E1],"tree_param":{"num_deleted":"0","num_feature":"5000","num_nodes":"11","size_leaf_vector":"1"}},{"base_weights":[1.8990618E-3,1.4868301E-2,-6.0519984E-4,1.8024493E-2,-3.4275893E-3,-8.963427E-4,-2.0141961E-2,1.057423E-3,-1.7320033E-2,3.261402E-4,-2.9205762E-2],"categories":[],"categories_nodes":[],"categories_segments":[],"categories_sizes":[],"default_left":[0,0,0,0,1,1,0,1,0,0,0],"id":46,"left_children":[1,-1,3,-1,5,7,-1,9,-1,-1,-1],"loss_changes":[7.750363E-1,0E0,7.4278504E-1,0E0,6.89907E-1,7.1246755E-1,0E0,6.4945316E-1,0E0,0E0,0E0],"parents":[2147483647,0,0,2,2,4,4,5,5,7,7],"right_children":[2,-1,4,-1,6,8,-1,10,-1,-1,-1],"split_conditions":[8.8377905E-1,1.4868301E-2,2.00001E0,1.8024493E-2,3.2745087E-1,2.3957066E-1,-2.0141961E-2,5.734842E-1,-1.7320033E-2,3.261402E-4,-2.9205762E-2],"split_indices":[3239,0,4120,0,646,4054,0,477,0,0,0],"split_type":[0,0,0,0,0,0,0,0,0,0,0],"sum_hessian":[2.02E3,4.5E1,1.975E3,2.8E1,1.947E3,1.925E3,2.2E1,1.895E3,3E1,1.886E3,9E0],"tree_param":{"num_deleted":"0","num_feature":"5000","num_nodes":"11","size_leaf_vector":"1"}},{"base_weights":[1.7568613E-3,4.9523246E-3,-1.74904E-2,6.847586E-3,-3.251073E-2,4.7667148E-3,2.899278E-2,1.8157905E-3,1.8172199E-2,4.9337145E-4,-3.4979E-2],"categories":[],"categories_nodes":[],"categories_segments":[],"categories_sizes":[],"default_left":[1,1,0,1,0,1,0,1,0,0,0],"id":47,"left_children":[1,3,-1,5,-1,7,-1,9,-1,-1,-1],"loss_changes":[8.6315805E-1,8.319841E-1,0E0,7.742867E-1,0E0,7.45507E-1,0E0,1.2266009E0,0E0,0E0,0E0],"parents":[2147483647,0,0,1,1,3,3,5,5,7,7],"right_children":[2,4,-1,6,-1,8,-1,10,-1,-1,-1],"split_conditions":[2.1709503E-1,7.7511525E-1,-1.74904E-2,2.5672215E-1,-3.251073E-2,1.6668944E-1,2.899278E-2,1.9250233E-1,1.8172199E-2,4.9337145E-4,-3.4979E-2],"split_indices":[1786,4838,0,2260,0,2023,0,435,0,0,0],"split_type":[0,0,0,0,0,0,0,0,0,0,0],"sum_hessian":[2.014E3,1.98E3,3.4E1,1.971E3,9E0,1.959E3,1.2E1,1.929E3,3E1,1.917E3,1.2E1],"tree_param":{"num_deleted":"0","num_feature":"5000","num_nodes":"11","size_leaf_vector":"1"}},{"base_weights":[-3.597633E-3,-3.5318427E-2,-1.7098278E-3,-3.3077396E-2,-3.9469396E-5,1.0867137E-3,-2.5166731E-2,2.88757E-3,-2.8994549E-2,6.8260684E-5,2.049954E-2],"categories":[],"categories_nodes":[],"categories_segments":[],"categories_sizes":[],"default_left":[0,0,0,0,1,1,0,1,0,0,0],"id":48,"left_children":[1,-1,3,-1,5,7,-1,9,-1,-1,-1],"loss_changes":[9.093128E-1,0E0,7.2499985E-1,0E0,7.2009975E-1,7.065423E-1,0E0,6.5536284E-1,0E0,0E0,0E0],"parents":[2147483647,0,0,2,2,4,4,5,5,7,7],"right_children":[2,-1,4,-1,6,8,-1,10,-1,-1,-1],"split_conditions":[1.2054096E0,-3.5318427E-2,2.00001E0,-3.3077396E-2,4.4766173E-1,1.9674514E-1,-2.5166731E-2,1.8632475E-1,-2.8994549E-2,6.8260684E-5,2.049954E-2],"split_indices":[4657,0,321,0,4948,674,0,4120,0,0,0],"split_type":[0,0,0,0,0,0,0,0,0,0,0],"sum_hessian":[2.073E3,9E0,2.064E3,8E0,2.056E3,2.042E3,1.4E1,2.032E3,1E1,2.012E3,2E1],"tree_param":{"num_deleted":"0","num_feature":"5000","num_nodes":"11","size_leaf_vector":"1"}},{"base_weights":[7.708806E-4,3.118508E-3,-2.9606147E-2,2.3350757E-2,7.746574E-4,2.6754395E-3,-2.7876183E-2,1.842721E-2,4.5706267E-5,-3.5605812E-4,1.1085149E-2],"categories":[],"categories_nodes":[],"categories_segments":[],"categories_sizes":[],"default_left":[1,0,0,0,1,0,0,0,1,0,0],"id":49,"left_children":[1,3,-1,-1,5,7,-1,-1,9,-1,-1],"loss_changes":[1.0117302E0,7.683671E-1,0E0,0E0,7.1297497E-1,6.862556E-1,0E0,0E0,7.007335E-1,0E0,0E0],"parents":[2147483647,0,0,1,1,4,4,5,5,8,8],"right_children":[2,4,-1,-1,6,8,-1,-1,10,-1,-1],"split_conditions":[3.9017498E-1,2.00001E0,-2.9606147E-2,2.3350757E-2,5.1356804E-1,1.1479477E-1,-2.7876183E-2,1.842721E-2,1.7836094E-1,-3.5605812E-4,1.1085149E-2],"split_indices":[140,3319,0,0,2016,1293,0,0,1459,0,0],"split_type":[0,0,0,0,0,0,0,0,0,0,0],"sum_hessian":[2.041E3,2.027E3,1.4E1,1.8E1,2.009E3,1.998E3,1.1E1,2.6E1,1.972E3,1.901E3,7.1E1],"tree_param":{"num_deleted":"0","num_feature":"5000","num_nodes":"11","size_leaf_vector":"1"}},{"base_weights":[-0E0,1.16485335E-1,-3.5915934E-3,-0E0,2.0978832E-1,-5.915232E-3,2.4280755E-2,-0E0,3.269736E-2,2.005604E-2,-8.626423E-3,-1.35921035E-2,8.552318E-3,5.465026E-3,-2.4478172E-3],"categories":[],"categories_nodes":[],"categories_segments":[],"categories_sizes":[],"default_left":[0,0,1,0,0,0,0,0,0,0,1,0,0,0,0],"id":50,"left_children":[1,3,5,-1,7,9,-1,-1,-1,-1,11,13,-1,-1,-1],"loss_changes":[8.615903E-1,7.756215E-1,8.024661E-1,0E0,4.2825556E-1,8.1182754E-1,0E0,0E0,0E0,0E0,7.488839E-1,8.779051E-1,0E0,0E0,0E0],"parents":[2147483647,0,0,1,1,2,2,4,4,5,5,10,10,11,11],"right_children":[2,4,6,-1,8,10,-1,-1,-1,-1,12,14,-1,-1,-1],"split_conditions":[5.0202274E-1,2.5442877E-1,1.8857121E-1,-0E0,1.1412301E-1,1.2399395E0,2.4280755E-2,-0E0,3.269736E-2,2.005604E-2,1.8493344E-1,2.938931E-1,8.552318E-3,5.465026E-3,-2.4478172E-3],"split_indices":[4646,3261,788,0,3677,387,0,0,0,0,4519,4979,0,0,0],"split_type":[0,0,0,0,0,0,0,0,0,0,0,0,0,0,0],"sum_hessian":[2.034E3,6.1E1,1.973E3,2.5E1,3.6E1,1.957E3,1.6E1,1.2E1,2.4E1,2.3E1,1.934E3,1.837E3,9.7E1,1.96E2,1.641E3],"tree_param":{"num_deleted":"0","num_feature":"5000","num_nodes":"15","size_leaf_vector":"1"}},{"base_weights":[1.6871109E-3,3.9294283E-3,-3.2270517E-2,1.9512145E-3,2.7846301E-2,-2.9295325E-2,3.5347384E-3,5.3072576E-3,-2.5021777E-2,8.15404E-4,-2.2532882E-2],"categories":[],"categories_nodes":[],"categories_segments":[],"categories_sizes":[],"default_left":[1,1,0,0,0,0,1,1,0,0,0],"id":51,"left_children":[1,3,-1,5,-1,-1,7,9,-1,-1,-1],"loss_changes":[1.0441146E0,7.34847E-1,0E0,5.908186E-1,0E0,0E0,5.950235E-1,5.8193064E-1,0E0,0E0,0E0],"parents":[2147483647,0,0,1,1,3,3,6,6,7,7],"right_children":[2,4,-1,6,-1,-1,8,10,-1,-1,-1],"split_conditions":[2.6524585E-1,3.8703305E-1,-3.2270517E-2,2.00001E0,2.7846301E-2,-2.9295325E-2,5.0147605E-1,2.3416929E-1,-2.5021777E-2,8.15404E-4,-2.2532882E-2],"split_indices":[831,4509,0,321,0,0,4866,3121,0,0,0],"split_type":[0,0,0,0,0,0,0,0,0,0,0],"sum_hessian":[2.038E3,2.026E3,1.2E1,2.014E3,1.2E1,8E0,2.006E3,1.995E3,1.1E1,1.982E3,1.3E1],"tree_param":{"num_deleted":"0","num_feature":"5000","num_nodes":"11","size_leaf_vector":"1"}},{"base_weights":[-1.1365714E-3,-0E0,-2.69466E-2,2.0869492E-2,-1.4821624E-3,-4.1305977E-3,1.8338094E-2,-1.6685346E-3,-3.8935285E-2,8.955783E-3,-6.791171E-4],"categories":[],"categories_nodes":[],"categories_segments":[],"categories_sizes":[],"default_left":[1,0,0,0,1,1,0,0,0,0,0],"id":52,"left_children":[1,3,-1,-1,5,7,-1,9,-1,-1,-1],"loss_changes":[6.513321E-1,6.329686E-1,0E0,0E0,7.2334635E-1,1.3368723E0,0E0,6.1916935E-1,0E0,0E0,0E0],"parents":[2147483647,0,0,1,1,4,4,5,5,7,7],"right_children":[2,4,-1,-1,6,8,-1,10,-1,-1,-1],"split_conditions":[1.9674514E-1,2.00001E0,-2.69466E-2,2.0869492E-2,1.7794345E-1,1.9250233E-1,1.8338094E-2,4.420806E-1,-3.8935285E-2,8.955783E-3,-6.791171E-4],"split_indices":[674,3319,0,0,2023,435,0,2767,0,0,0],"split_type":[0,0,0,0,0,0,0,0,0,0,0],"sum_hessian":[2.046E3,2.035E3,1.1E1,1.8E1,2.017E3,1.991E3,2.6E1,1.98E3,1.1E1,8.9E1,1.891E3],"tree_param":{"num_deleted":"0","num_feature":"5000","num_nodes":"11","size_leaf_vector":"1"}},{"base_weights":[-1.3631773E-3,-4.710595E-3,1.3710777E-2,-6.985152E-3,2.1489007E-2,-9.103517E-3,2.296945E-2,-6.8812217E-3,-2.3120953E-2,-4.654952E-4,-1.7280066E-2],"categories":[],"categories_nodes":[],"categories_segments":[],"categories_sizes":[],"default_left":[1,1,0,1,0,1,0,1,0,0,0],"id":53,"left_children":[1,3,-1,5,-1,7,-1,9,-1,-1,-1],"loss_changes":[7.346899E-1,7.191758E-1,0E0,7.056009E-1,0E0,6.5877056E-1,0E0,6.480129E-1,0E0,0E0,0E0],"parents":[2147483647,0,0,1,1,3,3,5,5,7,7],"right_children":[2,4,-1,6,-1,8,-1,10,-1,-1,-1],"split_conditions":[9.974098E-2,1.8632475E-1,1.3710777E-2,1.5096566E-1,2.1489007E-2,3.727627E-1,2.296945E-2,3.0555978E-1,-2.3120953E-2,-4.654952E-4,-1.7280066E-2],"split_indices":[4062,4120,0,4821,0,2808,0,2016,0,0,0],"split_type":[0,0,0,0,0,0,0,0,0,0,0],"sum_hessian":[2.063E3,2.016E3,4.7E1,1.998E3,1.8E1,1.983E3,1.5E1,1.966E3,1.7E1,1.936E3,3E1],"tree_param":{"num_deleted":"0","num_feature":"5000","num_nodes":"11","size_leaf_vector":"1"}},{"base_weights":[2.4735376E-3,5.477187E-3,-1.6479325E-2,-2.7432395E-2,7.5026792E-3,9.283291E-3,-2.7068501E-2,1.246837E-2,-1.2670557E-2,1.0802293E-3,1.7358925E-2],"categories":[],"categories_nodes":[],"categories_segments":[],"categories_sizes":[],"default_left":[1,0,0,0,1,1,0,1,0,0,0],"id":54,"left_children":[1,3,-1,-1,5,7,-1,9,-1,-1,-1],"loss_changes":[7.765022E-1,7.8832614E-1,0E0,0E0,6.6205823E-1,6.739575E-1,0E0,6.555205E-1,0E0,0E0,0E0],"parents":[2147483647,0,0,1,1,4,4,5,5,7,7],"right_children":[2,4,-1,-1,6,8,-1,10,-1,-1,-1],"split_conditions":[2.9744616E-1,1.5367783E0,-1.6479325E-2,-2.7432395E-2,5.001922E-1,1.4925168E-1,-2.7068501E-2,1.1983032E-1,-1.2670557E-2,1.0802293E-3,1.7358925E-2],"split_indices":[1043,4953,0,0,158,184,0,2554,0,0,0],"split_type":[0,0,0,0,0,0,0,0,0,0,0],"sum_hessian":[2.046E3,2.012E3,3.4E1,1.2E1,2E3,1.99E3,1E1,1.947E3,4.3E1,1.914E3,3.3E1],"tree_param":{"num_deleted":"0","num_feature":"5000","num_nodes":"11","size_leaf_vector":"1"}},{"base_weights":[8.462561E-4,1.356714E-1,-1.1548946E-3,6.8893656E-4,3.2412734E-2,-3.0491513E-3,2.3414949E-2,2.468248E-2,-4.820237E-3,-9.259528E-3,8.06298E-3,-1.9671472E-3,4.1757235E-3],"categories":[],"categories_nodes":[],"categories_segments":[],"categories_sizes":[],"default_left":[0,0,1,0,0,0,0,0,1,1,0,0,0],"id":55,"left_children":[1,3,5,-1,-1,7,-1,-1,9,11,-1,-1,-1],"loss_changes":[6.7529035E-1,4.3582922E-1,5.9456146E-1,0E0,0E0,5.7611424E-1,0E0,0E0,6.0695124E-1,6.784121E-1,0E0,0E0,0E0],"parents":[2147483647,0,0,1,1,2,2,5,5,8,8,9,9],"right_children":[2,4,6,-1,-1,8,-1,-1,10,12,-1,-1,-1],"split_conditions":[3.074833E-1,1.8135841E-1,1.5096566E-1,6.8893656E-4,3.2412734E-2,8.146912E-1,2.3414949E-2,2.468248E-2,1.812616E-1,1.1545459E-1,8.06298E-3,-1.9671472E-3,4.1757235E-3],"split_indices":[1062,400,4821,0,0,2260,0,0,4519,324,0,0,0],"split_type":[0,0,0,0,0,0,0,0,0,0,0,0,0],"sum_hessian":[2.034E3,3.6E1,1.998E3,2.3E1,1.3E1,1.985E3,1.3E1,1.1E1,1.974E3,1.877E3,9.7E1,1.615E3,2.62E2],"tree_param":{"num_deleted":"0","num_feature":"5000","num_nodes":"13","size_leaf_vector":"1"}},{"base_weights":[1.3383253E-3,3.1250874E-3,-2.6129551E-2,4.9312767E-3,-2.401409E-2,7.485368E-3,-1.4306891E-2,1.0294712E-2,-1.25043E-2,1.4625437E-3,-1.3739346E-2],"categories":[],"categories_nodes":[],"categories_segments":[],"categories_sizes":[],"default_left":[1,1,0,1,0,1,0,1,0,0,0],"id":56,"left_children":[1,3,-1,5,-1,7,-1,9,-1,-1,-1],"loss_changes":[6.3108534E-1,5.9331435E-1,0E0,5.6385714E-1,0E0,5.6319904E-1,0E0,5.595078E-1,0E0,0E0,0E0],"parents":[2147483647,0,0,1,1,3,3,5,5,7,7],"right_children":[2,4,-1,6,-1,8,-1,10,-1,-1,-1],"split_conditions":[6.892431E-1,5.0147605E-1,-2.6129551E-2,2.9744616E-1,-2.401409E-2,2.9084277E-1,-1.4306891E-2,2.1709503E-1,-1.25043E-2,1.4625437E-3,-1.3739346E-2],"split_indices":[4838,4866,0,1043,0,4803,0,1786,0,0,0],"split_type":[0,0,0,0,0,0,0,0,0,0,0],"sum_hessian":[2.04E3,2.029E3,1.1E1,2.017E3,1.2E1,1.986E3,3.1E1,1.948E3,3.8E1,1.918E3,3E1],"tree_param":{"num_deleted":"0","num_feature":"5000","num_nodes":"11","size_leaf_vector":"1"}},{"base_weights":[-2.6105435E-3,2.2775358E-2,-4.5467904E-3,-1.1684061E-3,-1.33208055E-2,6.060724E-5,-2.0469753E-2,2.2663537E-3,-2.0259148E-2,-2.7814357E-2,4.3859403E-4],"categories":[],"categories_nodes":[],"categories_segments":[],"categories_sizes":[],"default_left":[0,0,1,1,0,1,0,0,0,0,0],"id":57,"left_children":[1,-1,3,5,-1,7,-1,9,-1,-1,-1],"loss_changes":[6.156446E-1,0E0,6.571019E-1,6.0200965E-1,0E0,6.022242E-1,0E0,5.356625E-1,0E0,0E0,0E0],"parents":[2147483647,0,0,2,2,3,3,5,5,7,7],"right_children":[2,-1,4,6,-1,8,-1,10,-1,-1,-1],"split_conditions":[4.818061E-1,2.2775358E-2,3.7211406E-1,3.774969E-1,-1.33208055E-2,1.7814504E-1,-2.0469753E-2,1.1309868E0,-2.0259148E-2,-2.7814357E-2,4.3859403E-4],"split_indices":[794,0,2200,4866,0,4658,0,2189,0,0,0],"split_type":[0,0,0,0,0,0,0,0,0,0,0],"sum_hessian":[2.031E3,1.4E1,2.017E3,1.967E3,5E1,1.949E3,1.8E1,1.931E3,1.8E1,8E0,1.923E3],"tree_param":{"num_deleted":"0","num_feature":"5000","num_nodes":"11","size_leaf_vector":"1"}},{"base_weights":[8.6379924E-4,-2.1333117E-3,9.386935E-2,-4.3021706E-3,2.1880332E-2,-0E0,3.0070253E-2,-2.219283E-3,-2.256808E-2,-3.790436E-3,3.0334862E-2,-7.287252E-4,1.483855E-2],"categories":[],"categories_nodes":[],"categories_segments":[],"categories_sizes":[],"default_left":[1,1,0,1,0,0,0,1,0,1,0,0,0],"id":58,"left_children":[1,3,5,7,-1,-1,-1,9,-1,11,-1,-1,-1],"loss_changes":[6.472309E-1,6.4348465E-1,1.0854633E0,5.903835E-1,0E0,0E0,0E0,5.6145066E-1,0E0,5.552273E-1,0E0,0E0,0E0],"parents":[2147483647,0,0,1,1,2,2,3,3,7,7,9,9],"right_children":[2,4,6,8,-1,-1,-1,10,-1,12,-1,-1,-1],"split_conditions":[1.7836094E-1,2.6661247E-1,1E0,3.5169488E-1,2.1880332E-2,-0E0,3.0070253E-2,4.3243572E-1,-2.256808E-2,1.6668944E-1,3.0334862E-2,-7.287252E-4,1.483855E-2],"split_indices":[1459,3027,400,2651,0,0,0,4509,0,2023,0,0,0],"split_type":[0,0,0,0,0,0,0,0,0,0,0,0,0],"sum_hessian":[2.012E3,1.94E3,7.2E1,1.924E3,1.6E1,4.8E1,2.4E1,1.909E3,1.5E1,1.902E3,7E0,1.873E3,2.9E1],"tree_param":{"num_deleted":"0","num_feature":"5000","num_nodes":"13","size_leaf_vector":"1"}},{"base_weights":[-0E0,1.3048243E-3,-2.894333E-2,3.4757615E-3,-2.0824779E-2,-1.7843941E-2,5.6856535E-3,7.287157E-3,-2.585957E-2,1.1363841E-3,-1.2704776E-2],"categories":[],"categories_nodes":[],"categories_segments":[],"categories_sizes":[],"default_left":[1,1,0,0,0,0,1,1,0,0,0],"id":59,"left_children":[1,3,-1,5,-1,-1,7,9,-1,-1,-1],"loss_changes":[6.9302595E-1,6.467341E-1,0E0,5.736596E-1,0E0,0E0,5.395905E-1,5.477765E-1,0E0,0E0,0E0],"parents":[2147483647,0,0,1,1,3,3,6,6,7,7],"right_children":[2,4,-1,6,-1,-1,8,10,-1,-1,-1],"split_conditions":[2.6524585E-1,3.6089975E-1,-2.894333E-2,1.5487303E0,-2.0824779E-2,-1.7843941E-2,5.734842E-1,2.9439923E-1,-2.585957E-2,1.1363841E-3,-1.2704776E-2],"split_indices":[831,4054,0,3869,0,0,477,4803,0,0,0],"split_type":[0,0,0,0,0,0,0,0,0,0,0],"sum_hessian":[2.043E3,2.033E3,1E1,2.015E3,1.8E1,2.1E1,1.994E3,1.985E3,9E0,1.949E3,3.6E1],"tree_param":{"num_deleted":"0","num_feature":"5000","num_nodes":"11","size_leaf_vector":"1"}},{"base_weights":[-0E0,2.4714734E-2,-1.6479205E-3,8.384259E-3,-5.526889E-3,-3.7905087E-3,-2.6870362E-2,-5.5516968E-3,2.3895305E-2,-1.1338321E-3,6.413411E-3],"categories":[],"categories_nodes":[],"categories_segments":[],"categories_sizes":[],"default_left":[0,0,0,0,1,1,0,1,0,0,0],"id":60,"left_children":[1,-1,3,-1,5,7,-1,9,-1,-1,-1],"loss_changes":[6.0304475E-1,0E0,5.37259E-1,0E0,5.623811E-1,5.460929E-1,0E0,4.9091014E-1,0E0,0E0,0E0],"parents":[2147483647,0,0,2,2,4,4,5,5,7,7],"right_children":[2,-1,4,-1,6,8,-1,10,-1,-1,-1],"split_conditions":[1.1019264E0,2.4714734E-2,4.420806E-1,8.384259E-3,6.892431E-1,3.5451066E-1,-2.6870362E-2,1.5656242E-1,2.3895305E-2,-1.1338321E-3,6.413411E-3],"split_indices":[3005,0,2767,0,4838,4565,0,4519,0,0,0],"split_type":[0,0,0,0,0,0,0,0,0,0,0],"sum_hessian":[2.065E3,1.2E1,2.053E3,8.8E1,1.965E3,1.955E3,1E1,1.944E3,1.1E1,1.829E3,1.15E2],"tree_param":{"num_deleted":"0","num_feature":"5000","num_nodes":"11","size_leaf_vector":"1"}},{"base_weights":[1.3680867E-3,-0E0,1.9995209E-2,1.9905043E-3,-1.2098563E-2,3.3987442E-3,-2.733409E-2,4.9846414E-3,-2.298896E-2,2.986768E-4,1.807516E-2],"categories":[],"categories_nodes":[],"categories_segments":[],"categories_sizes":[],"default_left":[1,1,0,1,0,1,0,1,0,0,0],"id":61,"left_children":[1,3,-1,5,-1,7,-1,9,-1,-1,-1],"loss_changes":[5.7315004E-1,4.8001462E-1,0E0,4.562958E-1,0E0,4.610845E-1,0E0,5.626236E-1,0E0,0E0,0E0],"parents":[2147483647,0,0,1,1,3,3,5,5,7,7],"right_children":[2,4,-1,6,-1,8,-1,10,-1,-1,-1],"split_conditions":[1.8857121E-1,2.5938997E-1,1.9995209E-2,3.00288E-1,-1.2098563E-2,2.1844979E-1,-2.733409E-2,1.8585126E-1,-2.298896E-2,2.986768E-4,1.807516E-2],"split_indices":[788,171,0,4563,0,674,0,4550,0,0,0],"split_type":[0,0,0,0,0,0,0,0,0,0,0],"sum_hessian":[2.044E3,2.026E3,1.8E1,1.985E3,4.1E1,1.978E3,7E0,1.968E3,1E1,1.945E3,2.3E1],"tree_param":{"num_deleted":"0","num_feature":"5000","num_nodes":"11","size_leaf_vector":"1"}},{"base_weights":[-0E0,-1.4132832E-3,2.4423389E-2,-0E0,-1.9849038E-2,1.9340069E-3,-1.4885077E-2,3.7860665E-3,-1.9463697E-2,5.9897936E-4,-2.5627518E-2],"categories":[],"categories_nodes":[],"categories_segments":[],"categories_sizes":[],"default_left":[1,1,0,1,0,1,0,1,0,0,0],"id":62,"left_children":[1,3,-1,5,-1,7,-1,9,-1,-1,-1],"loss_changes":[5.875125E-1,5.3399104E-1,0E0,4.8170316E-1,0E0,4.7942162E-1,0E0,4.6510276E-1,0E0,0E0,0E0],"parents":[2147483647,0,0,1,1,3,3,5,5,7,7],"right_children":[2,4,-1,6,-1,8,-1,10,-1,-1,-1],"split_conditions":[3.5451066E-1,3.727627E-1,2.4423389E-2,2.4467091E-1,-1.9849038E-2,1.717154E-1,-1.4885077E-2,7.7511525E-1,-1.9463697E-2,5.9897936E-4,-2.5627518E-2],"split_indices":[4565,2808,0,4054,0,677,0,4838,0,0,0],"split_type":[0,0,0,0,0,0,0,0,0,0,0],"sum_hessian":[2.038E3,2.026E3,1.2E1,2.009E3,1.7E1,1.982E3,2.7E1,1.967E3,1.5E1,1.959E3,8E0],"tree_param":{"num_deleted":"0","num_feature":"5000","num_nodes":"11","size_leaf_vector":"1"}},{"base_weights":[-5.3913995E-5,1.5337108E-2,-2.4960206E-3,3.507281E-2,-3.8276033E-3,-5.52267E-3,2.3661746E-2,-3.544787E-3,-1.9923268E-2,-2.0375404E-4,-2.3103267E-2],"categories":[],"categories_nodes":[],"categories_segments":[],"categories_sizes":[],"default_left":[0,0,0,0,1,1,0,1,0,0,0],"id":63,"left_children":[1,-1,3,-1,5,7,-1,9,-1,-1,-1],"loss_changes":[5.525857E-1,0E0,5.528585E-1,0E0,5.3589416E-1,5.058696E-1,0E0,5.03457E-1,0E0,0E0,0E0],"parents":[2147483647,0,0,2,2,4,4,5,5,7,7],"right_children":[2,-1,4,-1,6,8,-1,10,-1,-1,-1],"split_conditions":[1.2833349E0,1.5337108E-2,1.7890912E0,3.507281E-2,3.5451066E-1,2.5200504E-1,2.3661746E-2,3.6120754E-1,-1.9923268E-2,-2.0375404E-4,-2.3103267E-2],"split_indices":[4610,0,4549,0,4565,4962,0,158,0,0,0],"split_type":[0,0,0,0,0,0,0,0,0,0,0],"sum_hessian":[2.051E3,2.9E1,2.022E3,5E0,2.017E3,2.006E3,1.1E1,1.989E3,1.7E1,1.977E3,1.2E1],"tree_param":{"num_deleted":"0","num_feature":"5000","num_nodes":"11","size_leaf_vector":"1"}},{"base_weights":[3.6759372E-3,5.5570034E-3,-2.5297333E-2,1.4829365E-2,2.7703668E-3,8.503517E-4,2.3978807E-2,2.4135571E-2,-3.5831938E-5,9.100413E-5,-2.3091014E-2],"categories":[],"categories_nodes":[],"categories_segments":[],"categories_sizes":[],"default_left":[1,0,0,0,1,0,0,0,1,0,0],"id":64,"left_children":[1,3,-1,-1,5,7,-1,-1,9,-1,-1],"loss_changes":[6.6083E-1,5.77055E-1,0E0,0E0,5.9319806E-1,5.683736E-1,0E0,0E0,5.227863E-1,0E0,0E0],"parents":[2147483647,0,0,1,1,4,4,5,5,8,8],"right_children":[2,4,-1,-1,6,8,-1,-1,10,-1,-1],"split_conditions":[3.8608E-1,1.289178E0,-2.5297333E-2,1.4829365E-2,3.2101604E-1,1.1205319E0,2.3978807E-2,2.4135571E-2,5.1356804E-1,9.100413E-5,-2.3091014E-2],"split_indices":[140,3205,0,0,3027,1392,0,0,2016,0,0],"split_type":[0,0,0,0,0,0,0,0,0,0,0],"sum_hessian":[2.028E3,2.016E3,1.2E1,3.6E1,1.98E3,1.967E3,1.3E1,1.2E1,1.955E3,1.943E3,1.2E1],"tree_param":{"num_deleted":"0","num_feature":"5000","num_nodes":"11","size_leaf_vector":"1"}},{"base_weights":[-0E0,2.0726717E-3,-1.4688693E-2,3.7892328E-3,-2.0373048E-2,5.774242E-3,-1.6749948E-2,8.265049E-3,-1.2070801E-2,1.1277004E-3,-2.1163736E-2],"categories":[],"categories_nodes":[],"categories_segments":[],"categories_sizes":[],"default_left":[1,1,0,1,0,1,0,1,0,0,0],"id":65,"left_children":[1,3,-1,5,-1,7,-1,9,-1,-1,-1],"loss_changes":[4.537202E-1,4.5808005E-1,0E0,4.6369037E-1,0E0,4.5738864E-1,0E0,4.6076897E-1,0E0,0E0,0E0],"parents":[2147483647,0,0,1,1,3,3,5,5,7,7],"right_children":[2,4,-1,6,-1,8,-1,10,-1,-1,-1],"split_conditions":[1.955673E-1,2.6008064E-1,-1.4688693E-2,1.9626045E-1,-2.0373048E-2,1.7085743E-1,-1.6749948E-2,3.6120754E-1,-1.2070801E-2,1.1277004E-3,-2.1163736E-2],"split_indices":[140,1862,0,4462,0,3162,0,158,0,0,0],"split_type":[0,0,0,0,0,0,0,0,0,0,0],"sum_hessian":[2.024E3,1.998E3,2.6E1,1.985E3,1.3E1,1.966E3,1.9E1,1.932E3,3.4E1,1.921E3,1.1E1],"tree_param":{"num_deleted":"0","num_feature":"5000","num_nodes":"11","size_leaf_vector":"1"}},{"base_weights":[-0E0,-1.74937E-2,2.109785E-3,3.9566057E-3,-1.8581077E-2,1.119816E-2,1.1655478E-3,4.5006443E-2,-4.1054557E-3,1.0692216E-3,1.630747E-2,-7.9550984E-4,1.7937332E-2],"categories":[],"categories_nodes":[],"categories_segments":[],"categories_sizes":[],"default_left":[0,0,1,0,0,0,0,0,1,0,0,0,0],"id":66,"left_children":[1,-1,3,5,-1,-1,7,9,11,-1,-1,-1,-1],"loss_changes":[5.454762E-1,0E0,4.6705803E-1,4.341585E-1,0E0,0E0,4.8949105E-1,6.5757626E-1,6.682394E-1,0E0,0E0,0E0,0E0],"parents":[2147483647,0,0,2,2,3,3,6,6,7,7,8,8],"right_children":[2,-1,4,6,-1,-1,8,10,12,-1,-1,-1,-1],"split_conditions":[1.5487303E0,-1.74937E-2,2.0188826E-1,8.8377905E-1,-1.8581077E-2,1.119816E-2,3.0555978E-1,2.0380327E-1,1.4924186E-1,1.0692216E-3,1.630747E-2,-7.9550984E-4,1.7937332E-2],"split_indices":[3869,0,4658,3239,0,0,2016,2016,4550,0,0,0,0],"split_type":[0,0,0,0,0,0,0,0,0,0,0,0,0],"sum_hessian":[2.036E3,2.2E1,2.014E3,1.998E3,1.6E1,4.7E1,1.951E3,2.28E2,1.723E3,1.75E2,5.3E1,1.699E3,2.4E1],"tree_param":{"num_deleted":"0","num_feature":"5000","num_nodes":"13","size_leaf_vector":"1"}},{"base_weights":[1.3275276E-3,-0E0,1.6172562E-2,-2.4642893E-3,1.3240497E-2,-4.4731773E-3,1.7400155E-2,1.1674788E-2,-7.0227E-3,-1.0050259E-3,1.8081583E-2],"categories":[],"categories_nodes":[],"categories_segments":[],"categories_sizes":[],"default_left":[1,1,0,1,0,0,0,0,1,0,0],"id":67,"left_children":[1,3,-1,5,-1,7,-1,-1,9,-1,-1],"loss_changes":[5.1570445E-1,4.825572E-1,0E0,4.8796615E-1,0E0,4.537997E-1,0E0,0E0,4.5109943E-1,0E0,0E0],"parents":[2147483647,0,0,1,1,3,3,5,5,8,8],"right_children":[2,4,-1,6,-1,8,-1,-1,10,-1,-1],"split_conditions":[2.7428854E-1,1.3696918E-1,1.6172562E-2,3.1364998E-1,1.3240497E-2,1.289178E0,1.7400155E-2,1.1674788E-2,2.911422E-1,-1.0050259E-3,1.8081583E-2],"split_indices":[4790,4721,0,4584,0,3205,0,0,4120,0,0],"split_type":[0,0,0,0,0,0,0,0,0,0,0],"sum_hessian":[2.064E3,2.039E3,2.5E1,2.005E3,3.4E1,1.986E3,1.9E1,3.7E1,1.949E3,1.934E3,1.5E1],"tree_param":{"num_deleted":"0","num_feature":"5000","num_nodes":"11","size_leaf_vector":"1"}},{"base_weights":[-4.0225796E-3,-2.072932E-3,-2.3646276E-2,-2.7825473E-2,-5.6029257E-4,1.5861545E-4,-2.3249434E-2,1.974035E-2,-6.493269E-4,4.1423416E-5,-2.1388333E-2],"categories":[],"categories_nodes":[],"categories_segments":[],"categories_sizes":[],"default_left":[1,0,0,0,1,0,0,0,1,0,0],"id":68,"left_children":[1,3,-1,-1,5,7,-1,-1,9,-1,-1],"loss_changes":[6.094347E-1,5.0929695E-1,0E0,0E0,4.8625195E-1,4.4234872E-1,0E0,0E0,5.5324614E-1,0E0,0E0],"parents":[2147483647,0,0,1,1,4,4,5,5,8,8],"right_children":[2,4,-1,-1,6,8,-1,-1,10,-1,-1],"split_conditions":[4.1387188E-1,5.957076E-1,-2.3646276E-2,-2.7825473E-2,2.6524585E-1,8.8891333E-1,-2.3249434E-2,1.974035E-2,2.0610976E-1,4.1423416E-5,-2.1388333E-2],"split_indices":[646,4657,0,0,831,1595,0,0,3510,0,0],"split_type":[0,0,0,0,0,0,0,0,0,0,0],"sum_hessian":[2.027E3,2.013E3,1.4E1,8E0,2.005E3,1.994E3,1.1E1,1.4E1,1.98E3,1.965E3,1.5E1],"tree_param":{"num_deleted":"0","num_feature":"5000","num_nodes":"11","size_leaf_vector":"1"}},{"base_weights":[-2.1690712E-3,-4.861765E-3,1.45217525E-2,-6.662312E-3,1.889175E-2,-8.925359E-3,1.3288265E-2,-1.1715167E-2,1.0604219E-2,-1.7398176E-3,8.548512E-3],"categories":[],"categories_nodes":[],"categories_segments":[],"categories_sizes":[],"default_left":[1,1,0,1,0,1,0,1,0,0,0],"id":69,"left_children":[1,3,-1,5,-1,7,-1,9,-1,-1,-1],"loss_changes":[6.0389256E-1,4.7331548E-1,0E0,4.601544E-1,0E0,4.8806438E-1,0E0,5.5003643E-1,0E0,0E0,0E0],"parents":[2147483647,0,0,1,1,3,3,5,5,7,7],"right_children":[2,4,-1,6,-1,8,-1,10,-1,-1,-1],"split_conditions":[1.1983032E-1,2.6690033E-1,1.45217525E-2,1.6668944E-1,1.889175E-2,1.1273801E-1,1.3288265E-2,1.7836094E-1,1.0604219E-2,-1.7398176E-3,8.548512E-3],"split_indices":[2554,3319,0,2023,0,4584,0,1459,0,0,0],"split_type":[0,0,0,0,0,0,0,0,0,0,0],"sum_hessian":[2.053E3,2.019E3,3.4E1,2.004E3,1.5E1,1.976E3,2.8E1,1.933E3,4.3E1,1.867E3,6.6E1],"tree_param":{"num_deleted":"0","num_feature":"5000","num_nodes":"11","size_leaf_vector":"1"}},{"base_weights":[-0E0,1.1036986E-3,-2.0521957E-2,-0E0,3.5226163E-2],"categories":[],"categories_nodes":[],"categories_segments":[],"categories_sizes":[],"default_left":[1,1,0,0,0],"id":70,"left_children":[1,3,-1,-1,-1],"loss_changes":[5.1233506E-1,4.4195697E-1,0E0,0E0,0E0],"parents":[2147483647,0,0,1,1],"right_children":[2,4,-1,-1,-1],"split_conditions":[4.4766173E-1,4.0514943E-1,-2.0521957E-2,-0E0,3.5226163E-2],"split_indices":[4948,4549,0,0,0],"split_type":[0,0,0,0,0],"sum_hessian":[2.045E3,2.03E3,1.5E1,2.026E3,4E0],"tree_param":{"num_deleted":"0","num_feature":"5000","num_nodes":"5","size_leaf_vector":"1"}},{"base_weights":[-0E0,-1.8507313E-3,1.368954E-2,-5.4751746E-3,8.645083E-3,2.163059E-2,-7.2737266E-3,-9.173684E-3,1.9677123E-2,-1.2686342E-3,1.5929881E-2],"categories":[],"categories_nodes":[],"categories_segments":[],"categories_sizes":[],"default_left":[1,1,0,0,0,0,1,1,0,0,0],"id":71,"left_children":[1,3,-1,5,-1,-1,7,9,-1,-1,-1],"loss_changes":[4.8056775E-1,4.941588E-1,0E0,5.0073934E-1,0E0,0E0,4.9676722E-1,4.4026655E-1,0E0,0E0,0E0],"parents":[2147483647,0,0,1,1,3,3,6,6,7,7],"right_children":[2,4,-1,6,-1,-1,8,10,-1,-1,-1],"split_conditions":[2.341645E-1,8.3053865E-2,1.368954E-2,1.1019264E0,8.645083E-3,2.163059E-2,3.3665425E-1,2.3310481E-1,1.9677123E-2,-1.2686342E-3,1.5929881E-2],"split_indices":[4856,1326,0,3005,0,0,4509,4666,0,0,0],"split_type":[0,0,0,0,0,0,0,0,0,0,0],"sum_hessian":[2.014E3,1.982E3,3.2E1,1.906E3,7.6E1,1.2E1,1.894E3,1.88E3,1.4E1,1.862E3,1.8E1],"tree_param":{"num_deleted":"0","num_feature":"5000","num_nodes":"11","size_leaf_vector":"1"}},{"base_weights":[-0E0],"categories":[],"categories_nodes":[],"categories_segments":[],"categories_sizes":[],"default_left":[0],"id":72,"left_children":[-1],"loss_changes":[0E0],"parents":[2147483647],"right_children":[-1],"split_conditions":[-0E0],"split_indices":[0],"split_type":[0],"sum_hessian":[2.053E3],"tree_param":{"num_deleted":"0","num_feature":"5000","num_nodes":"1","size_leaf_vector":"1"}},{"base_weights":[-2.779719E-3,-5.9565003E-3,1.1162284E-2,-1.2795885E-2,3.403755E-2,3.0952743E-3,-2.2653842E-2,6.740489E-3,-3.739293E-3,5.3210896E-2,-3.1087518E-2,-0E0,1.3584802E-2,1.6801758E-2,-4.0556164E-3],"categories":[],"categories_nodes":[],"categories_segments":[],"categories_sizes":[],"default_left":[1,1,0,0,1,0,0,0,0,0,0,0,0,0,0],"id":73,"left_children":[1,3,-1,5,7,-1,9,-1,-1,11,13,-1,-1,-1,-1],"loss_changes":[5.6234807E-1,5.188221E-1,0E0,6.677995E-1,4.793741E-1,0E0,8.6617225E-1,0E0,0E0,5.056658E-1,9.3695116E-1,0E0,0E0,0E0,0E0],"parents":[2147483647,0,0,1,1,3,3,4,4,6,6,9,9,10,10],"right_children":[2,4,-1,6,8,-1,10,-1,-1,12,14,-1,-1,-1,-1],"split_conditions":[8.575461E-2,6.471673E-2,1.1162284E-2,3.35267E-1,3.932127E-2,3.0952743E-3,3.1002507E-1,6.740489E-3,-3.739293E-3,2.2107893E-1,5.4138845E-1,-0E0,1.3584802E-2,1.6801758E-2,-4.0556164E-3],"split_indices":[4856,400,0,324,324,0,4979,0,0,4979,4062,0,0,0,0],"split_type":[0,0,0,0,0,0,0,0,0,0,0,0,0,0,0],"sum_hessian":[2.02E3,1.968E3,5.2E1,1.701E3,2.67E2,3.17E2,1.384E3,2.04E2,6.3E1,1.27E2,1.257E3,6.7E1,6E1,2.6E1,1.231E3],"tree_param":{"num_deleted":"0","num_feature":"5000","num_nodes":"15","size_leaf_vector":"1"}},{"base_weights":[1.1017573E-3,1.3250863E-2,-6.6014903E-4,-2.793979E-2,-0E0],"categories":[],"categories_nodes":[],"categories_segments":[],"categories_sizes":[],"default_left":[0,0,0,0,0],"id":74,"left_children":[1,-1,3,-1,-1],"loss_changes":[5.23942E-1,0E0,4.602099E-1,0E0,0E0],"parents":[2147483647,0,0,2,2],"right_children":[2,-1,4,-1,-1],"split_conditions":[7.217816E-1,1.3250863E-2,5.957076E-1,-2.793979E-2,-0E0],"split_indices":[812,0,4657,0,0],"split_type":[0,0,0,0,0],"sum_hessian":[2.038E3,3.8E1,2E3,7E0,1.993E3],"tree_param":{"num_deleted":"0","num_feature":"5000","num_nodes":"5","size_leaf_vector":"1"}},{"base_weights":[-5.976169E-4,-2.3013414E-3,2.1116039E-2,1.1273542E-2,-5.427862E-4],"categories":[],"categories_nodes":[],"categories_segments":[],"categories_sizes":[],"default_left":[1,0,0,0,0],"id":75,"left_children":[1,3,-1,-1,-1],"loss_changes":[4.8077616E-1,4.2516267E-1,0E0,0E0,0E0],"parents":[2147483647,0,0,1,1],"right_children":[2,4,-1,-1,-1],"split_conditions":[3.2101604E-1,7.217816E-1,2.1116039E-2,1.1273542E-2,-5.427862E-4],"split_indices":[3027,812,0,0,0],"split_type":[0,0,0,0,0],"sum_hessian":[2.054E3,2.041E3,1.3E1,3.9E1,2.002E3],"tree_param":{"num_deleted":"0","num_feature":"5000","num_nodes":"5","size_leaf_vector":"1"}},{"base_weights":[-0E0,2.1268383E-3,-1.2987812E-2,4.1363222E-4,-2.2382991E-2],"categories":[],"categories_nodes":[],"categories_segments":[],"categories_sizes":[],"default_left":[1,1,0,0,0],"id":76,"left_children":[1,3,-1,-1,-1],"loss_changes":[4.225401E-1,4.2995822E-1,0E0,0E0,0E0],"parents":[2147483647,0,0,1,1],"right_children":[2,4,-1,-1,-1],"split_conditions":[2.9744616E-1,1.9674514E-1,-1.2987812E-2,4.1363222E-4,-2.2382991E-2],"split_indices":[1043,674,0,0,0],"split_type":[0,0,0,0,0],"sum_hessian":[2.056E3,2.025E3,3.1E1,2.015E3,1E1],"tree_param":{"num_deleted":"0","num_feature":"5000","num_nodes":"5","size_leaf_vector":"1"}},{"base_weights":[-4.0450177E-4],"categories":[],"categories_nodes":[],"categories_segments":[],"categories_sizes":[],"default_left":[0],"id":77,"left_children":[-1],"loss_changes":[0E0],"parents":[2147483647],"right_children":[-1],"split_conditions":[-4.59488E-5],"split_indices":[0],"split_type":[0],"sum_hessian":[2.058E3],"tree_param":{"num_deleted":"0","num_feature":"5000","num_nodes":"1","size_leaf_vector":"1"}},{"base_weights":[2.4288672E-3,4.798194E-4,-1.831867E-2],"categories":[],"categories_nodes":[],"categories_segments":[],"categories_sizes":[],"default_left":[1,0,0],"id":78,"left_children":[1,-1,-1],"loss_changes":[4.5650533E-1,0E0,0E0],"parents":[2147483647,0,0],"right_children":[2,-1,-1],"split_conditions":[3.5059837E-1,4.798194E-4,-1.831867E-2],"split_indices":[2651,0,0],"split_type":[0,0,0],"sum_hessian":[2.053E3,2.037E3,1.6E1],"tree_param":{"num_deleted":"0","num_feature":"5000","num_nodes":"3","size_leaf_vector":"1"}},{"base_weights":[6.519242E-4,9.816317E-3,-1.56515E-3,1.4537397E-2,-3.6961976E-3,2.0096825E-2,-6.096654E-4],"categories":[],"categories_nodes":[],"categories_segments":[],"categories_sizes":[],"default_left":[0,0,0,0,0,0,0],"id":79,"left_children":[1,-1,3,-1,5,-1,-1],"loss_changes":[4.641174E-1,0E0,4.2491004E-1,0E0,4.2403686E-1,0E0,0E0],"parents":[2147483647,0,0,2,2,4,4],"right_children":[2,-1,4,-1,6,-1,-1],"split_conditions":[5.0202274E-1,9.816317E-3,1.1826564E0,1.4537397E-2,8.8891333E-1,2.0096825E-2,-6.096654E-4],"split_indices":[4646,0,4732,0,1595,0,0],"split_type":[0,0,0,0,0,0,0],"sum_hessian":[2.021E3,6.1E1,1.96E3,2.4E1,1.936E3,1.2E1,1.924E3],"tree_param":{"num_deleted":"0","num_feature":"5000","num_nodes":"7","size_leaf_vector":"1"}},{"base_weights":[-2.1753332E-3],"categories":[],"categories_nodes":[],"categories_segments":[],"categories_sizes":[],"default_left":[0],"id":80,"left_children":[-1],"loss_changes":[0E0],"parents":[2147483647],"right_children":[-1],"split_conditions":[-2.4710386E-4],"split_indices":[0],"split_type":[0],"sum_hessian":[2.02E3],"tree_param":{"num_deleted":"0","num_feature":"5000","num_nodes":"1","size_leaf_vector":"1"}},{"base_weights":[-0E0,-1.9580277E-2,9.943767E-4,3.1034235E-4,-1.8485414E-2],"categories":[],"categories_nodes":[],"categories_segments":[],"categories_sizes":[],"default_left":[0,0,1,0,0],"id":81,"left_children":[1,-1,3,-1,-1],"loss_changes":[4.3643546E-1,0E0,4.2669904E-1,0E0,0E0],"parents":[2147483647,0,0,2,2],"right_children":[2,-1,4,-1,-1],"split_conditions":[2.00001E0,-1.9580277E-2,2.0610976E-1,3.1034235E-4,-1.8485414E-2],"split_indices":[809,0,3510,0,0],"split_type":[0,0,0,0,0],"sum_hessian":[2.04E3,1.4E1,2.026E3,2.011E3,1.5E1],"tree_param":{"num_deleted":"0","num_feature":"5000","num_nodes":"5","size_leaf_vector":"1"}},{"base_weights":[-1.3576463E-3,-0E0,-2.1019218E-2],"categories":[],"categories_nodes":[],"categories_segments":[],"categories_sizes":[],"default_left":[1,0,0],"id":82,"left_children":[1,-1,-1],"loss_changes":[4.2835683E-1,0E0,0E0],"parents":[2147483647,0,0],"right_children":[2,-1,-1],"split_conditions":[4.5020458E-1,-0E0,-2.1019218E-2],"split_indices":[2016,0,0],"split_type":[0,0,0],"sum_hessian":[2.058E3,2.046E3,1.2E1],"tree_param":{"num_deleted":"0","num_feature":"5000","num_nodes":"3","size_leaf_vector":"1"}},{"base_weights":[2.8832592E-3,5.166068E-4,-2.0049313E-2],"categories":[],"categories_nodes":[],"categories_segments":[],"categories_sizes":[],"default_left":[1,0,0],"id":83,"left_children":[1,-1,-1],"loss_changes":[4.4935197E-1,0E0,0E0],"parents":[2147483647,0,0],"right_children":[2,-1,-1],"split_conditions":[3.8608E-1,5.166068E-4,-2.0049313E-2],"split_indices":[140,0,0],"split_type":[0,0,0],"sum_hessian":[2.043E3,2.03E3,1.3E1],"tree_param":{"num_deleted":"0","num_feature":"5000","num_nodes":"3","size_leaf_vector":"1"}},{"base_weights":[3.5493635E-4,-2.4064375E-2,2.0531136E-4],"categories":[],"categories_nodes":[],"categories_segments":[],"categories_sizes":[],"default_left":[0,0,0],"id":84,"left_children":[1,-1,-1],"loss_changes":[4.3824333E-1,0E0,0E0],"parents":[2147483647,0,0],"right_children":[2,-1,-1],"split_conditions":[1.2054096E0,-2.4064375E-2,2.0531136E-4],"split_indices":[4657,0,0],"split_type":[0,0,0],"sum_hessian":[2.06E3,9E0,2.051E3],"tree_param":{"num_deleted":"0","num_feature":"5000","num_nodes":"3","size_leaf_vector":"1"}},{"base_weights":[-1.283679E-3,-2.5372058E-3,3.2139596E-2,-4.1749286E-3,2.0915285E-2,1.24985725E-2,-6.471922E-3,-8.46182E-3,1.5597503E-2,-1.6818474E-3,3.0760462E-3],"categories":[],"categories_nodes":[],"categories_segments":[],"categories_sizes":[],"default_left":[1,1,0,0,0,0,1,1,0,0,0],"id":85,"left_children":[1,3,-1,5,-1,-1,7,9,-1,-1,-1],"loss_changes":[4.596909E-1,4.4991285E-1,0E0,4.306935E-1,0E0,0E0,4.4619215E-1,4.305743E-1,0E0,0E0,0E0],"parents":[2147483647,0,0,1,1,3,3,6,6,7,7],"right_children":[2,4,-1,6,-1,-1,8,10,-1,-1,-1],"split_conditions":[3.2893807E-1,2.5672215E-1,3.2139596E-2,3.074833E-1,2.0915285E-2,1.24985725E-2,3.1364998E-1,1.1450504E-1,1.5597503E-2,-1.6818474E-3,3.0760462E-3],"split_indices":[1640,2260,0,1062,0,0,4584,324,0,0,0],"split_type":[0,0,0,0,0,0,0,0,0,0,0],"sum_hessian":[2.027E3,2.022E3,5E0,2.01E3,1.2E1,3.1E1,1.979E3,1.959E3,2E1,1.685E3,2.74E2],"tree_param":{"num_deleted":"0","num_feature":"5000","num_nodes":"11","size_leaf_vector":"1"}},{"base_weights":[1.8810925E-4],"categories":[],"categories_nodes":[],"categories_segments":[],"categories_sizes":[],"default_left":[0],"id":86,"left_children":[-1],"loss_changes":[0E0],"parents":[2147483647],"right_children":[-1],"split_conditions":[2.1368001E-5],"split_indices":[0],"split_type":[0],"sum_hessian":[2.055E3],"tree_param":{"num_deleted":"0","num_feature":"5000","num_nodes":"1","size_leaf_vector":"1"}},{"base_weights":[1.3945398E-3],"categories":[],"categories_nodes":[],"categories_segments":[],"categories_sizes":[],"default_left":[0],"id":87,"left_children":[-1],"loss_changes":[0E0],"parents":[2147483647],"right_children":[-1],"split_conditions":[1.5841077E-4],"split_indices":[0],"split_type":[0],"sum_hessian":[2.017E3],"tree_param":{"num_deleted":"0","num_feature":"5000","num_nodes":"1","size_leaf_vector":"1"}},{"base_weights":[2.7620207E-4,2.4900708E-4,-1.7025966E-2],"categories":[],"categories_nodes":[],"categories_segments":[],"categories_sizes":[],"default_left":[1,0,0],"id":88,"left_children":[1,-1,-1],"loss_changes":[4.503932E-1,0E0,0E0],"parents":[2147483647,0,0],"right_children":[2,-1,-1],"split_conditions":[1.9626045E-1,2.4900708E-4,-1.7025966E-2],"split_indices":[4462,0,0],"split_type":[0,0,0],"sum_hessian":[2.046E3,2.027E3,1.9E1],"tree_param":{"num_deleted":"0","num_feature":"5000","num_nodes":"3","size_leaf_vector":"1"}},{"base_weights":[-4.2163202E-4,-2.5741395E-4,1.640651E-2],"categories":[],"categories_nodes":[],"categories_segments":[],"categories_sizes":[],"default_left":[1,0,0],"id":89,"left_children":[1,-1,-1],"loss_changes":[4.1947144E-1,0E0,0E0],"parents":[2147483647,0,0],"right_children":[2,-1,-1],"split_conditions":[1.8857121E-1,-2.5741395E-4,1.640651E-2],"split_indices":[788,0,0],"split_type":[0,0,0],"sum_hessian":[2.068E3,2.049E3,1.9E1],"tree_param":{"num_deleted":"0","num_feature":"5000","num_nodes":"3","size_leaf_vector":"1"}},{"base_weights":[2.211173E-3],"categories":[],"categories_nodes":[],"categories_segments":[],"categories_sizes":[],"default_left":[0],"id":90,"left_children":[-1],"loss_changes":[0E0],"parents":[2147483647],"right_children":[-1],"split_conditions":[2.5117505E-4],"split_indices":[0],"split_type":[0],"sum_hessian":[2.058E3],"tree_param":{"num_deleted":"0","num_feature":"5000","num_nodes":"1","size_leaf_vector":"1"}},{"base_weights":[-6.6557305E-4,8.791197E-6,-2.0331051E-2],"categories":[],"categories_nodes":[],"categories_segments":[],"categories_sizes":[],"default_left":[1,0,0],"id":91,"left_children":[1,-1,-1],"loss_changes":[4.3546873E-1,0E0,0E0],"parents":[2147483647,0,0],"right_children":[2,-1,-1],"split_conditions":[2.6008064E-1,8.791197E-6,-2.0331051E-2],"split_indices":[1862,0,0],"split_type":[0,0,0],"sum_hessian":[2.019E3,2.006E3,1.3E1],"tree_param":{"num_deleted":"0","num_feature":"5000","num_nodes":"3","size_leaf_vector":"1"}},{"base_weights":[5.7804394E-3],"categories":[],"categories_nodes":[],"categories_segments":[],"categories_sizes":[],"default_left":[0],"id":92,"left_children":[-1],"loss_changes":[0E0],"parents":[2147483647],"right_children":[-1],"split_conditions":[6.566208E-4],"split_indices":[0],"split_type":[0],"sum_hessian":[2.036E3],"tree_param":{"num_deleted":"0","num_feature":"5000","num_nodes":"1","size_leaf_vector":"1"}},{"base_weights":[-3.0650382E-3],"categories":[],"categories_nodes":[],"categories_segments":[],"categories_sizes":[],"default_left":[0],"id":93,"left_children":[-1],"loss_changes":[0E0],"parents":[2147483647],"right_children":[-1],"split_conditions":[-3.4816863E-4],"split_indices":[0],"split_type":[0],"sum_hessian":[2.036E3],"tree_param":{"num_deleted":"0","num_feature":"5000","num_nodes":"1","size_leaf_vector":"1"}},{"base_weights":[-3.0448746E-3,-5.1913895E-3,1.5313905E-2,-7.878259E-3,1.0278574E-2,-7.164449E-4,-2.3784082E-2],"categories":[],"categories_nodes":[],"categories_segments":[],"categories_sizes":[],"default_left":[1,1,0,1,0,0,0],"id":94,"left_children":[1,3,-1,5,-1,-1,-1],"loss_changes":[4.829325E-1,4.415905E-1,0E0,4.212771E-1,0E0,0E0,0E0],"parents":[2147483647,0,0,1,1,3,3],"right_children":[2,4,-1,6,-1,-1,-1],"split_conditions":[1.8585126E-1,9.3024194E-2,1.5313905E-2,5.1356804E-1,1.0278574E-2,-7.164449E-4,-2.3784082E-2],"split_indices":[4550,4856,0,2016,0,0,0],"split_type":[0,0,0,0,0,0,0],"sum_hessian":[2.041E3,2.017E3,2.4E1,1.972E3,4.5E1,1.962E3,1E1],"tree_param":{"num_deleted":"0","num_feature":"5000","num_nodes":"7","size_leaf_vector":"1"}},{"base_weights":[2.3307612E-4],"categories":[],"categories_nodes":[],"categories_segments":[],"categories_sizes":[],"default_left":[0],"id":95,"left_children":[-1],"loss_changes":[0E0],"parents":[2147483647],"right_children":[-1],"split_conditions":[2.647595E-5],"split_indices":[0],"split_type":[0],"sum_hessian":[2.047E3],"tree_param":{"num_deleted":"0","num_feature":"5000","num_nodes":"1","size_leaf_vector":"1"}},{"base_weights":[-2.1915098E-4],"categories":[],"categories_nodes":[],"categories_segments":[],"categories_sizes":[],"default_left":[0],"id":96,"left_children":[-1],"loss_changes":[0E0],"parents":[2147483647],"right_children":[-1],"split_conditions":[-2.4894143E-5],"split_indices":[0],"split_type":[0],"sum_hessian":[2.035E3],"tree_param":{"num_deleted":"0","num_feature":"5000","num_nodes":"1","size_leaf_vector":"1"}},{"base_weights":[-1.5093895E-3],"categories":[],"categories_nodes":[],"categories_segments":[],"categories_sizes":[],"default_left":[0],"id":97,"left_children":[-1],"loss_changes":[0E0],"parents":[2147483647],"right_children":[-1],"split_conditions":[-1.7145694E-4],"split_indices":[0],"split_type":[0],"sum_hessian":[2.032E3],"tree_param":{"num_deleted":"0","num_feature":"5000","num_nodes":"1","size_leaf_vector":"1"}},{"base_weights":[-7.510383E-4],"categories":[],"categories_nodes":[],"categories_segments":[],"categories_sizes":[],"default_left":[0],"id":98,"left_children":[-1],"loss_changes":[0E0],"parents":[2147483647],"right_children":[-1],"split_conditions":[-8.531312E-5],"split_indices":[0],"split_type":[0],"sum_hessian":[2.031E3],"tree_param":{"num_deleted":"0","num_feature":"5000","num_nodes":"1","size_leaf_vector":"1"}},{"base_weights":[-5.99454E-4,-2.5906906E-4,2.060638E-2],"categories":[],"categories_nodes":[],"categories_segments":[],"categories_sizes":[],"default_left":[1,0,0],"id":99,"left_children":[1,-1,-1],"loss_changes":[4.580872E-1,0E0,0E0],"parents":[2147483647,0,0],"right_children":[2,-1,-1],"split_conditions":[1.5096566E-1,-2.5906906E-4,2.060638E-2],"split_indices":[4821,0,0],"split_type":[0,0,0],"sum_hessian":[2.045E3,2.032E3,1.3E1],"tree_param":{"num_deleted":"0","num_feature":"5000","num_nodes":"3","size_leaf_vector":"1"}},{"base_weights":[-0E0,2.0182272E-4,-1.2140422E-2],"categories":[],"categories_nodes":[],"categories_segments":[],"categories_sizes":[],"default_left":[1,0,0],"id":100,"left_children":[1,-1,-1],"loss_changes":[4.5897263E-1,0E0,0E0],"parents":[2147483647,0,0],"right_children":[2,-1,-1],"split_conditions":[2.605785E-1,2.0182272E-4,-1.2140422E-2],"split_indices":[171,0,0],"split_type":[0,0,0],"sum_hessian":[2.065E3,2.026E3,3.9E1],"tree_param":{"num_deleted":"0","num_feature":"5000","num_nodes":"3","size_leaf_vector":"1"}},{"base_weights":[-1.4288828E-3],"categories":[],"categories_nodes":[],"categories_segments":[],"categories_sizes":[],"default_left":[0],"id":101,"left_children":[-1],"loss_changes":[0E0],"parents":[2147483647],"right_children":[-1],"split_conditions":[-1.623119E-4],"split_indices":[0],"split_type":[0],"sum_hessian":[2.049E3],"tree_param":{"num_deleted":"0","num_feature":"5000","num_nodes":"1","size_leaf_vector":"1"}},{"base_weights":[-0E0,1.489681E-4,-1.701685E-2],"categories":[],"categories_nodes":[],"categories_segments":[],"categories_sizes":[],"default_left":[1,0,0],"id":102,"left_children":[1,-1,-1],"loss_changes":[4.438197E-1,0E0,0E0],"parents":[2147483647,0,0],"right_children":[2,-1,-1],"split_conditions":[3.6499348E-1,1.489681E-4,-1.701685E-2],"split_indices":[646,0,0],"split_type":[0,0,0],"sum_hessian":[2.045E3,2.026E3,1.9E1],"tree_param":{"num_deleted":"0","num_feature":"5000","num_nodes":"3","size_leaf_vector":"1"}},{"base_weights":[8.2450395E-4],"categories":[],"categories_nodes":[],"categories_segments":[],"categories_sizes":[],"default_left":[0],"id":103,"left_children":[-1],"loss_changes":[0E0],"parents":[2147483647],"right_children":[-1],"split_conditions":[9.3658346E-5],"split_indices":[0],"split_type":[0],"sum_hessian":[2.038E3],"tree_param":{"num_deleted":"0","num_feature":"5000","num_nodes":"1","size_leaf_vector":"1"}},{"base_weights":[2.8102826E-3],"categories":[],"categories_nodes":[],"categories_segments":[],"categories_sizes":[],"default_left":[0],"id":104,"left_children":[-1],"loss_changes":[0E0],"parents":[2147483647],"right_children":[-1],"split_conditions":[3.1923005E-4],"split_indices":[0],"split_type":[0],"sum_hessian":[2.05E3],"tree_param":{"num_deleted":"0","num_feature":"5000","num_nodes":"1","size_leaf_vector":"1"}},{"base_weights":[-1.3827676E-3],"categories":[],"categories_nodes":[],"categories_segments":[],"categories_sizes":[],"default_left":[0],"id":105,"left_children":[-1],"loss_changes":[0E0],"parents":[2147483647],"right_children":[-1],"split_conditions":[-1.570735E-4],"split_indices":[0],"split_type":[0],"sum_hessian":[2.016E3],"tree_param":{"num_deleted":"0","num_feature":"5000","num_nodes":"1",