{"learner":{"attributes":{"best_iteration":"503","best_score":"0.19730964723544564"},"feature_names":[],"feature_types":[],"gradient_booster":{"model":{"gbtree_model_param":{"num_parallel_tree":"1","num_trees":"514"},"iteration_indptr":[0,1,2,3,4,5,6,7,8,9,10,11,12,13,14,15,16,17,18,19,20,21,22,23,24,25,26,27,28,29,30,31,32,33,34,35,36,37,38,39,40,41,42,43,44,45,46,47,48,49,50,51,52,53,54,55,56,57,58,59,60,61,62,63,64,65,66,67,68,69,70,71,72,73,74,75,76,77,78,79,80,81,82,83,84,85,86,87,88,89,90,91,92,93,94,95,96,97,98,99,100,101,102,103,104,105,106,107,108,109,110,111,112,113,114,115,116,117,118,119,120,121,122,123,124,125,126,127,128,129,130,131,132,133,134,135,136,137,138,139,140,141,142,143,144,145,146,147,148,149,150,151,152,153,154,155,156,157,158,159,160,161,162,163,164,165,166,167,168,169,170,171,172,173,174,175,176,177,178,179,180,181,182,183,184,185,186,187,188,189,190,191,192,193,194,195,196,197,198,199,200,201,202,203,204,205,206,207,208,209,210,211,212,213,214,215,216,217,218,219,220,221,222,223,224,225,226,227,228,229,230,231,232,233,234,235,236,237,238,239,240,241,242,243,244,245,246,247,248,249,250,251,252,253,254,255,256,257,258,259,260,261,262,263,264,265,266,267,268,269,270,271,272,273,274,275,276,277,278,279,280,281,282,283,284,285,286,287,288,289,290,291,292,293,294,295,296,297,298,299,300,301,302,303,304,305,306,307,308,309,310,311,312,313,314,315,316,317,318,319,320,321,322,323,324,325,326,327,328,329,330,331,332,333,334,335,336,337,338,339,340,341,342,343,344,345,346,347,348,349,350,351,352,353,354,355,356,357,358,359,360,361,362,363,364,365,366,367,368,369,370,371,372,373,374,375,376,377,378,379,380,381,382,383,384,385,386,387,388,389,390,391,392,393,394,395,396,397,398,399,400,401,402,403,404,405,406,407,408,409,410,411,412,413,414,415,416,417,418,419,420,421,422,423,424,425,426,427,428,429,430,431,432,433,434,435,436,437,438,439,440,441,442,443,444,445,446,447,448,449,450,451,452,453,454,455,456,457,458,459,460,461,462,463,464,465,466,467,468,469,470,471,472,473,474,475,476,477,478,479,480,481,482,483,484,485,486,487,488,489,490,491,492,493,494,495,496,497,498,499,500,501,502,503,504,505,506,507,508,509,510,511,512,513,514],"tree_info":[0,0,0,0,0,0,0,0,0,0,0,0,0,0,0,0,0,0,0,0,0,0,0,0,0,0,0,0,0,0,0,0,0,0,0,0,0,0,0,0,0,0,0,0,0,0,0,0,0,0,0,0,0,0,0,0,0,0,0,0,0,0,0,0,0,0,0,0,0,0,0,0,0,0,0,0,0,0,0,0,0,0,0,0,0,0,0,0,0,0,0,0,0,0,0,0,0,0,0,0,0,0,0,0,0,0,0,0,0,0,0,0,0,0,0,0,0,0,0,0,0,0,0,0,0,0,0,0,0,0,0,0,0,0,0,0,0,0,0,0,0,0,0,0,0,0,0,0,0,0,0,0,0,0,0,0,0,0,0,0,0,0,0,0,0,0,0,0,0,0,0,0,0,0,0,0,0,0,0,0,0,0,0,0,0,0,0,0,0,0,0,0,0,0,0,0,0,0,0,0,0,0,0,0,0,0,0,0,0,0,0,0,0,0,0,0,0,0,0,0,0,0,0,0,0,0,0,0,0,0,0,0,0,0,0,0,0,0,0,0,0,0,0,0,0,0,0,0,0,0,0,0,0,0,0,0,0,0,0,0,0,0,0,0,0,0,0,0,0,0,0,0,0,0,0,0,0,0,0,0,0,0,0,0,0,0,0,0,0,0,0,0,0,0,0,0,0,0,0,0,0,0,0,0,0,0,0,0,0,0,0,0,0,0,0,0,0,0,0,0,0,0,0,0,0,0,0,0,0,0,0,0,0,0,0,0,0,0,0,0,0,0,0,0,0,0,0,0,0,0,0,0,0,0,0,0,0,0,0,0,0,0,0,0,0,0,0,0,0,0,0,0,0,0,0,0,0,0,0,0,0,0,0,0,0,0,0,0,0,0,0,0,0,0,0,0,0,0,0,0,0,0,0,0,0,0,0,0,0,0,0,0,0,0,0,0,0,0,0,0,0,0,0,0,0,0,0,0,0,0,0,0,0,0,0,0,0,0,0,0,0,0,0,0,0,0,0,0,0,0,0,0,0,0,0,0,0,0,0,0,0,0,0,0,0,0,0,0,0,0,0,0,0,0,0,0,0,0,0,0,0,0,0,0,0,0,0,0,0,0,0,0,0,0,0,0,0,0,0,0,0,0,0,0,0,0,0,0,0,0,0,0,0,0],"trees":[{"base_weights":[7.977078E-2,2.9327682E-1,-1.9644867E0,1.4034289E-1,1.0230117E-1,2.1000184E-2,-2.063834E0,1.3591337E-1,-1.8390799E-3,-7.075913E-2,-2.2925317E-1],"categories":[],"categories_nodes":[],"categories_segments":[],"categories_sizes":[],"default_left":[1,0,0,0,0,0,0,0,0,0,0],"id":0,"left_children":[1,3,5,-1,7,-1,9,-1,-1,-1,-1],"loss_changes":[1.8316202E2,7.9455956E1,1.1278412E1,0E0,5.143379E1,0E0,5.699417E0,0E0,0E0,0E0,0E0],"parents":[2147483647,0,0,1,1,2,2,4,4,6,6],"right_children":[2,4,6,-1,8,-1,10,-1,-1,-1,-1],"split_conditions":[1.4618003E-1,2.00001E0,3.235825E-1,1.4034289E-1,2.00001E0,2.1000184E-2,1.8614694E-1,1.3591337E-1,-1.8390799E-3,-7.075913E-2,-2.2925317E-1],"split_indices":[4259,3261,2767,0,4519,0,4259,0,0,0,0],"split_type":[0,0,0,0,0,0,0,0,0,0,0],"sum_hessian":[4.1884137E2,3.812275E2,3.7613857E1,5.3323174E1,3.2790433E2,1.1062899E0,3.650757E1,2.7657248E1,3.0024707E2,7.0802555E0,2.9427313E1],"tree_param":{"num_deleted":"0","num_feature":"5000","num_nodes":"11","size_leaf_vector":"1"}},{"base_weights":[4.2929865E-2,1.3704039E0,-3.5519007E-1,1.4207222E0,-7.549578E-2,1.3987574E-1,-6.5314645E-1,1.4307036E-1,-0E0,1.2528017E-1,-8.5385166E-2],"categories":[],"categories_nodes":[],"categories_segments":[],"categories_sizes":[],"default_left":[0,1,0,1,0,0,0,0,0,0,0],"id":1,"left_children":[1,3,5,7,-1,-1,9,-1,-1,-1,-1],"loss_changes":[2.2361984E2,1.3264206E1,1.7020488E2,5.43808E-1,0E0,0E0,1.08267365E2,0E0,0E0,0E0,0E0],"parents":[2147483647,0,0,1,1,2,2,3,3,6,6],"right_children":[2,4,6,8,-1,-1,10,-1,-1,-1,-1],"split_conditions":[1.1982683E0,3.1925392E-1,2.00001E0,1.0652214E-1,-7.549578E-2,1.3987574E-1,2.00001E0,1.4307036E-1,-0E0,1.2528017E-1,-8.5385166E-2],"split_indices":[324,4803,400,433,0,0,3261,0,0,0,0],"split_type":[0,0,0,0,0,0,0,0,0,0,0],"sum_hessian":[4.1736365E2,9.574455E1,3.216191E2,9.463757E1,1.1069791E0,4.514192E1,2.7647717E2,9.355958E1,1.0779936E0,2.486703E1,2.5161015E2],"tree_param":{"num_deleted":"0","num_feature":"5000","num_nodes":"11","size_leaf_vector":"1"}},{"base_weights":[1.2457573E-2,1.3397088E0,-2.0359753E-1,1.3555261E-1,-0E0,1.2041687E0,-4.7912654E-1,1.2671313E-1,-3.9833244E-2,1.3130617E-1,-7.48512E-2],"categories":[],"categories_nodes":[],"categories_segments":[],"categories_sizes":[],"default_left":[0,1,0,0,0,1,0,0,0,0,0],"id":2,"left_children":[1,3,5,-1,-1,7,9,-1,-1,-1,-1],"loss_changes":[1.2079534E2,6.094742E-1,1.3941257E2,0E0,0E0,7.7934875E0,1.4705386E2,0E0,0E0,0E0,0E0],"parents":[2147483647,0,0,1,1,2,2,5,5,6,6],"right_children":[2,4,6,-1,-1,8,10,-1,-1,-1,-1],"split_conditions":[2.00001E0,9.2462346E-2,7.919872E-1,1.3555261E-1,-0E0,1.9049846E-1,1.6013148E0,1.2671313E-1,-3.9833244E-2,1.3130617E-1,-7.48512E-2],"split_indices":[400,425,4979,0,0,4803,295,0,0,0,0],"split_type":[0,0,0,0,0,0,0,0,0,0,0],"sum_hessian":[4.1337857E2,5.706271E1,3.5631586E2,5.602408E1,1.0386318E0,5.6625885E1,2.9968997E2,5.5488323E1,1.1375622E0,3.7662865E1,2.620271E2],"tree_param":{"num_deleted":"0","num_feature":"5000","num_nodes":"11","size_leaf_vector":"1"}},{"base_weights":[3.5443738E-2,2.2609405E-1,-1.4783958E0,1.3349484E-1,7.7504285E-2,4.8910797E-2,-1.6189537E0,1.21850744E-1,-4.4730543E-3,-0E0,-1.6787992E-1],"categories":[],"categories_nodes":[],"categories_segments":[],"categories_sizes":[],"default_left":[1,0,0,0,0,0,0,0,0,0,0],"id":3,"left_children":[1,3,5,-1,7,-1,9,-1,-1,-1,-1],"loss_changes":[1.1687906E2,5.8319984E1,1.5213821E1,0E0,4.6431942E1,0E0,5.3760147E0,0E0,0E0,0E0,0E0],"parents":[2147483647,0,0,1,1,2,2,4,4,6,6],"right_children":[2,4,6,-1,8,-1,10,-1,-1,-1,-1],"split_conditions":[1.11362875E-1,2.00001E0,1.860333E-1,1.3349484E-1,2.00001E0,4.8910797E-2,1.2188585E-1,1.21850744E-1,-4.4730543E-3,-0E0,-1.6787992E-1],"split_indices":[4259,4519,3261,0,3261,0,2016,0,0,0,0],"split_type":[0,0,0,0,0,0,0,0,0,0,0],"sum_hessian":[4.0498944E2,3.6178833E2,4.3201122E1,4.0069637E1,3.217187E2,2.0754406E0,4.112568E1,3.0186459E1,2.9153223E2,1.1123809E0,4.0013298E1],"tree_param":{"num_deleted":"0","num_feature":"5000","num_nodes":"11","size_leaf_vector":"1"}},{"base_weights":[4.2850565E-2,1.2496914E0,-3.0052224E-1,1.2689154E-1,-0E0,1.2542278E0,-5.264487E-1,-0E0,1.2757051E-1,1.2603666E-1,-7.766084E-2],"categories":[],"categories_nodes":[],"categories_segments":[],"categories_sizes":[],"default_left":[0,1,0,0,0,0,0,0,0,0,0],"id":4,"left_children":[1,3,5,-1,-1,7,9,-1,-1,-1,-1],"loss_changes":[1.7421913E2,2.8045197E0,1.1477567E2,0E0,0E0,6.0536194E-1,1.2922067E2,0E0,0E0,0E0,0E0],"parents":[2147483647,0,0,1,1,2,2,5,5,6,6],"right_children":[2,4,6,-1,-1,8,10,-1,-1,-1,-1],"split_conditions":[1.1982683E0,1.4598493E-1,2.00001E0,1.2689154E-1,-0E0,1E0,2.00001E0,-0E0,1.2757051E-1,1.2603666E-1,-7.766084E-2],"split_indices":[324,3121,400,0,0,219,4519,0,0,0,0],"split_type":[0,0,0,0,0,0,0,0,0,0,0],"sum_hessian":[4.1431363E2,9.124638E1,3.2306723E2,9.018422E1,1.0621679E0,3.9273197E1,2.8379404E2,1.0060582E0,3.8267136E1,3.3369774E1,2.5042427E2],"tree_param":{"num_deleted":"0","num_feature":"5000","num_nodes":"11","size_leaf_vector":"1"}},{"base_weights":[7.873643E-3,1.2543695E-1,-1.6748713E-1,1.1181611E0,-4.0391997E-1,1.1812677E-1,-3.623701E-2,1.216866E-1,-6.312546E-2],"categories":[],"categories_nodes":[],"categories_segments":[],"categories_sizes":[],"default_left":[0,0,0,1,0,0,0,0,0],"id":5,"left_children":[1,-1,3,5,7,-1,-1,-1,-1],"loss_changes":[9.1061806E1,0E0,1.0968838E2,6.8913116E0,1.1384744E2,0E0,0E0,0E0,0E0],"parents":[2147483647,0,0,2,2,3,3,4,4],"right_children":[2,-1,4,6,8,-1,-1,-1,-1],"split_conditions":[2.00001E0,1.2543695E-1,7.919872E-1,1.6092837E-1,2.00001E0,1.1812677E-1,-3.623701E-2,1.216866E-1,-6.312546E-2],"split_indices":[400,0,4979,4803,4519,0,0,0,0],"split_type":[0,0,0,0,0,0,0,0,0],"sum_hessian":[4.0769937E2,4.946804E1,3.5823132E2,5.383037E1,3.0440097E2,5.2665253E1,1.1651189E0,3.583198E1,2.6856897E2],"tree_param":{"num_deleted":"0","num_feature":"5000","num_nodes":"9","size_leaf_vector":"1"}},{"base_weights":[6.1385073E-2,1.189919E0,-2.4550937E-1,1.2538604E0,-8.774247E-2,1.18663765E-1,-4.2797762E-1,-0E0,1.2642543E-1,1.1931205E-1,-6.271833E-2],"categories":[],"categories_nodes":[],"categories_segments":[],"categories_sizes":[],"default_left":[0,1,0,0,0,0,0,0,0,0,0],"id":6,"left_children":[1,3,5,7,-1,-1,9,-1,-1,-1,-1],"loss_changes":[1.4257529E2,1.42237015E1,8.4177704E1,4.662323E-1,0E0,0E0,9.359175E1,0E0,0E0,0E0,0E0],"parents":[2147483647,0,0,1,1,2,2,3,3,6,6],"right_children":[2,4,6,8,-1,-1,10,-1,-1,-1,-1],"split_conditions":[1.1982683E0,2.813202E-1,2.00001E0,1.1339061E0,-8.774247E-2,1.18663765E-1,2.00001E0,-0E0,1.2642543E-1,1.1931205E-1,-6.271833E-2],"split_indices":[324,4803,400,428,0,0,4519,0,0,0,0],"split_type":[0,0,0,0,0,0,0,0,0,0,0],"sum_hessian":[4.0524802E2,8.6108315E1,3.191397E2,8.475753E1,1.3507885E0,3.4202896E1,2.849368E2,1.1289635E0,8.362856E1,2.9540785E1,2.5539603E2],"tree_param":{"num_deleted":"0","num_feature":"5000","num_nodes":"11","size_leaf_vector":"1"}},{"base_weights":[1.3609368E-2,1.1188694E0,-2.4979894E-1,1.1406165E0,-0E0,-9.462054E-2,-1.5376477E0,1.1509708E-1,-0E0,1.1177595E-1,-1.9599522E-2,-1.5836792E-1,-0E0],"categories":[],"categories_nodes":[],"categories_segments":[],"categories_sizes":[],"default_left":[0,1,1,1,0,0,1,0,0,0,0,0,0],"id":7,"left_children":[1,3,5,7,-1,9,11,-1,-1,-1,-1,-1,-1],"loss_changes":[1.1650433E2,2.4471588E0,6.2047714E1,4.0400696E-1,0E0,3.4974663E1,1.6947021E0,0E0,0E0,0E0,0E0,0E0,0E0],"parents":[2147483647,0,0,1,1,2,2,3,3,5,5,6,6],"right_children":[2,4,6,8,-1,10,12,-1,-1,-1,-1,-1,-1],"split_conditions":[1.1982683E0,2.183577E-1,1.8614694E-1,2.097908E-1,-0E0,5.2259475E-1,2.5480127E-1,1.1509708E-1,-0E0,1.1177595E-1,-1.9599522E-2,-1.5836792E-1,-0E0],"split_indices":[324,427,4259,2632,0,295,2016,0,0,0,0,0,0],"split_type":[0,0,0,0,0,0,0,0,0,0,0,0,0],"sum_hessian":[3.9326822E2,7.5167366E1,3.1810086E2,7.413382E1,1.0335453E0,2.8650238E2,3.1598463E1,7.307514E1,1.0586786E0,1.9799217E1,2.6670316E2,3.0349401E1,1.2490622E0],"tree_param":{"num_deleted":"0","num_feature":"5000","num_nodes":"13","size_leaf_vector":"1"}},{"base_weights":[2.6950069E-2,1.2128742E-1,-1.08284816E-1,1.0124084E0,-2.9601845E-1,1.0969583E-1,-6.276498E-2,1.2628901E-1,-4.0568024E-2],"categories":[],"categories_nodes":[],"categories_segments":[],"categories_sizes":[],"default_left":[0,0,0,1,0,0,0,0,0],"id":8,"left_children":[1,-1,3,5,7,-1,-1,-1,-1],"loss_changes":[6.519134E1,0E0,7.526706E1,8.931877E0,5.302697E1,0E0,0E0,0E0,0E0],"parents":[2147483647,0,0,2,2,3,3,4,4],"right_children":[2,-1,4,6,8,-1,-1,-1,-1],"split_conditions":[2.00001E0,1.2128742E-1,7.919872E-1,1.6092837E-1,1.0542989E0,1.0969583E-1,-6.276498E-2,1.2628901E-1,-4.0568024E-2],"split_indices":[3261,0,4979,4803,2554,0,0,0,0],"split_type":[0,0,0,0,0,0,0,0,0],"sum_hessian":[3.9595956E2,3.9656296E1,3.5630325E2,4.909771E1,3.0720557E2,4.7900333E1,1.1973774E0,1.8208553E1,2.88997E2],"tree_param":{"num_deleted":"0","num_feature":"5000","num_nodes":"9","size_leaf_vector":"1"}},{"base_weights":[1.6470843E-3,1.1537207E0,-1.4703402E-1,-0E0,1.1724758E-1,1.0516206E0,-3.353341E-1,-2.4038626E-2,1.1231708E-1,1.1671435E-1,-5.0933775E-2],"categories":[],"categories_nodes":[],"categories_segments":[],"categories_sizes":[],"default_left":[0,0,0,0,0,0,0,0,0,0,0],"id":9,"left_children":[1,3,5,-1,-1,7,9,-1,-1,-1,-1],"loss_changes":[6.8194405E1,5.271759E-1,7.8232056E1,0E0,0E0,5.7515793E0,7.9440895E1,0E0,0E0,0E0,0E0],"parents":[2147483647,0,0,1,1,2,2,5,5,6,6],"right_children":[2,4,6,-1,-1,8,10,-1,-1,-1,-1],"split_conditions":[2.00001E0,1.7968926E-1,7.919872E-1,-0E0,1.1724758E-1,2.9841757E-1,1.6013148E0,-2.4038626E-2,1.1231708E-1,1.1671435E-1,-5.0933775E-2],"split_indices":[400,219,4979,0,0,184,295,0,0,0,0],"split_type":[0,0,0,0,0,0,0,0,0,0,0],"sum_hessian":[3.8826117E2,4.360316E1,3.44658E2,1.0637987E0,4.253936E1,4.4826614E1,2.998314E2,1.3711753E0,4.3455437E1,2.9338522E1,2.7049286E2],"tree_param":{"num_deleted":"0","num_feature":"5000","num_nodes":"11","size_leaf_vector":"1"}},{"base_weights":[2.5548492E-2,1.0774597E0,-2.0037174E-1,1.1689566E0,-9.377179E-2,1.1230332E-1,-3.3169755E-1,1.1815377E-1,-0E0,9.61703E-2,-4.4794727E-2],"categories":[],"categories_nodes":[],"categories_segments":[],"categories_sizes":[],"default_left":[0,1,0,1,0,0,0,0,0,0,0],"id":10,"left_children":[1,3,5,7,-1,-1,9,-1,-1,-1,-1],"loss_changes":[9.2449165E1,1.5127617E1,5.4979458E1,5.028229E-1,0E0,0E0,4.3990356E1,0E0,0E0,0E0,0E0],"parents":[2147483647,0,0,1,1,2,2,3,3,6,6],"right_children":[2,4,6,8,-1,-1,10,-1,-1,-1,-1],"split_conditions":[1.1982683E0,2.813202E-1,2.00001E0,1.0652214E-1,-9.377179E-2,1.1230332E-1,1.5637674E0,1.1815377E-1,-0E0,9.61703E-2,-4.4794727E-2],"split_indices":[324,4803,4519,433,0,0,1459,0,0,0,0],"split_type":[0,0,0,0,0,0,0,0,0,0,0],"sum_hessian":[3.815096E2,6.690058E1,3.1460904E2,6.527301E1,1.6275685E0,2.6350498E1,2.8825854E2,6.420815E1,1.0648552E0,2.1862911E1,2.6639563E2],"tree_param":{"num_deleted":"0","num_feature":"5000","num_nodes":"11","size_leaf_vector":"1"}},{"base_weights":[1.8151568E-3,1.11275144E-1,-1.421129E0,1.9262235E-1,-1.5759288E-1,-0E0,-1.474688E-1,1.1073984E-1,6.7865E-3],"categories":[],"categories_nodes":[],"categories_segments":[],"categories_sizes":[],"default_left":[1,1,0,0,0,0,0,0,0],"id":11,"left_children":[1,3,5,7,-1,-1,-1,-1,-1],"loss_changes":[5.8040047E1,4.7871708E1,1.7333565E0,3.7533234E1,0E0,0E0,0E0,0E0,0E0],"parents":[2147483647,0,0,1,1,2,2,3,3],"right_children":[2,4,6,8,-1,-1,-1,-1,-1],"split_conditions":[1.8285619E-1,1.940797E-1,2.455499E-1,2.00001E0,-1.5759288E-1,-0E0,-1.474688E-1,1.1073984E-1,6.7865E-3],"split_indices":[2200,4803,4772,400,0,0,0,0,0],"split_type":[0,0,0,0,0,0,0,0,0],"sum_hessian":[3.7701483E2,3.5244907E2,2.4565779E1,3.3849323E2,1.3955822E1,1.0975808E0,2.3468199E1,3.777102E1,3.007222E2],"tree_param":{"num_deleted":"0","num_feature":"5000","num_nodes":"9","size_leaf_vector":"1"}},{"base_weights":[3.55128E-2,9.992427E-1,-9.540701E-2,1.057529E0,-1.8956883E-2,1.0736856E0,-2.3709531E-1,1.0944702E-1,-0E0,1.0987415E-1,-0E0,1.1221339E-1,-3.7703764E-2],"categories":[],"categories_nodes":[],"categories_segments":[],"categories_sizes":[],"default_left":[0,1,0,1,0,1,0,0,0,0,0,0,0],"id":12,"left_children":[1,3,5,7,-1,9,11,-1,-1,-1,-1,-1,-1],"loss_changes":[4.8557537E1,4.4617653E0,5.46839E1,2.2297554E0,0E0,6.406059E-1,5.6899513E1,0E0,0E0,0E0,0E0,0E0,0E0],"parents":[2147483647,0,0,1,1,2,2,3,3,5,5,6,6],"right_children":[2,4,6,8,-1,10,12,-1,-1,-1,-1,-1,-1],"split_conditions":[7.919872E-1,2.575579E-1,2.00001E0,1.5831636E-1,-1.8956883E-2,6.485425E-2,2.00001E0,1.0944702E-1,-0E0,1.0987415E-1,-0E0,1.1221339E-1,-3.7703764E-2],"split_indices":[4979,4986,400,435,0,1451,4519,0,0,0,0,0,0],"split_type":[0,0,0,0,0,0,0,0,0,0,0,0,0],"sum_hessian":[3.741792E2,4.407878E1,3.3010043E2,4.303105E1,1.0477281E0,3.3497112E1,2.9660333E2,4.190396E1,1.1270894E0,3.242724E1,1.0698721E0,2.5709517E1,2.708938E2],"tree_param":{"num_deleted":"0","num_feature":"5000","num_nodes":"13","size_leaf_vector":"1"}},{"base_weights":[3.0026179E-2,1.0328602E0,-1.6436972E-1,1.1282531E0,-7.844084E-2,1.14281215E-1,-2.862719E-1,-0E0,1.142598E-1,1.07403375E-1,-3.861728E-2],"categories":[],"categories_nodes":[],"categories_segments":[],"categories_sizes":[],"default_left":[0,1,0,0,0,0,0,0,0,0,0],"id":13,"left_children":[1,3,5,7,-1,-1,9,-1,-1,-1,-1],"loss_changes":[7.356847E1,1.2754181E1,4.948281E1,5.64064E-1,0E0,0E0,3.9212177E1,0E0,0E0,0E0,0E0],"parents":[2147483647,0,0,1,1,2,2,3,3,6,6],"right_children":[2,4,6,8,-1,-1,10,-1,-1,-1,-1],"split_conditions":[5.9912914E-1,2.813202E-1,2.00001E0,3.913153E-1,-7.844084E-2,1.14281215E-1,2.00001E0,-0E0,1.142598E-1,1.07403375E-1,-3.861728E-2],"split_indices":[324,4803,3261,433,0,0,4519,0,0,0,0],"split_type":[0,0,0,0,0,0,0,0,0,0,0],"sum_hessian":[3.691804E2,5.937892E1,3.0980145E2,5.766074E1,1.7181813E0,2.4297838E1,2.8550363E2,1.0565811E0,5.660416E1,1.751382E1,2.679898E2],"tree_param":{"num_deleted":"0","num_feature":"5000","num_nodes":"11","size_leaf_vector":"1"}},{"base_weights":[4.2199064E-2,1.1153787E-1,-6.2677644E-2,1.0518698E0,-1.8383516E-1,-0E0,1.078094E-1,8.779123E-2,-3.3861026E-2],"categories":[],"categories_nodes":[],"categories_segments":[],"categories_sizes":[],"default_left":[0,0,0,0,0,0,0,0,0],"id":14,"left_children":[1,-1,3,5,7,-1,-1,-1,-1],"loss_changes":[4.2522972E1,0E0,4.483227E1,6.362839E-1,5.020565E1,0E0,0E0,0E0,0E0],"parents":[2147483647,0,0,2,2,3,3,4,4],"right_children":[2,-1,4,6,8,-1,-1,-1,-1],"split_conditions":[2.00001E0,1.1153787E-1,2.00001E0,3.019828E-1,7.919872E-1,-0E0,1.078094E-1,8.779123E-2,-3.3861026E-2],"split_indices":[3261,0,400,219,4979,0,0,0,0],"split_type":[0,0,0,0,0,0,0,0,0],"sum_hessian":[3.6521356E2,3.164653E1,3.3356705E2,3.0389725E1,3.031773E2,1.0091279E0,2.9380596E1,3.6561607E1,2.6661572E2],"tree_param":{"num_deleted":"0","num_feature":"5000","num_nodes":"9","size_leaf_vector":"1"}},{"base_weights":[2.0893293E-2,1.0152793E0,-1.6072702E-1,1.0860578E0,-5.2792568E-2,-4.5162562E-2,-1.2194685E-1,1.1011044E-1,-0E0,1.0320606E-1,-1.3189176E-2],"categories":[],"categories_nodes":[],"categories_segments":[],"categories_sizes":[],"default_left":[0,1,1,1,0,0,0,0,0,0,0],"id":15,"left_children":[1,3,5,7,-1,9,-1,-1,-1,-1,-1],"loss_changes":[6.68376E1,7.9600945E0,3.63438E1,6.2545776E-1,0E0,2.5612612E1,0E0,0E0,0E0,0E0,0E0],"parents":[2147483647,0,0,1,1,2,2,3,3,5,5],"right_children":[2,4,6,8,-1,10,-1,-1,-1,-1,-1],"split_conditions":[1.1982683E0,2.813202E-1,1.1495601E-1,1.5617792E-1,-5.2792568E-2,1E0,-1.2194685E-1,1.1011044E-1,-0E0,1.0320606E-1,-1.3189176E-2],"split_indices":[324,4803,2200,591,0,3261,0,0,0,0,0],"split_type":[0,0,0,0,0,0,0,0,0,0,0],"sum_hessian":[3.615461E2,5.526909E1,3.06277E2,5.403143E1,1.2376606E0,2.7886768E2,2.7409325E1,5.3026424E1,1.0050051E0,1.8295687E1,2.60572E2],"tree_param":{"num_deleted":"0","num_feature":"5000","num_nodes":"11","size_leaf_vector":"1"}},{"base_weights":[-9.5428545E-3,1.340312E-1,-9.9537486E-1,2.0297433E-1,-1.2187282E0,-1.0580058E0,2.5948992E-2,1.06880225E-1,1.1508188E-2,-0E0,-1.3452895E-1,-0E0,-1.1014135E-1],"categories":[],"categories_nodes":[],"categories_segments":[],"categories_sizes":[],"default_left":[1,1,1,0,0,0,0,0,0,0,0,0,0],"id":16,"left_children":[1,3,5,7,9,11,-1,-1,-1,-1,-1,-1,-1],"loss_changes":[5.19343E1,2.8782238E1,5.0221634E0,2.150505E1,2.1770802E0,2.9469566E0,0E0,0E0,0E0,0E0,0E0,0E0,0E0],"parents":[2147483647,0,0,1,1,2,2,3,3,4,4,5,5],"right_children":[2,4,6,8,10,12,-1,-1,-1,-1,-1,-1,-1],"split_conditions":[1.0744626E-1,2.0507343E-1,3.2948947E-1,2.00001E0,4.017055E-1,1.3591957E0,2.5948992E-2,1.06880225E-1,1.1508188E-2,-0E0,-1.3452895E-1,-0E0,-1.1014135E-1],"split_indices":[4259,4803,1346,4519,2475,2785,0,0,0,0,0,0,0],"split_type":[0,0,0,0,0,0,0,0,0,0,0,0,0],"sum_hessian":[3.569527E2,3.121986E2,4.4754097E1,2.993799E2,1.2818701E1,4.3684433E1,1.0696617E0,2.448455E1,2.7489536E2,1.4541163E0,1.1364585E1,1.1007102E0,4.2583725E1],"tree_param":{"num_deleted":"0","num_feature":"5000","num_nodes":"13","size_leaf_vector":"1"}},{"base_weights":[3.0011507E-2,1.2375131E-1,-1.081029E0,2.0249254E-1,-9.430737E-1,-0E0,-1.1805991E-1,2.5552435E-2,-1.3483255E-1,-0E0,-9.937073E-2],"categories":[],"categories_nodes":[],"categories_segments":[],"categories_sizes":[],"default_left":[1,1,0,1,0,0,0,0,0,0,0],"id":17,"left_children":[1,3,5,7,9,-1,-1,-1,-1,-1,-1],"loss_changes":[3.5554424E1,2.682066E1,3.981926E0,2.4584152E1,7.290535E-1,0E0,0E0,0E0,0E0,0E0,0E0],"parents":[2147483647,0,0,1,1,2,2,3,3,4,4],"right_children":[2,4,6,8,10,-1,-1,-1,-1,-1,-1],"split_conditions":[1.8285619E-1,2.2054088E-1,3.366335E-1,1.4925168E-1,2.9048288E-1,-0E0,-1.1805991E-1,2.5552435E-2,-1.3483255E-1,-0E0,-9.937073E-2],"split_indices":[2200,4259,4519,184,2016,0,0,0,0,0,0],"split_type":[0,0,0,0,0,0,0,0,0,0,0],"sum_hessian":[3.460037E2,3.215513E2,2.4452374E1,3.018312E2,1.9720097E1,1.4168984E0,2.3035475E1,2.9408978E2,7.741417E0,1.418755E0,1.830134E1],"tree_param":{"num_deleted":"0","num_feature":"5000","num_nodes":"11","size_leaf_vector":"1"}},{"base_weights":[1.7002093E-2,1.1162287E-1,-7.005525E-2,1.0208161E0,-1.861673E-1,1.0491431E-1,-0E0,8.471521E-2,-3.296882E-2],"categories":[],"categories_nodes":[],"categories_segments":[],"categories_sizes":[],"default_left":[0,0,0,1,0,0,0,0,0],"id":18,"left_children":[1,-1,3,5,7,-1,-1,-1,-1],"loss_changes":[3.4477154E1,0E0,4.048731E1,6.487503E-1,4.3739864E1,0E0,0E0,0E0,0E0],"parents":[2147483647,0,0,2,2,3,3,4,4],"right_children":[2,-1,4,6,8,-1,-1,-1,-1],"split_conditions":[1.6013148E0,1.1162287E-1,2.00001E0,4.7408603E-2,7.919872E-1,1.0491431E-1,-0E0,8.471521E-2,-3.296882E-2],"split_indices":[295,0,400,1451,4979,0,0,0,0],"split_type":[0,0,0,0,0,0,0,0,0],"sum_hessian":[3.4571234E2,2.4478502E1,3.2123383E2,2.8575134E1,2.926587E2,2.7535757E1,1.0393765E0,3.3645493E1,2.590132E2],"tree_param":{"num_deleted":"0","num_feature":"5000","num_nodes":"9","size_leaf_vector":"1"}},{"base_weights":[2.6148655E-2,9.764943E-1,-1.3378526E-1,1.0650353E0,-5.5928767E-2,1.2905716E-3,-1.0396457E0,1.080806E-1,-0E0,1.0171839E-1,-7.7236793E-3,-0E0,-1.0624762E-1],"categories":[],"categories_nodes":[],"categories_segments":[],"categories_sizes":[],"default_left":[0,1,1,1,0,0,0,0,0,0,0,0,0],"id":19,"left_children":[1,3,5,7,-1,9,11,-1,-1,-1,-1,-1,-1],"loss_changes":[5.4104523E1,8.682621E0,3.7667362E1,4.412613E-1,0E0,2.1960518E1,6.089821E-1,0E0,0E0,0E0,0E0,0E0,0E0],"parents":[2147483647,0,0,1,1,2,2,3,3,5,5,6,6],"right_children":[2,4,6,8,-1,10,12,-1,-1,-1,-1,-1,-1],"split_conditions":[1.1982683E0,2.813202E-1,1.0122315E-1,1.0529598E-1,-5.5928767E-2,2.00001E0,1.6551569E-1,1.080806E-1,-0E0,1.0171839E-1,-7.7236793E-3,-0E0,-1.0624762E-1],"split_indices":[324,4803,4259,433,0,4519,2200,0,0,0,0,0,0],"split_type":[0,0,0,0,0,0,0,0,0,0,0,0,0],"sum_hessian":[3.467049E2,4.937202E1,2.9733286E2,4.787604E1,1.4959807E0,2.5952716E2,3.7805717E1,4.6808865E1,1.067176E0,1.7820084E1,2.4170706E2,1.1528373E0,3.665288E1],"tree_param":{"num_deleted":"0","num_feature":"5000","num_nodes":"13","size_leaf_vector":"1"}},{"base_weights":[1.578704E-2,1.033621E-1,-7.473989E-2,1.0216727E-1,-1.6393395E-1,-2.7455464E-2,8.988789E-2],"categories":[],"categories_nodes":[],"categories_segments":[],"categories_sizes":[],"default_left":[0,0,0,0,1,0,0],"id":20,"left_children":[1,-1,3,-1,5,-1,-1],"loss_changes":[3.22571E1,0E0,2.9925776E1,0E0,3.402296E1,0E0,0E0],"parents":[2147483647,0,0,2,2,4,4],"right_children":[2,-1,4,-1,6,-1,-1],"split_conditions":[2.00001E0,1.033621E-1,2.00001E0,1.0216727E-1,1.566232E-1,-2.7455464E-2,8.988789E-2],"split_indices":[400,0,4519,0,4979,0,0],"split_type":[0,0,0,0,0,0,0],"sum_hessian":[3.359992E2,2.664366E1,3.0935553E2,2.0856594E1,2.8849896E2,2.634976E2,2.5001368E1],"tree_param":{"num_deleted":"0","num_feature":"5000","num_nodes":"7","size_leaf_vector":"1"}},{"base_weights":[1.7773105E-3,9.7345656E-1,-7.694122E-2,-0E0,1.0062464E-1,1.0312725E0,-1.6501981E-1,-0E0,1.072511E-1,-2.6105776E-2,8.240008E-2],"categories":[],"categories_nodes":[],"categories_segments":[],"categories_sizes":[],"default_left":[0,0,0,0,0,0,1,0,0,0,0],"id":21,"left_children":[1,3,5,-1,-1,7,9,-1,-1,-1,-1],"loss_changes":[2.713288E1,7.115898E-1,3.035709E1,0E0,0E0,7.8614426E-1,2.7949839E1,0E0,0E0,0E0,0E0],"parents":[2147483647,0,0,1,1,2,2,5,5,6,6],"right_children":[2,4,6,-1,-1,8,10,-1,-1,-1,-1],"split_conditions":[2.00001E0,1.0581272E-1,1.6013148E0,-0E0,1.0062464E-1,2.4966896E-1,1.566232E-1,-0E0,1.072511E-1,-2.6105776E-2,8.240008E-2],"split_indices":[400,4772,295,0,0,4979,4979,0,0,0,0],"split_type":[0,0,0,0,0,0,0,0,0,0,0],"sum_hessian":[3.390492E2,2.4657307E1,3.1439188E2,1.0062395E0,2.3651066E1,2.0734735E1,2.9365717E2,1.0312698E0,1.9703466E1,2.699291E2,2.3728031E1],"tree_param":{"num_deleted":"0","num_feature":"5000","num_nodes":"11","size_leaf_vector":"1"}},{"base_weights":[6.5757083E-3,9.3596435E-1,-1.4485799E-1,1.0263187E0,-5.063207E-2,9.989565E-1,-2.3304825E-1,1.0436237E-1,-0E0,-3.3353046E-2,1.1969241E-1,1.0175258E-1,-3.2102358E-2],"categories":[],"categories_nodes":[],"categories_segments":[],"categories_sizes":[],"default_left":[0,1,0,1,0,0,0,0,0,0,0,0,0],"id":22,"left_children":[1,3,5,7,-1,9,11,-1,-1,-1,-1,-1,-1],"loss_changes":[4.756427E1,7.747612E0,2.8440735E1,4.7636795E-1,0E0,6.927614E0,2.9327633E1,0E0,0E0,0E0,0E0,0E0,0E0],"parents":[2147483647,0,0,1,1,2,2,3,3,5,5,6,6],"right_children":[2,4,6,8,-1,10,12,-1,-1,-1,-1,-1,-1],"split_conditions":[1.1982683E0,2.813202E-1,7.818787E-1,9.4085306E-2,-5.063207E-2,5.9752244E-1,2.00001E0,1.0436237E-1,-0E0,-3.3353046E-2,1.1969241E-1,1.0175258E-1,-3.2102358E-2],"split_indices":[324,4803,1459,591,0,1485,3261,0,0,0,0,0,0],"split_type":[0,0,0,0,0,0,0,0,0,0,0,0,0],"sum_hessian":[3.2840887E2,4.5486763E1,2.8292212E2,4.4000443E1,1.4863203E0,1.796214E1,2.6496E2,4.2924942E1,1.0755006E0,1.4928877E0,1.6469252E1,1.5278355E1,2.4968163E2],"tree_param":{"num_deleted":"0","num_feature":"5000","num_nodes":"13","size_leaf_vector":"1"}},{"base_weights":[7.199314E-3,9.1184896E-1,-1.22909375E-1,9.943229E-1,-3.92466E-2,9.7389944E-2,-2.0928416E-1,1.0131166E-1,-0E0,8.907333E-2,-2.873231E-2],"categories":[],"categories_nodes":[],"categories_segments":[],"categories_sizes":[],"default_left":[0,1,0,1,0,0,0,0,0,0,0],"id":23,"left_children":[1,3,5,7,-1,-1,9,-1,-1,-1,-1],"loss_changes":[3.959901E1,5.9459724E0,2.6870424E1,4.4309616E-1,0E0,0E0,2.2992939E1,0E0,0E0,0E0,0E0],"parents":[2147483647,0,0,1,1,2,2,3,3,6,6],"right_children":[2,4,6,8,-1,-1,10,-1,-1,-1,-1],"split_conditions":[1.1982683E0,3.8973013E-1,2.00001E0,9.65118E-2,-3.92466E-2,9.7389944E-2,1.7716642E-1,1.0131166E-1,-0E0,8.907333E-2,-2.873231E-2],"split_indices":[324,354,400,3121,0,0,2016,0,0,0,0],"split_type":[0,0,0,0,0,0,0,0,0,0,0],"sum_hessian":[3.2582507E2,4.0424114E1,2.8540094E2,3.91882E1,1.2359132E0,1.8489437E1,2.669115E2,3.810596E1,1.082242E0,1.5452658E1,2.5145885E2],"tree_param":{"num_deleted":"0","num_feature":"5000","num_nodes":"11","size_leaf_vector":"1"}},{"base_weights":[1.5035031E-2,8.7100667E-1,-1.0429647E-1,9.701109E-1,-4.7917236E-2,1.2558765E0,-1.6942959E-1,9.8954946E-2,-0E0,1.3347058E-1,-0E0,9.952585E-2,-2.479458E-2],"categories":[],"categories_nodes":[],"categories_segments":[],"categories_sizes":[],"default_left":[0,1,0,1,0,1,0,0,0,0,0,0,0],"id":24,"left_children":[1,3,5,7,-1,9,11,-1,-1,-1,-1,-1,-1],"loss_changes":[3.445441E1,6.9568615E0,2.4911446E1,5.337448E-1,0E0,7.382698E-1,2.5161596E1,0E0,0E0,0E0,0E0,0E0,0E0],"parents":[2147483647,0,0,1,1,2,2,3,3,5,5,6,6],"right_children":[2,4,6,8,-1,10,12,-1,-1,-1,-1,-1,-1],"split_conditions":[1.1982683E0,2.813202E-1,1.0542989E0,9.671917E-2,-4.7917236E-2,7.0085794E-2,2.00001E0,9.8954946E-2,-0E0,1.3347058E-1,-0E0,9.952585E-2,-2.479458E-2],"split_indices":[324,4803,2554,591,0,4929,3261,0,0,0,0,0,0],"split_type":[0,0,0,0,0,0,0,0,0,0,0,0,0],"sum_hessian":[3.2602603E2,3.9374245E1,2.8665176E2,3.789626E1,1.4779844E0,1.0726844E1,2.7592493E2,3.6889305E1,1.0069546E0,9.682339E0,1.0445055E0,1.5147225E1,2.607777E2],"tree_param":{"num_deleted":"0","num_feature":"5000","num_nodes":"13","size_leaf_vector":"1"}},{"base_weights":[1.9013103E-2,8.527097E-1,-8.8446826E-2,8.878794E-2,-0E0,9.170412E-1,-1.7000417E-1,9.565043E-2,-0E0,1.2834693E-1,-2.2597905E-2],"categories":[],"categories_nodes":[],"categories_segments":[],"categories_sizes":[],"default_left":[0,1,0,0,0,1,0,0,0,0,0],"id":25,"left_children":[1,3,5,-1,-1,7,9,-1,-1,-1,-1],"loss_changes":[2.948181E1,1.4743156E0,2.2789066E1,0E0,0E0,5.428982E-1,2.1047089E1,0E0,0E0,0E0,0E0],"parents":[2147483647,0,0,1,1,2,2,5,5,6,6],"right_children":[2,4,6,-1,-1,8,10,-1,-1,-1,-1],"split_conditions":[1.1982683E0,1.2690759E-1,2.00001E0,8.878794E-2,-0E0,6.3748516E-2,1.0827869E0,9.565043E-2,-0E0,1.2834693E-1,-2.2597905E-2],"split_indices":[324,3121,400,0,0,4772,4062,0,0,0,0],"split_type":[0,0,0,0,0,0,0,0,0,0,0],"sum_hessian":[3.168641E2,3.565793E1,2.8120618E2,3.4603863E1,1.0540671E0,1.864086E1,2.625653E2,1.7566206E1,1.0746541E0,7.4478025E0,2.551175E2],"tree_param":{"num_deleted":"0","num_feature":"5000","num_nodes":"11","size_leaf_vector":"1"}},{"base_weights":[-0E0,1.1972169E-1,-6.210764E-2,9.7121246E-2,-1.381505E-1,1.2554969E-1,-1.9735416E-2],"categories":[],"categories_nodes":[],"categories_segments":[],"categories_sizes":[],"default_left":[0,0,0,0,0,0,0],"id":26,"left_children":[1,-1,3,-1,5,-1,-1],"loss_changes":[2.3226423E1,0E0,2.3558254E1,0E0,2.325017E1,0E0,0E0],"parents":[2147483647,0,0,2,2,4,4],"right_children":[2,-1,4,-1,6,-1,-1],"split_conditions":[1.0542989E0,1.1972169E-1,2.00001E0,9.7121246E-2,2.00001E0,1.2554969E-1,-1.9735416E-2],"split_indices":[2554,0,4519,0,4584,0,0],"split_type":[0,0,0,0,0,0,0],"sum_hessian":[3.1837766E2,1.3378345E1,3.0499933E2,1.839135E1,2.8660797E2,9.344145E0,2.7726382E2],"tree_param":{"num_deleted":"0","num_feature":"5000","num_nodes":"7","size_leaf_vector":"1"}},{"base_weights":[4.105793E-2,1.1579496E-1,-8.611131E-1,1.7960407E-1,-9.193934E-1,1.28668165E-2,-9.6519984E-2,2.4424827E-2,-7.320174E-2,-9.874048E-2,-0E0],"categories":[],"categories_nodes":[],"categories_segments":[],"categories_sizes":[],"default_left":[1,1,0,1,1,0,0,0,0,0,0],"id":27,"left_children":[1,3,5,7,9,-1,-1,-1,-1,-1,-1],"loss_changes":[2.036818E1,1.8695839E1,3.4486065E0,1.6077408E1,9.382963E-1,0E0,0E0,0E0,0E0,0E0,0E0],"parents":[2147483647,0,0,1,1,2,2,3,3,4,4],"right_children":[2,4,6,8,10,-1,-1,-1,-1,-1,-1],"split_conditions":[1.8285619E-1,1.940797E-1,2.6527584E-1,2.2054088E-1,2.595735E-1,1.28668165E-2,-9.6519984E-2,2.4424827E-2,-7.320174E-2,-9.874048E-2,-0E0],"split_indices":[2200,4803,4519,4259,910,0,0,0,0,0,0],"split_type":[0,0,0,0,0,0,0,0,0,0,0],"sum_hessian":[3.081801E2,2.8723676E2,2.0943335E1,2.730264E2,1.4210362E1,1.0337272E0,1.9909607E1,2.5733926E2,1.5687148E1,1.3016553E1,1.1938097E0],"tree_param":{"num_deleted":"0","num_feature":"5000","num_nodes":"11","size_leaf_vector":"1"}},{"base_weights":[4.4275157E-2,1.18942045E-1,-8.624045E-1,1.7587715E-1,-8.922805E-1,-0E0,-9.512437E-2,9.9188186E-2,1.1085916E-2,-9.658432E-2,-0E0],"categories":[],"categories_nodes":[],"categories_segments":[],"categories_sizes":[],"default_left":[1,1,0,0,1,0,0,0,0,0,0],"id":28,"left_children":[1,3,5,7,9,-1,-1,-1,-1,-1,-1],"loss_changes":[2.1038288E1,1.6710827E1,2.5880222E0,1.3745176E1,9.842558E-1,0E0,0E0,0E0,0E0,0E0,0E0],"parents":[2147483647,0,0,1,1,2,2,3,3,4,4],"right_children":[2,4,6,8,10,-1,-1,-1,-1,-1,-1],"split_conditions":[1.7831239E-1,1.940797E-1,3.366335E-1,1.6013148E0,2.007171E-1,-0E0,-9.512437E-2,9.9188186E-2,1.1085916E-2,-9.658432E-2,-0E0],"split_indices":[2200,4803,4519,295,910,0,0,0,0,0,0],"split_type":[0,0,0,0,0,0,0,0,0,0,0],"sum_hessian":[3.1671393E2,2.952408E2,2.1473116E1,2.8200412E2,1.3236698E1,1.3195761E0,2.015354E1,1.7572325E1,2.644318E2,1.2059207E1,1.1774915E0],"tree_param":{"num_deleted":"0","num_feature":"5000","num_nodes":"11","size_leaf_vector":"1"}},{"base_weights":[2.3403717E-2,8.5997194E-1,-7.728831E-2,9.505828E-2,-3.0982886E-2,9.215194E-2,-1.4706863E-1,8.806845E-2,-2.2554735E-2],"categories":[],"categories_nodes":[],"categories_segments":[],"categories_sizes":[],"default_left":[0,1,0,0,0,0,0,0,0],"id":29,"left_children":[1,3,5,-1,-1,-1,7,-1,-1],"loss_changes":[2.6975662E1,4.8833065E0,1.8795893E1,0E0,0E0,0E0,2.083231E1,0E0,0E0],"parents":[2147483647,0,0,1,1,2,2,6,6],"right_children":[2,4,6,-1,-1,-1,8,-1,-1],"split_conditions":[5.9912914E-1,3.8973013E-1,2.00001E0,9.505828E-2,-3.0982886E-2,9.215194E-2,2.00001E0,8.806845E-2,-2.2554735E-2],"split_indices":[324,354,4519,0,0,0,400,0,0],"split_type":[0,0,0,0,0,0,0,0,0],"sum_hessian":[3.0737045E2,3.2468243E1,2.749022E2,3.1275349E1,1.1928939E0,1.54215555E1,2.5948065E2,1.6053862E1,2.4342679E2],"tree_param":{"num_deleted":"0","num_feature":"5000","num_nodes":"9","size_leaf_vector":"1"}},{"base_weights":[2.2237573E-2,1.0237751E-1,-4.2363875E-2,1.1210288E0,-1.0095999E-1,1.1817976E-1,-0E0,9.350799E-2,-1.5811713E-2],"categories":[],"categories_nodes":[],"categories_segments":[],"categories_sizes":[],"default_left":[0,0,0,1,0,0,0,0,0],"id":30,"left_children":[1,-1,3,5,7,-1,-1,-1,-1],"loss_changes":[2.0992756E1,0E0,1.899426E1,4.2334557E-1,1.604071E1,0E0,0E0,0E0,0E0],"parents":[2147483647,0,0,2,2,3,3,4,4],"right_children":[2,-1,4,6,8,-1,-1,-1,-1],"split_conditions":[2.00001E0,1.0237751E-1,5.2714443E-1,9.070903E-2,8.006524E-1,1.1817976E-1,-0E0,9.350799E-2,-1.5811713E-2],"split_indices":[3261,0,2554,4929,295,0,0,0,0],"split_type":[0,0,0,0,0,0,0,0,0],"sum_hessian":[3.0595E2,1.7677307E1,2.882727E2,1.1265893E1,2.770068E2,1.0239801E1,1.0260918E0,1.1962228E1,2.650446E2],"tree_param":{"num_deleted":"0","num_feature":"5000","num_nodes":"9","size_leaf_vector":"1"}},{"base_weights":[1.2579052E-2,8.038405E-1,-7.395696E-2,8.7692726E-1,-1.3741836E-2,9.147103E-1,-1.3924105E-1,-0E0,9.012502E-2,-2.6888495E-2,1.13621294E-1,8.961599E-2,-2.1015516E-2],"categories":[],"categories_nodes":[],"categories_segments":[],"categories_sizes":[],"default_left":[0,1,0,0,0,0,0,0,0,0,0,0,0],"id":31,"left_children":[1,3,5,7,-1,9,11,-1,-1,-1,-1,-1,-1],"loss_changes":[2.1792635E1,3.1448708E0,1.7319963E1,4.9515533E-1,0E0,5.7876005E0,1.8925943E1,0E0,0E0,0E0,0E0,0E0,0E0],"parents":[2147483647,0,0,1,1,2,2,3,3,5,5,6,6],"right_children":[2,4,6,8,-1,10,12,-1,-1,-1,-1,-1,-1],"split_conditions":[1.1982683E0,1.6407578E-1,1.5637674E0,4.8171365E-1,-1.3741836E-2,5.9752244E-1,2.00001E0,-0E0,9.012502E-2,-2.6888495E-2,1.13621294E-1,8.961599E-2,-2.1015516E-2],"split_indices":[324,4803,1459,591,0,1485,4519,0,0,0,0,0,0],"split_type":[0,0,0,0,0,0,0,0,0,0,0,0,0],"sum_hessian":[3.0387195E2,2.9461533E1,2.7441043E2,2.8451439E1,1.0100935E0,1.4436894E1,2.5997354E2,1.0118557E0,2.7439583E1,1.496726E0,1.2940168E1,1.4268354E1,2.4570517E2],"tree_param":{"num_deleted":"0","num_feature":"5000","num_nodes":"13","size_leaf_vector":"1"}},{"base_weights":[1.8837368E-2,9.1515255E-1,-4.5530383E-2,-0E0,1.0338862E0,-1.2510523E-1,7.8755593E-1,1.1029249E-1,-0E0,9.1829784E-2,-2.0474011E-2,-2.5996862E-3,9.151167E-2],"categories":[],"categories_nodes":[],"categories_segments":[],"categories_sizes":[],"default_left":[0,0,1,0,1,0,0,0,0,0,0,0,0],"id":32,"left_children":[1,3,5,-1,7,9,11,-1,-1,-1,-1,-1,-1],"loss_changes":[1.8477999E1,3.336277E0,1.8379726E1,0E0,1.6115761E0,2.1457912E1,3.4236279E0,0E0,0E0,0E0,0E0,0E0,0E0],"parents":[2147483647,0,0,1,1,2,2,4,4,5,5,6,6],"right_children":[2,4,6,-1,8,10,12,-1,-1,-1,-1,-1,-1],"split_conditions":[1.5789352E-1,9.355697E-1,1.5368667E-1,-0E0,9.8580346E-2,2.00001E0,2.0822054E-1,1.1029249E-1,-0E0,9.1829784E-2,-2.0474011E-2,-2.5996862E-3,9.151167E-2],"split_indices":[4772,1374,4979,0,3121,400,4772,0,0,0,0,0,0],"split_type":[0,0,0,0,0,0,0,0,0,0,0,0,0],"sum_hessian":[3.0175958E2,1.9488235E1,2.8227133E2,1.5309403E0,1.7957294E1,2.6030728E2,2.1964054E1,1.686183E1,1.0954651E0,1.6074446E1,2.4423285E2,2.1303256E0,1.9833729E1],"tree_param":{"num_deleted":"0","num_feature":"5000","num_nodes":"13","size_leaf_vector":"1"}},{"base_weights":[-2.5589617E-2,9.586564E-2,-9.5058054E-2,-1.7198576E-1,7.749205E-1,1.04273535E-1,-2.2926081E-2,-1.7829532E-3,8.794264E-2],"categories":[],"categories_nodes":[],"categories_segments":[],"categories_sizes":[],"default_left":[0,0,1,0,0,0,0,0,0],"id":33,"left_children":[1,-1,3,5,7,-1,-1,-1,-1],"loss_changes":[1.9659065E1,0E0,1.8445807E1,1.7790998E1,2.724452E0,0E0,0E0,0E0,0E0],"parents":[2147483647,0,0,2,2,3,3,4,4],"right_children":[2,-1,4,6,8,-1,-1,-1,-1],"split_conditions":[2.00001E0,9.586564E-2,1.5458147E-1,1.0542989E0,5.489338E-1,1.04273535E-1,-2.2926081E-2,-1.7829532E-3,8.794264E-2],"split_indices":[3261,0,4979,2554,4800,0,0,0,0],"split_type":[0,0,0,0,0,0,0,0,0],"sum_hessian":[2.9548734E2,1.6843904E1,2.7864343E2,2.5853644E2,2.0106968E1,9.305661E0,2.4923079E2,1.4206077E0,1.8686361E1],"tree_param":{"num_deleted":"0","num_feature":"5000","num_nodes":"9","size_leaf_vector":"1"}},{"base_weights":[3.7901286E-2,8.15875E-1,-4.120365E-2,9.2088014E-1,-2.8668925E-2,8.995481E-2,-1.0490288E-1,9.4943695E-2,-0E0,-1.7199952E-2,7.403389E-2],"categories":[],"categories_nodes":[],"categories_segments":[],"categories_sizes":[],"default_left":[0,1,0,1,0,0,1,0,0,0,0],"id":34,"left_children":[1,3,5,7,-1,-1,9,-1,-1,-1,-1],"loss_changes":[1.9027508E1,4.466015E0,1.5511835E1,5.279465E-1,0E0,0E0,1.4130793E1,0E0,0E0,0E0,0E0],"parents":[2147483647,0,0,1,1,2,2,3,3,6,6],"right_children":[2,4,6,8,-1,-1,10,-1,-1,-1,-1],"split_conditions":[1.1982683E0,2.813202E-1,2.00001E0,9.356133E-2,-2.8668925E-2,8.995481E-2,1.588892E-1,9.4943695E-2,-0E0,-1.7199952E-2,7.403389E-2],"split_indices":[324,4803,400,3121,0,0,4979,0,0,0,0],"split_type":[0,0,0,0,0,0,0,0,0,0,0],"sum_hessian":[2.9350116E2,2.6536482E1,2.669647E2,2.5358E1,1.1784829E0,1.427023E1,2.5269446E2,2.43227E1,1.0352986E0,2.3668234E2,1.601211E1],"tree_param":{"num_deleted":"0","num_feature":"5000","num_nodes":"11","size_leaf_vector":"1"}},{"base_weights":[7.738456E-2,1.6834915E-1,-5.9422046E-1,8.6015815E-1,8.276528E-2,2.2622444E-2,-6.653172E-1,9.492504E-2,-1.1162829E-3,8.978241E-2,2.512958E-3,-7.235577E-2,-0E0],"categories":[],"categories_nodes":[],"categories_segments":[],"categories_sizes":[],"default_left":[1,0,0,1,0,0,1,0,0,0,0,0,0],"id":35,"left_children":[1,3,5,7,9,-1,11,-1,-1,-1,-1,-1,-1],"loss_changes":[1.7429974E1,1.4154599E1,2.700286E0,3.0426445E0,9.956755E0,0E0,1.7836599E0,0E0,0E0,0E0,0E0,0E0,0E0],"parents":[2147483647,0,0,1,1,2,2,3,3,4,4,6,6],"right_children":[2,4,6,8,10,-1,12,-1,-1,-1,-1,-1,-1],"split_conditions":[1.1756184E-1,3.0555978E-1,3.235825E-1,1.3201986E-1,8.006524E-1,2.2622444E-2,2.0620306E-1,9.492504E-2,-1.1162829E-3,8.978241E-2,2.512958E-3,-7.235577E-2,-0E0],"split_indices":[4259,2016,2767,4962,295,0,2016,0,0,0,0,0,0],"split_type":[0,0,0,0,0,0,0,0,0,0,0,0,0],"sum_hessian":[2.8700174E2,2.5539743E2,3.1604307E1,2.4837826E1,2.305596E2,1.0506608E0,3.0553646E1,2.3412697E1,1.4251306E0,1.2155559E1,2.1840404E2,2.8930897E1,1.622749E0],"tree_param":{"num_deleted":"0","num_feature":"5000","num_nodes":"13","size_leaf_vector":"1"}},{"base_weights":[2.0488309E-2,1.416351E-1,-1.854306E-2,7.2603744E-1,-9.9087395E-2,8.289663E-2,-2.6488036E-2,5.8933523E-2,-1.9021537E-2],"categories":[],"categories_nodes":[],"categories_segments":[],"categories_sizes":[],"default_left":[0,0,0,1,0,0,0,0,0],"id":36,"left_children":[1,-1,3,5,7,-1,-1,-1,-1],"loss_changes":[1.7519615E1,0E0,1.6800701E1,3.7734642E0,1.6326647E1,0E0,0E0,0E0,0E0],"parents":[2147483647,0,0,2,2,3,3,4,4],"right_children":[2,-1,4,6,8,-1,-1,-1,-1],"split_conditions":[8.456379E-1,1.416351E-1,1.1982683E0,2.813202E-1,3.638579E-1,8.289663E-2,-2.6488036E-2,5.8933523E-2,-1.9021537E-2],"split_indices":[4550,0,324,4803,2016,0,0,0,0],"split_type":[0,0,0,0,0,0,0,0,0],"sum_hessian":[2.9294427E2,6.7457094E0,2.8619858E2,2.5160664E1,2.610379E2,2.4003412E1,1.1572499E0,2.795385E1,2.3308406E2],"tree_param":{"num_deleted":"0","num_feature":"5000","num_nodes":"9","size_leaf_vector":"1"}},{"base_weights":[-0E0,1.2742303E-1,-5.4065544E-2,1.364431E-1,-1.0166805E-1,7.037862E-2,-1.8021189E-2],"categories":[],"categories_nodes":[],"categories_segments":[],"categories_sizes":[],"default_left":[0,0,0,0,0,0,0],"id":37,"left_children":[1,-1,3,-1,5,-1,-1],"loss_changes":[1.9970524E1,0E0,1.7505049E1,0E0,1.6652208E1,0E0,0E0],"parents":[2147483647,0,0,2,2,4,4],"right_children":[2,-1,4,-1,6,-1,-1],"split_conditions":[2.00001E0,1.2742303E-1,1.3972154E0,1.364431E-1,1.1982683E0,7.037862E-2,-1.8021189E-2],"split_indices":[4584,0,2023,0,324,0,0],"split_type":[0,0,0,0,0,0,0],"sum_hessian":[2.8164084E2,9.80669E0,2.7183414E2,6.3476825E0,2.6548645E2,2.1042854E1,2.444436E2],"tree_param":{"num_deleted":"0","num_feature":"5000","num_nodes":"7","size_leaf_vector":"1"}},{"base_weights":[3.0352449E-2,1.2939608E-1,-1.4268768E-2,9.495756E-2,-7.90013E-2,6.922619E-2,-1.5546407E-2],"categories":[],"categories_nodes":[],"categories_segments":[],"categories_sizes":[],"default_left":[0,0,0,0,0,0,0],"id":38,"left_children":[1,-1,3,-1,5,-1,-1],"loss_changes":[1.7340456E1,0E0,1.6481771E1,0E0,1.5080988E1,0E0,0E0],"parents":[2147483647,0,0,2,2,4,4],"right_children":[2,-1,4,-1,6,-1,-1],"split_conditions":[1.0827869E0,1.2939608E-1,2.00001E0,9.495756E-2,1.1982683E0,6.922619E-2,-1.5546407E-2],"split_indices":[4062,0,4519,0,324,0,0],"split_type":[0,0,0,0,0,0,0],"sum_hessian":[2.821925E2,8.479471E0,2.7371304E2,1.4533139E1,2.591799E2,2.0744932E1,2.3843497E2],"tree_param":{"num_deleted":"0","num_feature":"5000","num_nodes":"7","size_leaf_vector":"1"}},{"base_weights":[2.5578437E-2,9.1563605E-2,-2.4942072E-2,7.4062854E-1,-9.500215E-2,-0E0,8.230083E-2,1.2578784E-1,-1.3818172E-2],"categories":[],"categories_nodes":[],"categories_segments":[],"categories_sizes":[],"default_left":[0,0,0,0,0,0,0,0,0],"id":39,"left_children":[1,-1,3,5,7,-1,-1,-1,-1],"loss_changes":[1.3535786E1,0E0,1.3763946E1,1.9740963E0,1.363915E1,0E0,0E0,0E0,0E0],"parents":[2147483647,0,0,2,2,3,3,4,4],"right_children":[2,-1,4,6,8,-1,-1,-1,-1],"split_conditions":[2.00001E0,9.1563605E-2,3.1004986E-1,2.6930532E-1,6.986027E-1,-0E0,8.230083E-2,1.2578784E-1,-1.3818172E-2],"split_indices":[3261,0,4979,184,2023,0,0,0,0],"split_type":[0,0,0,0,0,0,0,0,0],"sum_hessian":[2.7819772E2,1.4166245E1,2.6403146E2,1.9335012E1,2.4469647E2,1.1428612E0,1.8192152E1,5.111878E0,2.395846E2],"tree_param":{"num_deleted":"0","num_feature":"5000","num_nodes":"9","size_leaf_vector":"1"}},{"base_weights":[-1.5010748E-2,1.1677295E-1,-6.941496E-2,8.826296E-2,-1.3173047E-1,1.1955547E-1,-1.7387846E-2],"categories":[],"categories_nodes":[],"categories_segments":[],"categories_sizes":[],"default_left":[0,0,0,0,0,0,0],"id":40,"left_children":[1,-1,3,-1,5,-1,-1],"loss_changes":[1.6800941E1,0E0,1.5276093E1,0E0,1.3524992E1,0E0,0E0],"parents":[2147483647,0,0,2,2,4,4],"right_children":[2,-1,4,-1,6,-1,-1],"split_conditions":[2.00001E0,1.1677295E-1,2.00001E0,8.826296E-2,1.6912858E0,1.1955547E-1,-1.7387846E-2],"split_indices":[4584,0,400,0,4550,0,0],"split_type":[0,0,0,0,0,0,0],"sum_hessian":[2.7365234E2,9.425892E0,2.6422644E2,1.3629064E1,2.505974E2,5.2980776E0,2.4529932E2],"tree_param":{"num_deleted":"0","num_feature":"5000","num_nodes":"7","size_leaf_vector":"1"}},{"base_weights":[4.2973284E-2,1.1621938E-1,-0E0,8.850023E-2,-4.903972E-2,-1.1631097E-2,7.314725E-2],"categories":[],"categories_nodes":[],"categories_segments":[],"categories_sizes":[],"default_left":[0,0,0,0,1,0,0],"id":41,"left_children":[1,-1,3,-1,5,-1,-1],"loss_changes":[1.2795025E1,0E0,1.2133514E1,0E0,1.3010415E1,0E0,0E0],"parents":[2147483647,0,0,2,2,4,4],"right_children":[2,-1,4,-1,6,-1,-1],"split_conditions":[1.0827869E0,1.1621938E-1,2.00001E0,8.850023E-2,1.5458147E-1,-1.1631097E-2,7.314725E-2],"split_indices":[4062,0,3261,0,4979,0,0],"split_type":[0,0,0,0,0,0,0],"sum_hessian":[2.7482053E2,7.8514E0,2.6696912E2,1.2704801E1,2.5426433E2,2.3683502E2,1.7429304E1],"tree_param":{"num_deleted":"0","num_feature":"5000","num_nodes":"7","size_leaf_vector":"1"}},{"base_weights":[3.3806484E-2,8.875512E-1,-2.0429902E-2,1.1148894E-1,-1.8630175E-2,1.2688282E-1,-6.2574945E-2,9.1973595E-2,-1.1733236E-2],"categories":[],"categories_nodes":[],"categories_segments":[],"categories_sizes":[],"default_left":[0,1,0,0,0,0,0,0,0],"id":42,"left_children":[1,3,5,-1,-1,-1,7,-1,-1],"loss_changes":[1.3748008E1,5.668994E0,1.3171218E1,0E0,0E0,0E0,1.3186318E1,0E0,0E0],"parents":[2147483647,0,0,1,1,2,2,6,6],"right_children":[2,4,6,-1,-1,-1,8,-1,-1],"split_conditions":[1.7716642E-1,9.6289955E-2,1.6912858E0,1.1148894E-1,-1.8630175E-2,1.2688282E-1,1.6013148E0,9.1973595E-2,-1.1733236E-2],"split_indices":[2016,4259,4550,0,0,0,295,0,0],"split_type":[0,0,0,0,0,0,0,0,0],"sum_hessian":[2.753975E2,1.5716115E1,2.596814E2,1.3675718E1,2.0403965E0,5.6263323E0,2.5405505E2,1.0781778E1,2.4327328E2],"tree_param":{"num_deleted":"0","num_feature":"5000","num_nodes":"9","size_leaf_vector":"1"}},{"base_weights":[5.5316757E-2,9.920805E-1,-0E0,-8.624849E-3,1.1729633E0,4.179818E-2,-1.158702E-1,1.2595396E-1,-0E0,9.3068056E-2,-1.7995635E-3],"categories":[],"categories_nodes":[],"categories_segments":[],"categories_sizes":[],"default_left":[0,0,1,0,1,0,0,0,0,0,0],"id":43,"left_children":[1,3,5,-1,7,9,-1,-1,-1,-1,-1],"loss_changes":[1.4035238E1,4.237483E0,1.2535055E1,0E0,1.0764179E0,1.4510711E1,0E0,0E0,0E0,0E0,0E0],"parents":[2147483647,0,0,1,1,2,2,4,4,5,5],"right_children":[2,4,6,-1,8,10,-1,-1,-1,-1,-1],"split_conditions":[1.5637674E0,2.6941139E-1,2.3515366E-1,-8.624849E-3,2.2321372E-1,1.5966927E-1,-1.158702E-1,1.2595396E-1,-0E0,9.3068056E-2,-1.7995635E-3],"split_indices":[1459,4975,184,0,1463,4772,0,0,0,0,0],"split_type":[0,0,0,0,0,0,0,0,0,0,0],"sum_hessian":[2.7333438E2,1.3116221E1,2.6021817E2,1.2402731E0,1.1875949E1,2.5321379E2,7.004365E0,1.071245E1,1.1634982E0,1.5177831E1,2.3803596E2],"tree_param":{"num_deleted":"0","num_feature":"5000","num_nodes":"11","size_leaf_vector":"1"}},{"base_weights":[2.126947E-2,1.1739973E-1,-1.9239897E-2,9.2738025E-2,-7.905218E-2,-1.2550183E-2,1.09662734E-1],"categories":[],"categories_nodes":[],"categories_segments":[],"categories_sizes":[],"default_left":[0,0,0,0,1,0,0],"id":44,"left_children":[1,-1,3,-1,5,-1,-1],"loss_changes":[1.4076528E1,0E0,1.4445161E1,0E0,1.3200059E1,0E0,0E0],"parents":[2147483647,0,0,2,2,4,4],"right_children":[2,-1,4,-1,6,-1,-1],"split_conditions":[1E0,1.1739973E-1,2.00001E0,9.2738025E-2,1.7836094E-1,-1.2550183E-2,1.09662734E-1],"split_indices":[4584,0,4519,0,1459,0,0],"split_type":[0,0,0,0,0,0,0],"sum_hessian":[2.7375208E2,8.231849E0,2.6552023E2,1.3062215E1,2.5245802E2,2.4539966E2,7.058362E0],"tree_param":{"num_deleted":"0","num_feature":"5000","num_nodes":"7","size_leaf_vector":"1"}},{"base_weights":[4.455636E-2,1.0609372E-1,-0E0,1.02764286E-1,-3.685177E-2,1.1971577E-1,-7.4905655E-3],"categories":[],"categories_nodes":[],"categories_segments":[],"categories_sizes":[],"default_left":[0,0,0,0,0,0,0],"id":45,"left_children":[1,-1,3,-1,5,-1,-1],"loss_changes":[1.14606085E1,0E0,1.0478229E1,0E0,1.0849293E1,0E0,0E0],"parents":[2147483647,0,0,2,2,4,4],"right_children":[2,-1,4,-1,6,-1,-1],"split_conditions":[4.420806E-1,1.0609372E-1,2.00001E0,1.02764286E-1,2.00001E0,1.1971577E-1,-7.4905655E-3],"split_indices":[2767,0,4584,0,4120,0,0],"split_type":[0,0,0,0,0,0,0],"sum_hessian":[2.6537024E2,8.653467E0,2.5671677E2,7.599165E0,2.491176E2,4.843851E0,2.4427374E2],"tree_param":{"num_deleted":"0","num_feature":"5000","num_nodes":"7","size_leaf_vector":"1"}},{"base_weights":[2.7701741E-2,7.0135914E-2,-1.1976007E-1,9.4791435E-2,1.8143594E-2,8.654559E-2,-2.9575722E-3],"categories":[],"categories_nodes":[],"categories_segments":[],"categories_sizes":[],"default_left":[1,0,0,0,0,0,0],"id":46,"left_children":[1,3,-1,-1,5,-1,-1],"loss_changes":[1.3179103E1,1.111635E1,0E0,0E0,1.1147701E1,0E0,0E0],"parents":[2147483647,0,0,1,1,4,4],"right_children":[2,4,-1,-1,6,-1,-1],"split_conditions":[1.8796296E-1,8.006524E-1,-1.1976007E-1,9.4791435E-2,2.00001E0,8.654559E-2,-2.9575722E-3],"split_indices":[3162,295,0,0,400,0,0],"split_type":[0,0,0,0,0,0,0],"sum_hessian":[2.6992346E2,2.634997E2,6.423768E0,1.1732051E1,2.5176765E2,1.271319E1,2.3905446E2],"tree_param":{"num_deleted":"0","num_feature":"5000","num_nodes":"7","size_leaf_vector":"1"}},{"base_weights":[-0E0,1.0089692E-1,-3.988512E-2,1.1212976E-1,-7.7404246E-2,8.255007E-2,-1.2645799E-2],"categories":[],"categories_nodes":[],"categories_segments":[],"categories_sizes":[],"default_left":[0,0,0,0,0,0,0],"id":47,"left_children":[1,-1,3,-1,5,-1,-1],"loss_changes":[1.1099794E1,0E0,1.0597224E1,0E0,1.0922838E1,0E0,0E0],"parents":[2147483647,0,0,2,2,4,4],"right_children":[2,-1,4,-1,6,-1,-1],"split_conditions":[1.0542989E0,1.0089692E-1,6.986027E-1,1.1212976E-1,8.006524E-1,8.255007E-2,-1.2645799E-2],"split_indices":[2554,0,2023,0,295,0,0],"split_type":[0,0,0,0,0,0,0],"sum_hessian":[2.697107E2,8.492006E0,2.612187E2,5.5336027E0,2.556851E2,1.0493541E1,2.4519156E2],"tree_param":{"num_deleted":"0","num_feature":"5000","num_nodes":"7","size_leaf_vector":"1"}},{"base_weights":[9.231434E-3,1.0314854E-1,-3.1337887E-2,1.03515945E-1,-7.184863E-2,-1.3525464E-2,6.007911E-2],"categories":[],"categories_nodes":[],"categories_segments":[],"categories_sizes":[],"default_left":[0,0,0,0,1,0,0],"id":48,"left_children":[1,-1,3,-1,5,-1,-1],"loss_changes":[1.2375046E1,0E0,1.056161E1,0E0,1.0634295E1,0E0,0E0],"parents":[2147483647,0,0,2,2,4,4],"right_children":[2,-1,4,-1,6,-1,-1],"split_conditions":[1.0542989E0,1.0314854E-1,1.0827869E0,1.03515945E-1,1.1901199E-1,-1.3525464E-2,6.007911E-2],"split_indices":[2554,0,4062,0,4979,0,0],"split_type":[0,0,0,0,0,0,0],"sum_hessian":[2.7071918E2,9.4099E0,2.6130927E2,6.8622217E0,2.5444704E2,2.3534674E2,1.9100307E1],"tree_param":{"num_deleted":"0","num_feature":"5000","num_nodes":"7","size_leaf_vector":"1"}},{"base_weights":[3.566068E-2,8.456636E-2,-1.0312929E-1,1.2965176E-1,-1.0342485E-1,1.6892873E-2,-9.3241066E-2],"categories":[],"categories_nodes":[],"categories_segments":[],"categories_sizes":[],"default_left":[1,1,0,1,0,0,0],"id":49,"left_children":[1,3,-1,5,-1,-1,-1],"loss_changes":[1.347875E1,1.2674653E1,0E0,1.0243069E1,0E0,0E0,0E0],"parents":[2147483647,0,0,1,1,3,3],"right_children":[2,4,-1,6,-1,-1,-1],"split_conditions":[1.7563087E-1,1.4925168E-1,-1.0312929E-1,2.9744616E-1,-1.0342485E-1,1.6892873E-2,-9.3241066E-2],"split_indices":[1786,184,0,1043,0,0,0],"split_type":[0,0,0,0,0,0,0],"sum_hessian":[2.7111282E2,2.6188748E2,9.225342E0,2.543018E2,7.585678E0,2.4776254E2,6.539255E0],"tree_param":{"num_deleted":"0","num_feature":"5000","num_nodes":"7","size_leaf_vector":"1"}},{"base_weights":[-0E0,6.0256638E-2,-8.1377685E-2,1.10001944E-1,-8.3786154E-1,1.5157397E-2,-9.072173E-2,-9.508908E-2,-0E0],"categories":[],"categories_nodes":[],"categories_segments":[],"categories_sizes":[],"default_left":[1,1,0,1,1,0,0,0,0],"id":50,"left_children":[1,3,-1,5,7,-1,-1,-1,-1],"loss_changes":[1.2502368E1,1.0736124E1,0E0,9.754862E0,1.5325537E0,0E0,0E0,0E0,0E0],"parents":[2147483647,0,0,1,1,3,3,4,4],"right_children":[2,4,-1,6,8,-1,-1,-1,-1],"split_conditions":[2.1715556E-1,2.3047219E-1,-8.1377685E-2,1.9155987E-1,3.2592225E-1,1.5157397E-2,-9.072173E-2,-9.508908E-2,-0E0],"split_indices":[2200,4803,0,1786,2475,0,0,0,0],"split_type":[0,0,0,0,0,0,0,0,0],"sum_hessian":[2.6596506E2,2.5047017E2,1.5494881E1,2.4004305E2,1.0427115E1,2.3319771E2,6.8453407E0,9.343304E0,1.083812E0],"tree_param":{"num_deleted":"0","num_feature":"5000","num_nodes":"9","size_leaf_vector":"1"}},{"base_weights":[-2.6137136E-2,5.5170435E-2,-6.38435E-1,9.913579E-2,-1.0470902E-1,1.0026856E-2,-7.0521563E-1,1.0093581E-1,5.44466E-3,-7.655219E-2,-0E0],"categories":[],"categories_nodes":[],"categories_segments":[],"categories_sizes":[],"default_left":[1,1,0,0,0,0,1,0,0,0,0],"id":51,"left_children":[1,3,5,7,-1,-1,9,-1,-1,-1,-1],"loss_changes":[1.38869505E1,1.0650493E1,2.3624716E0,8.130521E0,0E0,0E0,1.7668037E0,0E0,0E0,0E0,0E0],"parents":[2147483647,0,0,1,1,2,2,3,3,6,6],"right_children":[2,4,6,8,-1,-1,10,-1,-1,-1,-1],"split_conditions":[9.339339E-2,2.319505E-1,2.9850292E-1,1.3475757E0,-1.0470902E-1,1.0026856E-2,2.0620306E-1,1.0093581E-1,5.44466E-3,-7.655219E-2,-0E0],"split_indices":[4259,184,3983,1326,0,0,2016,0,0,0,0],"split_type":[0,0,0,0,0,0,0,0,0,0,0],"sum_hessian":[2.638107E2,2.3305032E2,3.0760357E1,2.2673404E2,6.3162856E0,1.2256227E0,2.9534735E1,7.5433416E0,2.191907E2,2.7776854E1,1.7578816E0],"tree_param":{"num_deleted":"0","num_feature":"5000","num_nodes":"11","size_leaf_vector":"1"}},{"base_weights":[-0E0,1.0539492E-1,-4.2150564E-2,9.738641E-2,-8.165994E-2,7.558929E-2,-1.3110069E-2],"categories":[],"categories_nodes":[],"categories_segments":[],"categories_sizes":[],"default_left":[0,0,0,0,0,0,0],"id":52,"left_children":[1,-1,3,-1,5,-1,-1],"loss_changes":[1.09248705E1,0E0,9.486647E0,0E0,9.836829E0,0E0,0E0],"parents":[2147483647,0,0,2,2,4,4],"right_children":[2,-1,4,-1,6,-1,-1],"split_conditions":[2.00001E0,1.0539492E-1,1.0827869E0,9.738641E-2,2.00001E0,7.558929E-2,-1.3110069E-2],"split_indices":[4584,0,4062,0,400,0,0],"split_type":[0,0,0,0,0,0,0],"sum_hessian":[2.6001834E2,7.427857E0,2.5259048E2,6.736924E0,2.4585356E2,1.0983481E1,2.3487009E2],"tree_param":{"num_deleted":"0","num_feature":"5000","num_nodes":"7","size_leaf_vector":"1"}},{"base_weights":[8.3241053E-4,8.6043626E-2,-4.5599658E-2,7.698158E-1,-1.02403365E-1,8.55258E-2,-0E0,1.09853946E-1,-1.3715099E-2],"categories":[],"categories_nodes":[],"categories_segments":[],"categories_sizes":[],"default_left":[0,0,0,1,0,0,0,0,0],"id":53,"left_children":[1,-1,3,5,7,-1,-1,-1,-1],"loss_changes":[1.1430634E1,0E0,1.112883E1,1.364603E0,9.264132E0,0E0,0E0,0E0,0E0],"parents":[2147483647,0,0,2,2,3,3,4,4],"right_children":[2,-1,4,6,8,-1,-1,-1,-1],"split_conditions":[2.00001E0,8.6043626E-2,1.5966927E-1,9.8580346E-2,2.00001E0,8.55258E-2,-0E0,1.09853946E-1,-1.3715099E-2],"split_indices":[4519,0,4772,3121,4120,0,0,0,0],"split_type":[0,0,0,0,0,0,0,0,0],"sum_hessian":[2.6200616E2,1.273402E1,2.4927213E2,1.3452534E1,2.358196E2,1.2384845E1,1.067689E0,4.100206E0,2.3171939E2],"tree_param":{"num_deleted":"0","num_feature":"5000","num_nodes":"9","size_leaf_vector":"1"}},{"base_weights":[4.16746E-2,8.685299E-2,-9.486662E-2,-9.813114E-2,1.243572E-1,1.654112E-2,-7.739144E-2],"categories":[],"categories_nodes":[],"categories_segments":[],"categories_sizes":[],"default_left":[1,0,0,0,1,0,0],"id":54,"left_children":[1,3,-1,-1,5,-1,-1],"loss_changes":[1.1276173E1,9.751927E0,0E0,0E0,8.963971E0,0E0,0E0],"parents":[2147483647,0,0,1,1,4,4],"right_children":[2,4,-1,-1,6,-1,-1],"split_conditions":[1.4500271E-1,2.00001E0,-9.486662E-2,-9.813114E-2,3.543584E-1,1.654112E-2,-7.739144E-2],"split_indices":[1786,184,0,0,2200,0,0],"split_type":[0,0,0,0,0,0,0],"sum_hessian":[2.6560532E2,2.5672797E2,8.877329E0,6.096553E0,2.5063142E2,2.4230237E2,8.329057E0],"tree_param":{"num_deleted":"0","num_feature":"5000","num_nodes":"7","size_leaf_vector":"1"}},{"base_weights":[3.5601802E-2,8.6125635E-2,-3.4110693E-4,-5.1790044E-2,7.571264E-2,9.699056E-2,-9.275472E-3],"categories":[],"categories_nodes":[],"categories_segments":[],"categories_sizes":[],"default_left":[0,0,1,0,0,0,0],"id":55,"left_children":[1,-1,3,5,-1,-1,-1],"loss_changes":[8.630269E0,0E0,9.182075E0,9.297366E0,0E0,0E0,0E0],"parents":[2147483647,0,0,2,2,3,3],"right_children":[2,-1,4,6,-1,-1,-1],"split_conditions":[2.00001E0,8.6125635E-2,2.042867E-1,1.6912858E0,7.571264E-2,9.699056E-2,-9.275472E-3],"split_indices":[4519,0,4979,4550,0,0,0],"split_type":[0,0,0,0,0,0,0],"sum_hessian":[2.597824E2,1.0082096E1,2.4970032E2,2.3679977E2,1.290054E1,6.4390693E0,2.303607E2],"tree_param":{"num_deleted":"0","num_feature":"5000","num_nodes":"7","size_leaf_vector":"1"}},{"base_weights":[1.873658E-2,8.4397006E-1,-2.113435E-2,9.045305E-2,-0E0,9.433807E-2,-6.404284E-2,-1.0389596E-2,1.0062905E-1],"categories":[],"categories_nodes":[],"categories_segments":[],"categories_sizes":[],"default_left":[0,1,0,0,0,0,1,0,0],"id":56,"left_children":[1,3,5,-1,-1,-1,7,-1,-1],"loss_changes":[9.166254E0,5.3018856E-1,9.242462E0,0E0,0E0,0E0,9.297821E0,0E0,0E0],"parents":[2147483647,0,0,1,1,2,2,6,6],"right_children":[2,4,6,-1,-1,-1,8,-1,-1],"split_conditions":[2.00001E0,9.266516E-2,1.0542989E0,9.045305E-2,-0E0,9.433807E-2,1.7836094E-1,-1.0389596E-2,1.0062905E-1],"split_indices":[3261,435,2554,0,0,0,1459,0,0],"split_type":[0,0,0,0,0,0,0,0,0],"sum_hessian":[2.5049338E2,1.0841703E1,2.3965167E2,9.827718E0,1.0139861E0,7.4270115E0,2.3222466E2,2.2653012E2,5.694543E0],"tree_param":{"num_deleted":"0","num_feature":"5000","num_nodes":"9","size_leaf_vector":"1"}},{"base_weights":[1.040631E-2,-2.5443332E-2,1.0364623E-1,1.1222126E-1,-6.369144E-2,9.462972E-2,-1.0625627E-2],"categories":[],"categories_nodes":[],"categories_segments":[],"categories_sizes":[],"default_left":[1,0,0,0,0,0,0],"id":57,"left_children":[1,3,-1,-1,5,-1,-1],"loss_changes":[1.0435302E1,9.934706E0,0E0,0E0,9.762355E0,0E0,0E0],"parents":[2147483647,0,0,1,1,4,4],"right_children":[2,4,-1,-1,6,-1,-1],"split_conditions":[7.58246E-2,1.3972154E0,1.0364623E-1,1.1222126E-1,2.00001E0,9.462972E-2,-1.0625627E-2],"split_indices":[1326,2023,0,0,4584,0,0],"split_type":[0,0,0,0,0,0,0],"sum_hessian":[2.5277402E2,2.4518329E2,7.590724E0,5.2363997E0,2.3994688E2,7.0360646E0,2.3291083E2],"tree_param":{"num_deleted":"0","num_feature":"5000","num_nodes":"7","size_leaf_vector":"1"}},{"base_weights":[-0E0,1.23969994E-1,-3.3704888E-2,8.327077E-1,-8.930666E-2,1.04708426E-1,-2.7910203E-2,8.394379E-2,-1.3629446E-2],"categories":[],"categories_nodes":[],"categories_segments":[],"categories_sizes":[],"default_left":[0,0,0,1,0,0,0,0,0],"id":58,"left_children":[1,-1,3,5,7,-1,-1,-1,-1],"loss_changes":[1.2060121E1,0E0,1.1654677E1,4.7948885E0,1.007904E1,0E0,0E0,0E0,0E0],"parents":[2147483647,0,0,2,2,3,3,4,4],"right_children":[2,-1,4,6,8,-1,-1,-1,-1],"split_conditions":[5.0202274E-1,1.23969994E-1,1.5637674E0,2.3085035E-1,1.6013148E0,1.04708426E-1,-2.7910203E-2,8.394379E-2,-1.3629446E-2],"split_indices":[4646,0,1459,1485,295,0,0,0,0],"split_type":[0,0,0,0,0,0,0,0,0],"sum_hessian":[2.5793185E2,5.6593137E0,2.5227254E2,1.2442961E1,2.3982957E2,1.1283224E1,1.1597368E0,8.900149E0,2.3092943E2],"tree_param":{"num_deleted":"0","num_feature":"5000","num_nodes":"9","size_leaf_vector":"1"}},{"base_weights":[-2.425096E-3,6.674181E-2,-6.2021196E-2,1.09175615E-1,-9.674261E-2,1.1509879E-1,-1.2810551E-2],"categories":[],"categories_nodes":[],"categories_segments":[],"categories_sizes":[],"default_left":[0,0,0,0,0,0,0],"id":59,"left_children":[1,-1,3,-1,5,-1,-1],"loss_changes":[9.712272E0,0E0,8.776268E0,0E0,8.442518E0,0E0,0E0],"parents":[2147483647,0,0,2,2,4,4],"right_children":[2,-1,4,-1,6,-1,-1],"split_conditions":[5.9912914E-1,6.674181E-2,3.925559E-1,1.09175615E-1,2.00001E0,1.1509879E-1,-1.2810551E-2],"split_indices":[324,0,4646,0,4565,0,0],"split_type":[0,0,0,0,0,0,0],"sum_hessian":[2.5438455E2,1.7746075E1,2.3663847E2,4.293108E0,2.3234537E2,3.1645637E0,2.291808E2],"tree_param":{"num_deleted":"0","num_feature":"5000","num_nodes":"7","size_leaf_vector":"1"}},{"base_weights":[5.599071E-2,8.58321E-1,7.028209E-3,1.0841622E-1,-2.6522143E-2,8.926564E-2,-3.2399375E-2,-9.655857E-3,6.539195E-2],"categories":[],"categories_nodes":[],"categories_segments":[],"categories_sizes":[],"default_left":[0,1,0,0,0,0,1,0,0],"id":60,"left_children":[1,3,5,-1,-1,-1,7,-1,-1],"loss_changes":[9.249477E0,4.8539257E0,9.513229E0,0E0,0E0,0E0,9.983241E0,0E0,0E0],"parents":[2147483647,0,0,1,1,2,2,6,6],"right_children":[2,4,6,-1,-1,-1,8,-1,-1],"split_conditions":[5.572719E-1,2.7572533E-1,2.00001E0,1.0841622E-1,-2.6522143E-2,8.926564E-2,1.5458147E-1,-9.655857E-3,6.539195E-2],"split_indices":[1459,1485,3261,0,0,0,4979,0,0],"split_type":[0,0,0,0,0,0,0,0,0],"sum_hessian":[2.5578606E2,1.1635489E1,2.4415057E2,1.0487549E1,1.1479406E0,9.642457E0,2.3450812E2,2.1736394E2,1.714418E1],"tree_param":{"num_deleted":"0","num_feature":"5000","num_nodes":"9","size_leaf_vector":"1"}},{"base_weights":[1.721191E-2,5.9833765E-2,-9.755268E-2,1.1601239E-1,2.1666678E-2,1.0445049E-1,-1.1763595E-3],"categories":[],"categories_nodes":[],"categories_segments":[],"categories_sizes":[],"default_left":[1,0,0,0,0,0,0],"id":61,"left_children":[1,3,-1,-1,5,-1,-1],"loss_changes":[1.0099633E1,9.259154E0,0E0,0E0,9.41299E0,0E0,0E0],"parents":[2147483647,0,0,1,1,4,4],"right_children":[2,4,-1,-1,6,-1,-1],"split_conditions":[1.7563087E-1,8.2201856E-1,-9.755268E-2,1.1601239E-1,1.0827869E0,1.0445049E-1,-1.1763595E-3],"split_indices":[1786,1293,0,0,4062,0,0],"split_type":[0,0,0,0,0,0,0],"sum_hessian":[2.5557452E2,2.4782143E2,7.7530966E0,5.4588866E0,2.4236255E2,6.7029324E0,2.356596E2],"tree_param":{"num_deleted":"0","num_feature":"5000","num_nodes":"7","size_leaf_vector":"1"}},{"base_weights":[5.9051037E-2,9.370477E-2,-9.493747E-2,1.4497797E-1,-5.6458134E-2,1.0677385E-1,1.103665E-2],"categories":[],"categories_nodes":[],"categories_segments":[],"categories_sizes":[],"default_left":[1,1,0,0,0,0,0],"id":62,"left_children":[1,3,-1,5,-1,-1,-1],"loss_changes":[8.283017E0,8.205152E0,0E0,6.1097436E0,0E0,0E0,0E0],"parents":[2147483647,0,0,1,1,3,3],"right_children":[2,4,-1,6,-1,-1,-1],"split_conditions":[2.9744616E-1,1.6525024E-1,-9.493747E-2,3.925559E-1,-5.6458134E-2,1.0677385E-1,1.103665E-2],"split_indices":[1043,2200,0,4646,0,0,0],"split_type":[0,0,0,0,0,0,0],"sum_hessian":[2.5441956E2,2.4867969E2,5.7398744E0,2.3356609E2,1.511359E1,5.2412353E0,2.2832486E2],"tree_param":{"num_deleted":"0","num_feature":"5000","num_nodes":"7","size_leaf_vector":"1"}},{"base_weights":[1.2568756E-2,7.734824E-1,-3.5467308E-2,9.2030066E-1,-1.0473158E-2,8.184368E-2,-8.488877E-2,-0E0,1.0128567E-1,7.5059734E-2,-1.2976949E-2],"categories":[],"categories_nodes":[],"categories_segments":[],"categories_sizes":[],"default_left":[0,1,0,0,0,0,0,0,0,0,0],"id":63,"left_children":[1,3,5,7,-1,-1,9,-1,-1,-1,-1],"loss_changes":[1.0130842E1,3.1350641E0,9.575102E0,1.4348707E0,0E0,0E0,8.225196E0,0E0,0E0,0E0,0E0],"parents":[2147483647,0,0,1,1,2,2,3,3,6,6],"right_children":[2,4,6,8,-1,-1,10,-1,-1,-1,-1],"split_conditions":[1.5966927E-1,2.3515366E-1,2.00001E0,1.3774398E-1,-1.0473158E-2,8.184368E-2,2.00001E0,-0E0,1.0128567E-1,7.5059734E-2,-1.2976949E-2],"split_indices":[4772,184,400,2016,0,0,4519,0,0,0,0],"split_type":[0,0,0,0,0,0,0,0,0,0,0],"sum_hessian":[2.534755E2,1.4494192E1,2.3898131E2,1.3311609E1,1.1825824E0,1.0265154E1,2.2871616E2,1.2718532E0,1.2039756E1,8.920728E0,2.1979543E2],"tree_param":{"num_deleted":"0","num_feature":"5000","num_nodes":"11","size_leaf_vector":"1"}},{"base_weights":[2.9492695E-2,-1.7392756E-2,6.633949E-1,5.369725E-1,-9.024959E-2,-0E0,7.364136E-2,6.262752E-2,-1.7650595E-2,7.9944946E-2,-1.3778264E-2],"categories":[],"categories_nodes":[],"categories_segments":[],"categories_sizes":[],"default_left":[1,0,0,1,0,0,0,0,0,0,0],"id":64,"left_children":[1,3,5,7,9,-1,-1,-1,-1,-1,-1],"loss_changes":[8.112897E0,9.088751E0,1.3216543E0,2.3171535E0,8.433257E0,0E0,0E0,0E0,0E0,0E0,0E0],"parents":[2147483647,0,0,1,1,2,2,3,3,4,4],"right_children":[2,4,6,8,10,-1,-1,-1,-1,-1,-1],"split_conditions":[1.1901199E-1,3.0555978E-1,4.5393676E-1,2.1060897E-1,1.6013148E0,-0E0,7.364136E-2,6.262752E-2,-1.7650595E-2,7.9944946E-2,-1.3778264E-2],"split_indices":[4979,2016,4800,1794,295,0,0,0,0,0,0],"split_type":[0,0,0,0,0,0,0,0,0,0,0],"sum_hessian":[2.4845831E2,2.316894E2,1.6768902E1,2.3838326E1,2.0785109E2,1.1004064E0,1.5668494E1,2.2649437E1,1.1888888E0,7.869941E0,1.9998114E2],"tree_param":{"num_deleted":"0","num_feature":"5000","num_nodes":"11","size_leaf_vector":"1"}},{"base_weights":[-8.3163276E-4,8.730157E-2,-4.5952525E-2,7.784351E-2,-8.8700846E-2,8.986692E-2,-1.2651147E-2],"categories":[],"categories_nodes":[],"categories_segments":[],"categories_sizes":[],"default_left":[0,0,0,0,0,0,0],"id":65,"left_children":[1,-1,3,-1,5,-1,-1],"loss_changes":[8.97818E0,0E0,7.8190384E0,0E0,7.995708E0,0E0,0E0],"parents":[2147483647,0,0,2,2,4,4],"right_children":[2,-1,4,-1,6,-1,-1],"split_conditions":[2.00001E0,8.730157E-2,2.00001E0,7.784351E-2,4.420806E-1,8.986692E-2,-1.2651147E-2],"split_indices":[3261,0,400,0,2767,0,0],"split_type":[0,0,0,0,0,0,0],"sum_hessian":[2.4464754E2,9.122107E0,2.3552544E2,8.760961E0,2.2676447E2,5.7086425E0,2.2105583E2],"tree_param":{"num_deleted":"0","num_feature":"5000","num_nodes":"7","size_leaf_vector":"1"}},{"base_weights":[6.1770003E-2,1.03299074E-1,-1.0165391E-1,9.9524856E-2,6.572988E-2,1.0166337E-1,2.761411E-3],"categories":[],"categories_nodes":[],"categories_segments":[],"categories_sizes":[],"default_left":[1,0,0,0,0,0,0],"id":66,"left_children":[1,3,-1,-1,5,-1,-1],"loss_changes":[1.0362374E1,6.8722754E0,0E0,0E0,7.3858495E0,0E0,0E0],"parents":[2147483647,0,0,1,1,4,4],"right_children":[2,4,-1,-1,6,-1,-1],"split_conditions":[2.693407E-1,1.0827869E0,-1.0165391E-1,9.9524856E-2,1.6912858E0,1.0166337E-1,2.761411E-3],"split_indices":[171,4062,0,0,4550,0,0],"split_type":[0,0,0,0,0,0,0],"sum_hessian":[2.451038E2,2.3864848E2,6.4553194E0,6.509253E0,2.3213924E2,5.956535E0,2.261827E2],"tree_param":{"num_deleted":"0","num_feature":"5000","num_nodes":"7","size_leaf_vector":"1"}},{"base_weights":[-0E0,9.125059E-2,-3.6746383E-2,7.597808E-2,-7.8761436E-2,5.4924544E-2,-1.3457844E-2],"categories":[],"categories_nodes":[],"categories_segments":[],"categories_sizes":[],"default_left":[0,0,0,0,0,0,0],"id":67,"left_children":[1,-1,3,-1,5,-1,-1],"loss_changes":[8.199836E0,0E0,7.533717E0,0E0,7.8926625E0,0E0,0E0],"parents":[2147483647,0,0,2,2,4,4],"right_children":[2,-1,4,-1,6,-1,-1],"split_conditions":[1.0542989E0,9.125059E-2,2.00001E0,7.597808E-2,1.1982683E0,5.4924544E-2,-1.3457844E-2],"split_indices":[2554,0,4519,0,324,0,0],"split_type":[0,0,0,0,0,0,0],"sum_hessian":[2.4734338E2,7.4554186E0,2.3988795E2,9.115072E0,2.3077289E2,1.5931287E1,2.148416E2],"tree_param":{"num_deleted":"0","num_feature":"5000","num_nodes":"7","size_leaf_vector":"1"}},{"base_weights":[-1.933671E-2,7.9385906E-1,-6.654859E-2,-1.838429E-2,1.0619863E-1,9.961187E-2,-1.0780425E-1,9.012876E-2,-1.4674552E-2],"categories":[],"categories_nodes":[],"categories_segments":[],"categories_sizes":[],"default_left":[0,0,0,0,0,0,0,0,0],"id":68,"left_children":[1,3,5,-1,-1,-1,7,-1,-1],"loss_changes":[8.923652E0,4.580823E0,9.760154E0,0E0,0E0,0E0,8.618855E0,0E0,0E0],"parents":[2147483647,0,0,1,1,2,2,6,6],"right_children":[2,4,6,-1,-1,-1,8,-1,-1],"split_conditions":[1.5637674E0,5.9752244E-1,2.00001E0,-1.838429E-2,1.0619863E-1,9.961187E-2,4.1378665E-1,9.012876E-2,-1.4674552E-2],"split_indices":[1459,1485,4584,0,0,0,1326,0,0],"split_type":[0,0,0,0,0,0,0,0,0],"sum_hessian":[2.4662408E2,1.0634834E1,2.3598926E2,1.6214563E0,9.013378E0,6.183554E0,2.298057E2,5.938966E0,2.2386673E2],"tree_param":{"num_deleted":"0","num_feature":"5000","num_nodes":"9","size_leaf_vector":"1"}},{"base_weights":[1.06513575E-2,1.0477252E-1,-1.6448792E-2,4.716993E-2,-5.503583E-1,8.757788E-3,-8.4647655E-2,1.9824827E-2,-6.463652E-2],"categories":[],"categories_nodes":[],"categories_segments":[],"categories_sizes":[],"default_left":[0,0,1,1,0,0,0,0,0],"id":69,"left_children":[1,-1,3,5,7,-1,-1,-1,-1],"loss_changes":[7.9439826E0,0E0,8.691202E0,7.12413E0,2.6689568E0,0E0,0E0,0E0,0E0],"parents":[2147483647,0,0,2,2,3,3,4,4],"right_children":[2,-1,4,6,8,-1,-1,-1,-1],"split_conditions":[5.0202274E-1,1.0477252E-1,9.339339E-2,2.9439923E-1,2.710469E-1,8.757788E-3,-8.4647655E-2,1.9824827E-2,-6.463652E-2],"split_indices":[4646,0,4259,4803,324,0,0,0,0],"split_type":[0,0,0,0,0,0,0,0,0],"sum_hessian":[2.427349E2,5.203004E0,2.3753189E2,2.1219753E2,2.533436E1,2.0581425E2,6.3832784E0,1.4536712E0,2.388069E1],"tree_param":{"num_deleted":"0","num_feature":"5000","num_nodes":"9","size_leaf_vector":"1"}},{"base_weights":[-0E0,1.11184515E-1,-2.7178816E-2,1.1448343E-1,-5.727742E-2,7.5894974E-2,-1.0165273E-2],"categories":[],"categories_nodes":[],"categories_segments":[],"categories_sizes":[],"default_left":[0,0,0,0,0,0,0],"id":70,"left_children":[1,-1,3,-1,5,-1,-1],"loss_changes":[7.93561E0,0E0,7.486464E0,0E0,8.04797E0,0E0,0E0],"parents":[2147483647,0,0,2,2,4,4],"right_children":[2,-1,4,-1,6,-1,-1],"split_conditions":[2.00001E0,1.11184515E-1,2.00001E0,1.1448343E-1,2.00001E0,7.5894974E-2,-1.0165273E-2],"split_indices":[4120,0,3319,0,4519,0,0],"split_type":[0,0,0,0,0,0,0],"sum_hessian":[2.416143E2,4.276343E0,2.3733795E2,3.2559948E0,2.3408195E2,9.247374E0,2.248346E2],"tree_param":{"num_deleted":"0","num_feature":"5000","num_nodes":"7","size_leaf_vector":"1"}},{"base_weights":[-5.5400315E-3,7.978987E-2,-4.4936582E-2,-7.725005E-2,8.871225E-2,-1.0954618E-2,8.494907E-2],"categories":[],"categories_nodes":[],"categories_segments":[],"categories_sizes":[],"default_left":[0,0,1,1,0,0,0],"id":71,"left_children":[1,-1,3,5,-1,-1,-1],"loss_changes":[7.034695E0,0E0,6.418613E0,6.343322E0,0E0,0E0,0E0],"parents":[2147483647,0,0,2,2,3,3],"right_children":[2,-1,4,6,-1,-1,-1],"split_conditions":[2.00001E0,7.978987E-2,7.58246E-2,1.7836094E-1,8.871225E-2,-1.0954618E-2,8.494907E-2],"split_indices":[4519,0,1326,1459,0,0,0],"split_type":[0,0,0,0,0,0,0],"sum_hessian":[2.4176886E2,8.31462E0,2.3345424E2,2.2844156E2,5.0126867E0,2.2349556E2,4.9459944E0],"tree_param":{"num_deleted":"0","num_feature":"5000","num_nodes":"7","size_leaf_vector":"1"}},{"base_weights":[3.001769E-2,8.676319E-2,-0E0,9.963587E-2,-2.884124E-2,7.614924E-2,-6.8903826E-3],"categories":[],"categories_nodes":[],"categories_segments":[],"categories_sizes":[],"default_left":[0,0,0,0,0,0,0],"id":72,"left_children":[1,-1,3,-1,5,-1,-1],"loss_changes":[6.4997993E0,0E0,6.493685E0,0E0,6.7981467E0,0E0,0E0],"parents":[2147483647,0,0,2,2,4,4],"right_children":[2,-1,4,-1,6,-1,-1],"split_conditions":[1.0542989E0,8.676319E-2,1.3972154E0,9.963587E-2,2.00001E0,7.614924E-2,-6.8903826E-3],"split_indices":[2554,0,2023,0,400,0,0],"split_type":[0,0,0,0,0,0,0],"sum_hessian":[2.425369E2,6.9270396E0,2.3560986E2,4.3457813E0,2.3126408E2,8.2155695E0,2.2304851E2],"tree_param":{"num_deleted":"0","num_feature":"5000","num_nodes":"7","size_leaf_vector":"1"}},{"base_weights":[5.8794968E-2,9.791803E-2,2.4505591E-2,-2.018131E-2,6.3585585E-1,9.039154E-2,-6.166686E-3,-0E0,7.03459E-2],"categories":[],"categories_nodes":[],"categories_segments":[],"categories_sizes":[],"default_left":[0,0,1,0,0,0,0,0,0],"id":73,"left_children":[1,-1,3,5,7,-1,-1,-1,-1],"loss_changes":[6.5851307E0,0E0,7.0993385E0,7.730188E0,9.670973E-1,0E0,0E0,0E0,0E0],"parents":[2147483647,0,0,2,2,3,3,4,4],"right_children":[2,-1,4,6,8,-1,-1,-1,-1],"split_conditions":[1.6912858E0,9.791803E-2,1.153361E-1,1.0827869E0,4.5393676E-1,9.039154E-2,-6.166686E-3,-0E0,7.03459E-2],"split_indices":[4550,0,4979,4062,4800,0,0,0,0],"split_type":[0,0,0,0,0,0,0,0,0],"sum_hessian":[2.399817E2,5.5925236E0,2.3438919E2,2.1870137E2,1.5687813E1,6.574361E0,2.1212701E2,1.281976E0,1.4405837E1],"tree_param":{"num_deleted":"0","num_feature":"5000","num_nodes":"9","size_leaf_vector":"1"}},{"base_weights":[3.6959153E-2,8.566504E-2,-5.6972456E-1,1.22800194E-1,-8.4627494E-2,-0E0,-6.642545E-2,1.5528532E-2,-8.310066E-2],"categories":[],"categories_nodes":[],"categories_segments":[],"categories_sizes":[],"default_left":[1,1,0,1,0,0,0,0,0],"id":74,"left_children":[1,3,5,7,-1,-1,-1,-1,-1],"loss_changes":[6.5846176E0,7.1550736E0,1.3391886E0,6.272915E0,0E0,0E0,0E0,0E0,0E0],"parents":[2147483647,0,0,1,1,2,2,3,3],"right_children":[2,4,6,8,-1,-1,-1,-1,-1],"split_conditions":[1.48657E-1,1.4925168E-1,3.366335E-1,2.9744616E-1,-8.4627494E-2,-0E0,-6.642545E-2,1.5528532E-2,-8.310066E-2],"split_indices":[2200,184,4519,1043,0,0,0,0,0],"split_type":[0,0,0,0,0,0,0,0,0],"sum_hessian":[2.3391492E2,2.1964708E2,1.4267843E1,2.1393199E2,5.715088E0,1.2655915E0,1.3002253E1,2.0951894E2,4.413057E0],"tree_param":{"num_deleted":"0","num_feature":"5000","num_nodes":"9","size_leaf_vector":"1"}},{"base_weights":[4.4856584E-3,-3.0306756E-2,7.799956E-2,-6.870286E-2,9.161957E-2,-1.0703755E-2,9.399798E-2],"categories":[],"categories_nodes":[],"categories_segments":[],"categories_sizes":[],"default_left":[1,1,0,1,0,0,0],"id":75,"left_children":[1,3,-1,5,-1,-1,-1],"loss_changes":[7.2262225E0,7.5912876E0,0E0,7.9795012E0,0E0,0E0,0E0],"parents":[2147483647,0,0,1,1,3,3],"right_children":[2,4,-1,6,-1,-1,-1],"split_conditions":[2.2107893E-1,1.7836094E-1,7.799956E-2,7.58246E-2,9.161957E-2,-1.0703755E-2,9.399798E-2],"split_indices":[4979,1459,0,1326,0,0,0],"split_type":[0,0,0,0,0,0,0],"sum_hessian":[2.3628061E2,2.2674051E2,9.540102E0,2.2069893E2,6.0415897E0,2.1529582E2,5.4030943E0],"tree_param":{"num_deleted":"0","num_feature":"5000","num_nodes":"7","size_leaf_vector":"1"}},{"base_weights":[-8.199915E-4,1.0284181E-1,-3.3433568E-2,1.0255339E-1,-6.398493E-2,8.487477E-2,-9.967086E-3],"categories":[],"categories_nodes":[],"categories_segments":[],"categories_sizes":[],"default_left":[0,0,0,0,0,0,0],"id":76,"left_children":[1,-1,3,-1,5,-1,-1],"loss_changes":[7.184861E0,0E0,6.8403873E0,0E0,7.017356E0,0E0,0E0],"parents":[2147483647,0,0,2,2,4,4],"right_children":[2,-1,4,-1,6,-1,-1],"split_conditions":[1.3972154E0,1.0284181E-1,2.00001E0,1.0255339E-1,2.00001E0,8.487477E-2,-9.967086E-3],"split_indices":[2023,0,4120,0,4584,0,0],"split_type":[0,0,0,0,0,0,0],"sum_hessian":[2.396375E2,4.542845E0,2.3509465E2,3.8480253E0,2.3124663E2,5.9321146E0,2.2531451E2],"tree_param":{"num_deleted":"0","num_feature":"5000","num_nodes":"7","size_leaf_vector":"1"}},{"base_weights":[5.497715E-3,9.873987E-2,-1.7948251E-2,8.865177E-2,-4.8065126E-2,1.0177814E-1,-7.5480635E-3],"categories":[],"categories_nodes":[],"categories_segments":[],"categories_sizes":[],"default_left":[0,0,0,0,0,0,0],"id":77,"left_children":[1,-1,3,-1,5,-1,-1],"loss_changes":[6.472948E0,0E0,5.592216E0,0E0,5.88562E0,0E0,0E0],"parents":[2147483647,0,0,2,2,4,4],"right_children":[2,-1,4,-1,6,-1,-1],"split_conditions":[1.3972154E0,9.873987E-2,2.5934178E-1,8.865177E-2,2.00001E0,1.0177814E-1,-7.5480635E-3],"split_indices":[2023,0,1293,0,3319,0,0],"split_type":[0,0,0,0,0,0,0],"sum_hessian":[2.3551822E2,4.5696135E0,2.3094861E2,4.539618E0,2.2640898E2,2.9511545E0,2.2345784E2],"tree_param":{"num_deleted":"0","num_feature":"5000","num_nodes":"7","size_leaf_vector":"1"}},{"base_weights":[4.5566965E-2,8.375701E-2,-9.298037E-2,1.1867559E-1,-8.940779E-2,1.4812464E-2,-7.9023935E-2],"categories":[],"categories_nodes":[],"categories_segments":[],"categories_sizes":[],"default_left":[1,1,0,1,0,0,0],"id":78,"left_children":[1,3,-1,5,-1,-1,-1],"loss_changes":[8.046017E0,7.239516E0,0E0,5.571491E0,0E0,0E0,0E0],"parents":[2147483647,0,0,1,1,3,3],"right_children":[2,4,-1,6,-1,-1,-1],"split_conditions":[2.5938997E-1,2.1709503E-1,-9.298037E-2,2.573449E-1,-8.940779E-2,1.4812464E-2,-7.9023935E-2],"split_indices":[171,1786,0,4054,0,0,0],"split_type":[0,0,0,0,0,0,0],"sum_hessian":[2.325352E2,2.2651949E2,6.015726E0,2.2139343E2,5.1260457E0,2.1713257E2,4.2608657E0],"tree_param":{"num_deleted":"0","num_feature":"5000","num_nodes":"7","size_leaf_vector":"1"}},{"base_weights":[3.138153E-2,1.06604934E-1,2.830021E-3,8.959494E-2,-2.2457678E-2,7.649858E-2,-6.126E-3],"categories":[],"categories_nodes":[],"categories_segments":[],"categories_sizes":[],"default_left":[0,0,0,0,0,0,0],"id":79,"left_children":[1,-1,3,-1,5,-1,-1],"loss_changes":[5.791354E0,0E0,6.0886974E0,0E0,6.2246656E0,0E0,0E0],"parents":[2147483647,0,0,2,2,4,4],"right_children":[2,-1,4,-1,6,-1,-1],"split_conditions":[2.00001E0,1.06604934E-1,2.00001E0,8.959494E-2,2.00001E0,7.649858E-2,-6.126E-3],"split_indices":[3319,0,4584,0,4519,0,0],"split_type":[0,0,0,0,0,0,0],"sum_hessian":[2.3042924E2,3.2957516E0,2.271335E2,5.4467793E0,2.2168672E2,7.442812E0,2.1424391E2],"tree_param":{"num_deleted":"0","num_feature":"5000","num_nodes":"7","size_leaf_vector":"1"}},{"base_weights":[2.0338845E-2,1.0037978E-1,-5.39966E-3,9.761591E-2,-3.612885E-2,5.4644037E-2,-9.036389E-3],"categories":[],"categories_nodes":[],"categories_segments":[],"categories_sizes":[],"default_left":[0,0,0,0,0,0,0],"id":80,"left_children":[1,-1,3,-1,5,-1,-1],"loss_changes":[6.9022093E0,0E0,6.0035515E0,0E0,6.7158933E0,0E0,0E0],"parents":[2147483647,0,0,2,2,4,4],"right_children":[2,-1,4,-1,6,-1,-1],"split_conditions":[5.0202274E-1,1.0037978E-1,1.2399395E0,9.761591E-2,3.1004986E-1,5.4644037E-2,-9.036389E-3],"split_indices":[4646,0,387,0,4979,0,0],"split_type":[0,0,0,0,0,0,0],"sum_hessian":[2.3080632E2,4.939064E0,2.2586725E2,4.000697E0,2.2186656E2,1.5779623E1,2.0608693E2],"tree_param":{"num_deleted":"0","num_feature":"5000","num_nodes":"7","size_leaf_vector":"1"}},{"base_weights":[3.379734E-2,8.009936E-2,-6.505475E-2,1.0953333E-1,-7.627732E-2,6.301198E-2,5.5643055E-3],"categories":[],"categories_nodes":[],"categories_segments":[],"categories_sizes":[],"default_left":[1,1,0,0,0,0,0],"id":81,"left_children":[1,3,-1,5,-1,-1,-1],"loss_changes":[6.911345E0,5.0022383E0,0E0,5.322274E0,0E0,0E0,0E0],"parents":[2147483647,0,0,1,1,3,3],"right_children":[2,4,-1,6,-1,-1,-1],"split_conditions":[2.1705161E-1,2.319505E-1,-6.505475E-2,7.919872E-1,-7.627732E-2,6.301198E-2,5.5643055E-3],"split_indices":[4259,184,0,4979,0,0,0],"split_type":[0,0,0,0,0,0,0],"sum_hessian":[2.3082991E2,2.1922458E2,1.1605331E1,2.146551E2,4.5694623E0,1.6389462E1,1.9826566E2],"tree_param":{"num_deleted":"0","num_feature":"5000","num_nodes":"7","size_leaf_vector":"1"}},{"base_weights":[3.242606E-2,8.2407065E-2,-0E0,9.686868E-2,-2.7223706E-2,9.018474E-2,-5.668877E-3],"categories":[],"categories_nodes":[],"categories_segments":[],"categories_sizes":[],"default_left":[0,0,0,0,0,0,0],"id":82,"left_children":[1,-1,3,-1,5,-1,-1],"loss_changes":[6.1056805E0,0E0,5.6213293E0,0E0,5.2119884E0,0E0,0E0],"parents":[2147483647,0,0,2,2,4,4],"right_children":[2,-1,4,-1,6,-1,-1],"split_conditions":[2.00001E0,8.2407065E-2,6.199647E-1,9.686868E-2,1.3972154E0,9.018474E-2,-5.668877E-3],"split_indices":[3261,0,387,0,2023,0,0],"split_type":[0,0,0,0,0,0,0],"sum_hessian":[2.2669327E2,7.3450313E0,2.1934824E2,3.8188188E0,2.1552942E2,3.761802E0,2.1176761E2],"tree_param":{"num_deleted":"0","num_feature":"5000","num_nodes":"7","size_leaf_vector":"1"}},{"base_weights":[4.9908984E-2,8.4278546E-2,-7.757805E-2,1.1940875E-1,-8.487069E-2,1.6284404E-2,-6.359731E-2],"categories":[],"categories_nodes":[],"categories_segments":[],"categories_sizes":[],"default_left":[1,1,0,1,0,0,0],"id":83,"left_children":[1,3,-1,5,-1,-1,-1],"loss_changes":[6.0943418E0,6.949779E0,0E0,7.038041E0,0E0,0E0,0E0],"parents":[2147483647,0,0,1,1,3,3],"right_children":[2,4,-1,6,-1,-1,-1],"split_conditions":[1.7018743E-1,2.5938997E-1,-7.757805E-2,1.940797E-1,-8.487069E-2,1.6284404E-2,-6.359731E-2],"split_indices":[1786,171,0,4803,0,0,0],"split_type":[0,0,0,0,0,0,0],"sum_hessian":[2.3251065E2,2.261059E2,6.4047546E0,2.2061482E2,5.491072E0,2.1135439E2,9.260431E0],"tree_param":{"num_deleted":"0","num_feature":"5000","num_nodes":"7","size_leaf_vector":"1"}},{"base_weights":[2.5379466E-2,7.593322E-2,-3.5026383E-3,7.6294616E-2,-4.1158542E-2,7.965076E-2,-7.5246333E-3],"categories":[],"categories_nodes":[],"categories_segments":[],"categories_sizes":[],"default_left":[0,0,0,0,0,0,0],"id":84,"left_children":[1,-1,3,-1,5,-1,-1],"loss_changes":[5.759216E0,0E0,5.90789E0,0E0,5.681043E0,0E0,0E0],"parents":[2147483647,0,0,2,2,4,4],"right_children":[2,-1,4,-1,6,-1,-1],"split_conditions":[2.00001E0,7.593322E-2,2.00001E0,7.6294616E-2,1.0542989E0,7.965076E-2,-7.5246333E-3],"split_indices":[400,0,4519,0,2554,0,0],"split_type":[0,0,0,0,0,0,0],"sum_hessian":[2.3377904E2,8.247042E0,2.25532E2,7.5139856E0,2.18018E2,5.6287823E0,2.1238922E2],"tree_param":{"num_deleted":"0","num_feature":"5000","num_nodes":"7","size_leaf_vector":"1"}},{"base_weights":[2.5844123E-2,6.134688E-1,-1.5193273E-2,7.589341E-2,-1.8849753E-2,1.0033982E-1,-4.5295198E-2,7.443001E-2,-8.188005E-3],"categories":[],"categories_nodes":[],"categories_segments":[],"categories_sizes":[],"default_left":[0,1,0,0,0,0,0,0,0],"id":85,"left_children":[1,3,5,-1,-1,-1,7,-1,-1],"loss_changes":[6.107051E0,2.7814837E0,5.668859E0,0E0,0E0,0E0,5.523367E0,0E0,0E0],"parents":[2147483647,0,0,1,1,2,2,6,6],"right_children":[2,4,6,-1,-1,-1,8,-1,-1],"split_conditions":[1.1982683E0,3.1925392E-1,2.00001E0,7.589341E-2,-1.8849753E-2,1.0033982E-1,5.2259475E-1,7.443001E-2,-8.188005E-3],"split_indices":[324,4803,3319,0,0,0,295,0,0],"split_type":[0,0,0,0,0,0,0,0,0],"sum_hessian":[2.256686E2,1.4500618E1,2.1116798E2,1.3420569E1,1.0800483E0,3.2516363E0,2.0791634E2,6.283325E0,2.0163301E2],"tree_param":{"num_deleted":"0","num_feature":"5000","num_nodes":"9","size_leaf_vector":"1"}},{"base_weights":[3.5053972E-2,6.912899E-2,-8.2173504E-2,9.124019E-2,3.331157E-2,6.398033E-3,-8.16592E-2],"categories":[],"categories_nodes":[],"categories_segments":[],"categories_sizes":[],"default_left":[1,0,0,0,1,0,0],"id":86,"left_children":[1,3,-1,-1,5,-1,-1],"loss_changes":[6.0115175E0,5.700259E0,0E0,0E0,4.9876533E0,0E0,0E0],"parents":[2147483647,0,0,1,1,4,4],"right_children":[2,4,-1,-1,6,-1,-1],"split_conditions":[1.4925168E-1,3.235825E-1,-8.2173504E-2,9.124019E-2,1.7085743E-1,6.398033E-3,-8.16592E-2],"split_indices":[184,2767,0,0,3162,0,0],"split_type":[0,0,0,0,0,0,0],"sum_hessian":[2.2579546E2,2.2004973E2,5.745731E0,5.83381E0,2.1421591E2,2.0967581E2,4.5401034E0],"tree_param":{"num_deleted":"0","num_feature":"5000","num_nodes":"7","size_leaf_vector":"1"}},{"base_weights":[9.473048E-2,1.0379739E-1,5.941134E-2,8.442474E-2,2.4960682E-2,1.02919005E-1,-0E0],"categories":[],"categories_nodes":[],"categories_segments":[],"categories_sizes":[],"default_left":[0,0,0,0,0,0,0],"id":87,"left_children":[1,-1,3,-1,5,-1,-1],"loss_changes":[6.4689255E0,0E0,5.1893067E0,0E0,5.5815015E0,0E0,0E0],"parents":[2147483647,0,0,2,2,4,4],"right_children":[2,-1,4,-1,6,-1,-1],"split_conditions":[1.6912858E0,1.0379739E-1,1.0827869E0,8.442474E-2,2.00001E0,1.02919005E-1,-0E0],"split_indices":[4550,0,4062,0,4565,0,0],"split_type":[0,0,0,0,0,0,0],"sum_hessian":[2.2881944E2,5.1876054E0,2.2363184E2,6.2062163E0,2.1742563E2,3.39845E0,2.1402718E2],"tree_param":{"num_deleted":"0","num_feature":"5000","num_nodes":"7","size_leaf_vector":"1"}},{"base_weights":[1.3746146E-2,-9.16648E-3,8.477927E-2,8.443155E-2,-4.153345E-2,-7.549919E-3,8.13296E-2],"categories":[],"categories_nodes":[],"categories_segments":[],"categories_sizes":[],"default_left":[1,0,0,0,1,0,0],"id":88,"left_children":[1,3,-1,-1,5,-1,-1],"loss_changes":[5.194888E0,5.396709E0,0E0,0E0,5.6800165E0,0E0,0E0],"parents":[2147483647,0,0,1,1,4,4],"right_children":[2,4,-1,-1,6,-1,-1],"split_conditions":[1.7836094E-1,8.456379E-1,8.477927E-2,8.443155E-2,7.58246E-2,-7.549919E-3,8.13296E-2],"split_indices":[1459,4550,0,0,1326,0,0],"split_type":[0,0,0,0,0,0,0],"sum_hessian":[2.2514156E2,2.1988013E2,5.261422E0,5.071922E0,2.148082E2,2.09478E2,5.330203E0],"tree_param":{"num_deleted":"0","num_feature":"5000","num_nodes":"7","size_leaf_vector":"1"}},{"base_weights":[1.6619664E-2,5.0296567E-2,-6.569057E-2,9.280751E-2,-5.1492393E-2,1.27904685E-2,-7.004429E-2],"categories":[],"categories_nodes":[],"categories_segments":[],"categories_sizes":[],"default_left":[1,1,0,1,0,0,0],"id":89,"left_children":[1,3,-1,5,-1,-1,-1],"loss_changes":[4.595579E0,4.933832E0,0E0,5.368369E0,0E0,0E0,0E0],"parents":[2147483647,0,0,1,1,3,3],"right_children":[2,4,-1,6,-1,-1,-1],"split_conditions":[1.5359256E-1,1.7831239E-1,-6.569057E-2,2.693407E-1,-5.1492393E-2,1.27904685E-2,-7.004429E-2],"split_indices":[1043,2200,0,171,0,0,0],"split_type":[0,0,0,0,0,0,0],"sum_hessian":[2.2443738E2,2.1692622E2,7.5111446E0,2.0495233E2,1.1973894E1,1.9908214E2,5.8701878E0],"tree_param":{"num_deleted":"0","num_feature":"5000","num_nodes":"7","size_leaf_vector":"1"}},{"base_weights":[-8.875659E-3,1.0212386E-1,-3.9816234E-2,9.289518E-2,-7.2922155E-2,6.96535E-2,-1.0894631E-2],"categories":[],"categories_nodes":[],"categories_segments":[],"categories_sizes":[],"default_left":[0,0,0,0,0,0,0],"id":90,"left_children":[1,-1,3,-1,5,-1,-1],"loss_changes":[6.480114E0,0E0,6.5812984E0,0E0,5.7455316E0,0E0,0E0],"parents":[2147483647,0,0,2,2,4,4],"right_children":[2,-1,4,-1,6,-1,-1],"split_conditions":[2.00001E0,1.0212386E-1,5.0202274E-1,9.289518E-2,2.00001E0,6.96535E-2,-1.0894631E-2],"split_indices":[4120,0,4646,0,3261,0,0],"split_type":[0,0,0,0,0,0,0],"sum_hessian":[2.2955551E2,3.8847978E0,2.2567072E2,4.6705937E0,2.2100012E2,7.002422E0,2.139977E2],"tree_param":{"num_deleted":"0","num_feature":"5000","num_nodes":"7","size_leaf_vector":"1"}},{"base_weights":[-2.0083368E-2,9.8944165E-2,-5.064645E-2,7.849891E-2,-8.319014E-2,7.495605E-2,-1.1551601E-2],"categories":[],"categories_nodes":[],"categories_segments":[],"categories_sizes":[],"default_left":[0,0,0,0,0,0,0],"id":91,"left_children":[1,-1,3,-1,5,-1,-1],"loss_changes":[6.2907434E0,0E0,5.605775E0,0E0,5.504054E0,0E0,0E0],"parents":[2147483647,0,0,2,2,4,4],"right_children":[2,-1,4,-1,6,-1,-1],"split_conditions":[2.00001E0,9.8944165E-2,1.0827869E0,7.849891E-2,1E0,7.495605E-2,-1.1551601E-2],"split_indices":[4120,0,4062,0,4584,0,0],"split_type":[0,0,0,0,0,0,0],"sum_hessian":[2.2906471E2,3.9257889E0,2.2513892E2,5.554109E0,2.1958481E2,5.3911977E0,2.141936E2],"tree_param":{"num_deleted":"0","num_feature":"5000","num_nodes":"7","size_leaf_vector":"1"}},{"base_weights":[-3.3530763E-3,5.3425574E-1,-4.7794756E-2,6.772114E-2,-1.7884593E-2,6.631695E-1,-8.815838E-2,-0E0,8.249676E-2,8.4375866E-2,-1.1951765E-2],"categories":[],"categories_nodes":[],"categories_segments":[],"categories_sizes":[],"default_left":[0,1,0,0,0,0,0,0,0,0,0],"id":92,"left_children":[1,3,5,-1,-1,7,9,-1,-1,-1,-1],"loss_changes":[5.024198E0,2.3608289E0,5.700751E0,0E0,0E0,1.7572532E0,5.502953E0,0E0,0E0,0E0,0E0],"parents":[2147483647,0,0,1,1,2,2,5,5,6,6],"right_children":[2,4,6,-1,-1,8,10,-1,-1,-1,-1],"split_conditions":[1.1982683E0,3.1925392E-1,1.5637674E0,6.772114E-2,-1.7884593E-2,5.9752244E-1,1.3972154E0,-0E0,8.249676E-2,8.4375866E-2,-1.1951765E-2],"split_indices":[324,4803,1459,0,0,1485,2023,0,0,0,0],"split_type":[0,0,0,0,0,0,0,0,0,0,0],"sum_hessian":[2.2650893E2,1.3893656E1,2.1261528E2,1.2825507E1,1.0681483E0,8.433483E0,2.041818E2,1.109212E0,7.324271E0,3.9222322E0,2.0025957E2],"tree_param":{"num_deleted":"0","num_feature":"5000","num_nodes":"11","size_leaf_vector":"1"}},{"base_weights":[-1.2826821E-2,8.502274E-2,-4.1727457E-2,9.286361E-2,-6.898567E-2,6.628885E-2,-1.0511135E-2],"categories":[],"categories_nodes":[],"categories_segments":[],"categories_sizes":[],"default_left":[0,0,0,0,0,0,0],"id":93,"left_children":[1,-1,3,-1,5,-1,-1],"loss_changes":[4.843688E0,0E0,5.0753508E0,0E0,5.3031807E0,0E0,0E0],"parents":[2147483647,0,0,2,2,4,4],"right_children":[2,-1,4,-1,6,-1,-1],"split_conditions":[5.0202274E-1,8.502274E-2,2.00001E0,9.286361E-2,2.00001E0,6.628885E-2,-1.0511135E-2],"split_indices":[4646,0,4565,0,4519,0,0],"split_type":[0,0,0,0,0,0,0],"sum_hessian":[2.217611E2,4.2226167E0,2.1753848E2,3.1344087E0,2.1440407E2,7.1509995E0,2.0725307E2],"tree_param":{"num_deleted":"0","num_feature":"5000","num_nodes":"7","size_leaf_vector":"1"}},{"base_weights":[2.9831838E-2,5.9161894E-2,-8.35143E-2,-8.306755E-2,8.716644E-2,1.1526105E-2,-6.606938E-2],"categories":[],"categories_nodes":[],"categories_segments":[],"categories_sizes":[],"default_left":[1,0,0,0,1,0,0],"id":94,"left_children":[1,3,-1,-1,5,-1,-1],"loss_changes":[5.012301E0,4.880917E0,0E0,0E0,4.146954E0,0E0,0E0],"parents":[2147483647,0,0,1,1,4,4],"right_children":[2,4,-1,-1,6,-1,-1],"split_conditions":[1.4925168E-1,1.5487303E0,-8.35143E-2,-8.306755E-2,2.9744616E-1,1.1526105E-2,-6.606938E-2],"split_indices":[184,3869,0,0,1043,0,0],"split_type":[0,0,0,0,0,0,0],"sum_hessian":[2.2226167E2,2.1789256E2,4.369116E0,3.809634E0,2.1408293E2,2.0925098E2,4.831951E0],"tree_param":{"num_deleted":"0","num_feature":"5000","num_nodes":"7","size_leaf_vector":"1"}},{"base_weights":[5.3922363E-2,8.5172944E-2,-7.238421E-2,3.8039975E-2,6.0717446E-1,7.684829E-2,-0E0,7.374238E-2,-0E0],"categories":[],"categories_nodes":[],"categories_segments":[],"categories_sizes":[],"default_left":[1,1,0,0,0,0,0,0,0],"id":95,"left_children":[1,3,-1,5,7,-1,-1,-1,-1],"loss_changes":[4.8401794E0,4.5948033E0,0E0,5.200991E0,1.4907055E0,0E0,0E0,0E0,0E0],"parents":[2147483647,0,0,1,1,3,3,4,4],"right_children":[2,4,-1,6,8,-1,-1,-1,-1],"split_conditions":[2.9439923E-1,1.1901199E-1,-7.238421E-2,1.6013148E0,3.1206223E-1,7.684829E-2,-0E0,7.374238E-2,-0E0],"split_indices":[4803,4979,0,295,4979,0,0,0,0],"split_type":[0,0,0,0,0,0,0,0,0],"sum_hessian":[2.1834212E2,2.1285626E2,5.4858494E0,1.9895363E2,1.3902627E1,7.299181E0,1.9165445E2,1.1522366E1,2.380261E0],"tree_param":{"num_deleted":"0","num_feature":"5000","num_nodes":"9","size_leaf_vector":"1"}},{"base_weights":[9.62121E-3,4.2417627E-2,-8.4754206E-2,8.385022E-2,1.1008683E-2,8.84368E-2,-7.636214E-4],"categories":[],"categories_nodes":[],"categories_segments":[],"categories_sizes":[],"default_left":[1,0,0,0,0,0,0],"id":96,"left_children":[1,3,-1,-1,5,-1,-1],"loss_changes":[5.518842E0,4.5637326E0,0E0,0E0,4.3459897E0,0E0,0E0],"parents":[2147483647,0,0,1,1,4,4],"right_children":[2,4,-1,-1,6,-1,-1],"split_conditions":[2.3957066E-1,1.0827869E0,-8.4754206E-2,8.385022E-2,5.0202274E-1,8.84368E-2,-7.636214E-4],"split_indices":[4054,4062,0,0,4646,0,0],"split_type":[0,0,0,0,0,0,0],"sum_hessian":[2.203994E2,2.1523195E2,5.1674466E0,5.0103374E0,2.102216E2,3.5741024E0,2.066475E2],"tree_param":{"num_deleted":"0","num_feature":"5000","num_nodes":"7","size_leaf_vector":"1"}},{"base_weights":[-0E0,1.0405964E-1,-2.483057E-2,9.27172E-2,-5.286704E-2,7.042562E-2,-8.72335E-3],"categories":[],"categories_nodes":[],"categories_segments":[],"categories_sizes":[],"default_left":[0,0,0,0,0,0,0],"id":97,"left_children":[1,-1,3,-1,5,-1,-1],"loss_changes":[5.502347E0,0E0,5.0307336E0,0E0,5.080669E0,0E0,0E0],"parents":[2147483647,0,0,2,2,4,4],"right_children":[2,-1,4,-1,6,-1,-1],"split_conditions":[1.5300497E0,1.0405964E-1,2.00001E0,9.27172E-2,2.00001E0,7.042562E-2,-8.72335E-3],"split_indices":[788,0,4565,0,4519,0,0],"split_type":[0,0,0,0,0,0,0],"sum_hessian":[2.1852339E2,2.9575202E0,2.1556587E2,3.3115366E0,2.1225433E2,6.259905E0,2.0599443E2],"tree_param":{"num_deleted":"0","num_feature":"5000","num_nodes":"7","size_leaf_vector":"1"}},{"base_weights":[-0E0,7.991371E-2,-3.175839E-2,9.117842E-2,-6.076985E-2,5.7068467E-2,-9.737242E-3],"categories":[],"categories_nodes":[],"categories_segments":[],"categories_sizes":[],"default_left":[0,0,0,0,0,0,0],"id":98,"left_children":[1,-1,3,-1,5,-1,-1],"loss_changes":[5.036011E0,0E0,5.201036E0,0E0,4.5717664E0,0E0,0E0],"parents":[2147483647,0,0,2,2,4,4],"right_children":[2,-1,4,-1,6,-1,-1],"split_conditions":[4.420806E-1,7.991371E-2,2.00001E0,9.117842E-2,1.5637674E0,5.7068467E-2,-9.737242E-3],"split_indices":[2767,0,4120,0,1459,0,0],"split_type":[0,0,0,0,0,0,0],"sum_hessian":[2.2058582E2,5.5429864E0,2.1504283E2,3.5711756E0,2.1147165E2,8.490656E0,2.02981E2],"tree_param":{"num_deleted":"0","num_feature":"5000","num_nodes":"7","size_leaf_vector":"1"}},{"base_weights":[2.8285725E-2,1.0057533E-1,2.4965722E-3,8.302047E-2,-1.7578302E-2,9.355732E-2,-4.4830423E-3],"categories":[],"categories_nodes":[],"categories_segments":[],"categories_sizes":[],"default_left":[0,0,0,0,0,0,0],"id":99,"left_children":[1,-1,3,-1,5,-1,-1],"loss_changes":[4.496529E0,0E0,4.4301715E0,0E0,4.690094E0,0E0,0E0],"parents":[2147483647,0,0,2,2,4,4],"right_children":[2,-1,4,-1,6,-1,-1],"split_conditions":[1.0293417E0,1.0057533E-1,2.5934178E-1,8.302047E-2,2.00001E0,9.355732E-2,-4.4830423E-3],"split_indices":[3027,0,1293,0,3319,0,0],"split_type":[0,0,0,0,0,0,0],"sum_hessian":[2.1657297E2,2.6167834E0,2.1395619E2,4.334699E0,2.0962149E2,2.9538736E0,2.0666762E2],"tree_param":{"num_deleted":"0","num_feature":"5000","num_nodes":"7","size_leaf_vector":"1"}},{"base_weights":[2.3812769E-2,8.14869E-2,-0E0,8.043056E-2,-2.6035983E-2,8.295122E-2,-5.2779745E-3],"categories":[],"categories_nodes":[],"categories_segments":[],"categories_sizes":[],"default_left":[0,0,0,0,0,0,0],"id":100,"left_children":[1,-1,3,-1,5,-1,-1],"loss_changes":[4.2834606E0,0E0,4.34311E0,0E0,4.0911574E0,0E0,0E0],"parents":[2147483647,0,0,2,2,4,4],"right_children":[2,-1,4,-1,6,-1,-1],"split_conditions":[2.00001E0,8.14869E-2,3.235825E-1,8.043056E-2,2.00001E0,8.295122E-2,-5.2779745E-3],"split_indices":[4584,0,2767,0,4120,0,0],"split_type":[0,0,0,0,0,0,0],"sum_hessian":[2.160569E2,4.637097E0,2.114198E2,4.4947248E0,2.0692508E2,3.319104E0,2.0360597E2],"tree_param":{"num_deleted":"0","num_feature":"5000","num_nodes":"7","size_leaf_vector":"1"}},{"base_weights":[-1.3664401E-3,1.7851263E-2,-7.3771276E-2,6.9599114E-2,-4.513718E-3,7.700125E-2,-3.0391715E-3],"categories":[],"categories_nodes":[],"categories_segments":[],"categories_sizes":[],"default_left":[1,0,0,0,0,0,0],"id":101,"left_children":[1,3,-1,-1,5,-1,-1],"loss_changes":[3.884242E0,3.985039E0,0E0,0E0,3.5239563E0,0E0,0E0],"parents":[2147483647,0,0,1,1,4,4],"right_children":[2,4,-1,-1,6,-1,-1],"split_conditions":[2.1709503E-1,1.6013148E0,-7.3771276E-2,6.9599114E-2,1.289178E0,7.700125E-2,-3.0391715E-3],"split_indices":[1786,295,0,0,3205,0,0],"split_type":[0,0,0,0,0,0,0],"sum_hessian":[2.197559E2,2.147448E2,5.0111094E0,6.3604293E0,2.0838437E2,3.6285427E0,2.0475583E2],"tree_param":{"num_deleted":"0","num_feature":"5000","num_nodes":"7","size_leaf_vector":"1"}},{"base_weights":[2.930532E-2,8.0337994E-2,-0E0,-2.2503546E-2,9.077659E-2,-5.24605E-3,8.14518E-2],"categories":[],"categories_nodes":[],"categories_segments":[],"categories_sizes":[],"default_left":[0,0,1,1,0,0,0],"id":102,"left_children":[1,-1,3,5,-1,-1,-1],"loss_changes":[4.818867E0,0E0,4.5618114E0,4.5852876E0,0E0,0E0,0E0],"parents":[2147483647,0,0,2,2,3,3],"right_children":[2,-1,4,6,-1,-1,-1],"split_conditions":[1.0542989E0,8.0337994E-2,2.341645E-1,7.636283E-2,9.077659E-2,-5.24605E-3,8.14518E-2],"split_indices":[2554,0,4856,1326,0,0,0],"split_type":[0,0,0,0,0,0,0],"sum_hessian":[2.170137E2,5.7576814E0,2.1125603E2,2.0784906E2,3.4069552E0,2.0363051E2,4.2185616E0],"tree_param":{"num_deleted":"0","num_feature":"5000","num_nodes":"7","size_leaf_vector":"1"}},{"base_weights":[3.433468E-2,6.52837E-2,-6.992202E-2,9.3686216E-2,-7.008364E-2,1.1783051E-2,-6.911512E-2],"categories":[],"categories_nodes":[],"categories_segments":[],"categories_sizes":[],"default_left":[1,1,0,1,0,0,0],"id":103,"left_children":[1,3,-1,5,-1,-1,-1],"loss_changes":[4.3888597E0,4.1277328E0,0E0,3.5125134E0,0E0,0E0,0E0],"parents":[2147483647,0,0,1,1,3,3],"right_children":[2,4,-1,6,-1,-1,-1],"split_conditions":[3.543584E-1,1.4925168E-1,-6.992202E-2,1.9309597E-1,-7.008364E-2,1.1783051E-2,-6.911512E-2],"split_indices":[2200,184,0,1794,0,0,0],"split_type":[0,0,0,0,0,0,0],"sum_hessian":[2.1521985E2,2.095635E2,5.656351E0,2.0502335E2,4.5401626E0,2.0178949E2,3.2338562E0],"tree_param":{"num_deleted":"0","num_feature":"5000","num_nodes":"7","size_leaf_vector":"1"}},{"base_weights":[1.2727439E-2,9.90137E-2,-6.1149113E-3,7.330149E-2,-3.8222894E-2,4.8170798E-2,-8.652057E-3],"categories":[],"categories_nodes":[],"categories_segments":[],"categories_sizes":[],"default_left":[0,0,0,0,0,0,0],"id":104,"left_children":[1,-1,3,-1,5,-1,-1],"loss_changes":[4.9723234E0,0E0,4.4114566E0,0E0,4.88976E0,0E0,0E0],"parents":[2147483647,0,0,2,2,4,4],"right_children":[2,-1,4,-1,6,-1,-1],"split_conditions":[1.5300497E0,9.90137E-2,2.00001E0,7.330149E-2,3.1206223E-1,4.8170798E-2,-8.652057E-3],"split_indices":[788,0,3261,0,4979,0,0],"split_type":[0,0,0,0,0,0,0],"sum_hessian":[2.1390152E2,3.0994353E0,2.108021E2,5.661829E0,2.0514026E2,1.4150955E1,1.909893E2],"tree_param":{"num_deleted":"0","num_feature":"5000","num_nodes":"7","size_leaf_vector":"1"}},{"base_weights":[-0E0,8.81538E-2,-2.0920454E-2,7.056452E-2,-5.0027676E-2,8.9164026E-2,-7.425283E-3],"categories":[],"categories_nodes":[],"categories_segments":[],"categories_sizes":[],"default_left":[0,0,0,0,0,0,0],"id":105,"left_children":[1,-1,3,-1,5,-1,-1],"loss_changes":[4.8654838E0,0E0,3.9559886E0,0E0,4.0973883E0,0E0,0E0],"parents":[2147483647,0,0,2,2,4,4],"right_children":[2,-1,4,-1,6,-1,-1],"split_conditions":[1.3972154E0,8.81538E-2,2.00001E0,7.056452E-2,1.0293417E0,8.9164026E-2,-7.425283E-3],"split_indices":[2023,0,4584,0,3027,0,0],"split_type":[0,0,0,0,0,0,0],"sum_hessian":[2.1686185E2,4.140073E0,2.1272177E2,5.079796E0,2.0764198E2,2.3763788E0,2.052656E2],"tree_param":{"num_deleted":"0","num_feature":"5000","num_nodes":"7","size_leaf_vector":"1"}},{"base_weights":[-1.0641418E-4,8.238962E-2,-2.8085666E-2,6.559182E-1,-6.2285148E-2,7.3432796E-2,-0E0,4.7626965E-2,-1.0678365E-2],"categories":[],"categories_nodes":[],"categories_segments":[],"categories_sizes":[],"default_left":[0,0,0,1,0,0,0,0,0],"id":106,"left_children":[1,-1,3,5,7,-1,-1,-1,-1],"loss_changes":[4.304833E0,0E0,4.520734E0,4.4032454E-1,4.7196455E0,0E0,0E0,0E0,0E0],"parents":[2147483647,0,0,2,2,3,3,4,4],"right_children":[2,-1,4,6,8,-1,-1,-1,-1],"split_conditions":[1.3972154E0,8.238962E-2,1.5637674E0,1.1779412E-1,1.1982683E0,7.3432796E-2,-0E0,4.7626965E-2,-1.0678365E-2],"split_indices":[2023,0,1459,400,324,0,0,0,0],"split_type":[0,0,0,0,0,0,0,0,0],"sum_hessian":[2.1723094E2,4.091783E0,2.1313914E2,7.025603E0,2.0611356E2,6.017612E0,1.0079906E0,1.2534363E1,1.935792E2],"tree_param":{"num_deleted":"0","num_feature":"5000","num_nodes":"9","size_leaf_vector":"1"}},{"base_weights":[8.050785E-3,3.669739E-2,-7.538305E-2,4.7637248E-1,-5.1695025E-3,-1.9764144E-2,6.687065E-2,-5.264552E-3,5.4745983E-2],"categories":[],"categories_nodes":[],"categories_segments":[],"categories_sizes":[],"default_left":[1,0,0,0,1,0,0,0,0],"id":107,"left_children":[1,3,-1,5,7,-1,-1,-1,-1],"loss_changes":[4.025848E0,4.3448954E0,0E0,3.3762035E0,4.5949807E0,0E0,0E0,0E0,0E0],"parents":[2147483647,0,0,1,1,3,3,4,4],"right_children":[2,4,-1,6,8,-1,-1,-1,-1],"split_conditions":[1.7563087E-1,3.0555978E-1,-7.538305E-2,2.0099387E-1,1.15708955E-1,-1.9764144E-2,6.687065E-2,-5.264552E-3,5.4745983E-2],"split_indices":[1786,2016,0,4259,4979,0,0,0,0],"split_type":[0,0,0,0,0,0,0,0,0],"sum_hessian":[2.1278061E2,2.0816966E2,4.6109366E0,1.8370996E1,1.8979868E2,2.9119382E0,1.5459058E1,1.7811586E2,1.1682809E1],"tree_param":{"num_deleted":"0","num_feature":"5000","num_nodes":"9","size_leaf_vector":"1"}},{"base_weights":[3.134347E-2,7.229047E-2,-0E0,6.0671014E-1,-3.6148634E-2,-8.324197E-3,7.9826444E-2,-7.1942373E-3,5.7488885E-2],"categories":[],"categories_nodes":[],"categories_segments":[],"categories_sizes":[],"default_left":[0,0,0,0,1,0,0,0,0],"id":108,"left_children":[1,-1,3,5,7,-1,-1,-1,-1],"loss_changes":[4.551148E0,0E0,4.6405225E0,2.4217758E0,3.8824887E0,0E0,0E0,0E0,0E0],"parents":[2147483647,0,0,2,2,3,3,4,4],"right_children":[2,-1,4,6,8,-1,-1,-1,-1],"split_conditions":[2.00001E0,7.229047E-2,1.5467481E-1,9.355697E-1,2.2107893E-1,-8.324197E-3,7.9826444E-2,-7.1942373E-3,5.7488885E-2],"split_indices":[400,0,4772,1374,4979,0,0,0,0],"split_type":[0,0,0,0,0,0,0,0,0],"sum_hessian":[2.117478E2,7.1106334E0,2.0463716E2,9.908412E0,1.9472876E2,1.2644532E0,8.643958E0,1.8716591E2,7.5628405E0],"tree_param":{"num_deleted":"0","num_feature":"5000","num_nodes":"9","size_leaf_vector":"1"}},{"base_weights":[-9.403453E-3,7.715128E-2,-4.313828E-2,8.608442E-2,-7.14193E-2,9.1147415E-2,-9.789562E-3],"categories":[],"categories_nodes":[],"categories_segments":[],"categories_sizes":[],"default_left":[0,0,0,0,0,0,0],"id":109,"left_children":[1,-1,3,-1,5,-1,-1],"loss_changes":[4.8715024E0,0E0,4.5607696E0,0E0,4.60029E0,0E0,0E0],"parents":[2147483647,0,0,2,2,4,4],"right_children":[2,-1,4,-1,6,-1,-1],"split_conditions":[1.0542989E0,7.715128E-2,2.00001E0,8.608442E-2,1.0293417E0,9.1147415E-2,-9.789562E-3],"split_indices":[2554,0,4120,0,3027,0,0],"split_type":[0,0,0,0,0,0,0],"sum_hessian":[2.0804016E2,5.576182E0,2.0246399E2,3.283151E0,1.9918083E2,2.4803398E0,1.9670049E2],"tree_param":{"num_deleted":"0","num_feature":"5000","num_nodes":"7","size_leaf_vector":"1"}},{"base_weights":[3.233723E-2,8.265924E-2,-0E0,9.470377E-2,-2.277248E-2,8.739061E-2,-5.2436106E-3],"categories":[],"categories_nodes":[],"categories_segments":[],"categories_sizes":[],"default_left":[0,0,0,0,0,0,0],"id":110,"left_children":[1,-1,3,-1,5,-1,-1],"loss_changes":[5.565138E0,0E0,4.377936E0,0E0,4.68285E0,0E0,0E0],"parents":[2147483647,0,0,2,2,4,4],"right_children":[2,-1,4,-1,6,-1,-1],"split_conditions":[1.6013148E0,8.265924E-2,2.00001E0,9.470377E-2,1.2399395E0,8.739061E-2,-5.2436106E-3],"split_indices":[295,0,4565,0,387,0,0],"split_type":[0,0,0,0,0,0,0],"sum_hessian":[2.1072778E2,6.47061E0,2.0425717E2,2.7636309E0,2.0149353E2,3.5500312E0,1.979435E2],"tree_param":{"num_deleted":"0","num_feature":"5000","num_nodes":"7","size_leaf_vector":"1"}},